#ifndef WEIGHTS_DATA_H
#define WEIGHTS_DATA_H

// Normalization Parameters
const float features_mean[7] = { 0.334226f, 0.044768f, 0.008187f, 0.001415f, 0.000007f, 0.000156f, -0.000006f };
const float features_std[7]  = { 0.084046f, 0.063766f, 0.014061f, 0.002583f, 0.000082f, 0.000721f, 0.000063f };

// Layer 1 Weights (7x100)
const float w1[700] = {
0.348195f, -0.234063f, -0.203106f, 0.175953f, -0.131485f, 0.242948f, 0.171111f, -0.049127f, 0.077285f, -0.195849f, 
-0.025890f, -0.015493f, 0.414976f, 0.023649f, -0.204775f, 0.421936f, -0.272118f, -0.165476f, -0.180841f, 0.394145f, 
-0.375107f, -0.148229f, -0.034759f, -0.103512f, -0.313120f, -0.209797f, -0.027863f, 0.040399f, 0.082379f, -0.092850f, 
-0.107346f, -0.087432f, 0.204333f, -0.158474f, -0.141538f, -0.002438f, 0.046498f, 0.460669f, -0.159396f, 0.023795f, 
-0.107822f, 0.117645f, -0.400786f, -0.020301f, -0.062591f, -0.244460f, -0.079393f, -0.280029f, -0.243513f, -0.201771f, 
-0.067035f, -0.123203f, 0.192966f, -0.313593f, 0.121326f, -0.291052f, 0.391358f, -0.187509f, -0.261892f, 0.075967f, 
0.104090f, 0.059345f, -0.015373f, 0.193724f, -0.072585f, 0.072127f, -0.243231f, 0.008423f, -0.090798f, -0.174908f, 
-0.044603f, 0.204220f, 0.190138f, -0.117614f, -0.308171f, 0.083718f, -0.223353f, -0.065671f, -0.116414f, -0.179674f, 
-0.003262f, -0.037871f, 0.650588f, -0.060253f, -0.220690f, 0.270715f, -0.273687f, -0.164430f, -0.040527f, 0.042232f, 
0.273811f, -0.363410f, -0.236385f, -0.266481f, 0.047249f, 0.119197f, -0.086323f, -0.292764f, -0.046891f, -0.223434f, 
-0.336598f, -0.496145f, 0.175659f, -0.122719f, 0.215833f, -0.069389f, 0.095052f, -0.457877f, 0.257775f, 0.329803f, 
-0.008043f, -0.188880f, -0.154687f, -0.152012f, -0.278229f, -0.361330f, 0.319922f, -0.090710f, -0.549164f, -0.323895f, 
-0.233658f, -0.140360f, -0.096419f, 0.028668f, -0.135599f, -0.452874f, 0.125254f, -0.338395f, 0.077607f, 0.307395f, 
-0.121222f, -0.471421f, -0.438640f, -0.153272f, -0.124708f, 0.101795f, -0.001360f, 0.165512f, 0.450858f, -0.139863f, 
-0.178223f, -0.424640f, 0.406444f, -0.047948f, 0.395599f, -0.349636f, 0.165989f, -0.427811f, -0.144598f, 0.179105f, 
-0.216659f, 0.266018f, -0.004719f, 0.284823f, -0.115182f, 0.354989f, 0.396138f, -0.216839f, -0.028059f, -0.012413f, 
0.281640f, 0.254949f, 0.083447f, -0.244998f, -0.227694f, -0.045094f, -0.171004f, 0.391778f, 0.142369f, 0.366532f, 
0.232758f, 0.136010f, -0.055406f, -0.480519f, 0.307755f, -0.096530f, 0.260631f, 0.212425f, -0.151003f, 0.180493f, 
-0.134328f, 0.243999f, 0.060263f, -0.257964f, 0.241059f, -0.392603f, 0.141179f, -0.216952f, 0.065283f, 0.419504f, 
0.187983f, 0.078133f, 0.188189f, -0.090487f, 0.268917f, -0.112059f, 0.075446f, 0.237689f, 0.238963f, -0.093491f, 
0.169493f, 0.247807f, -0.234929f, -0.150886f, 0.184186f, -0.326333f, 0.239223f, 0.210992f, -0.015714f, 0.095535f, 
0.088902f, -0.339851f, -0.348029f, 0.060389f, -0.255090f, 0.017932f, -0.388875f, -0.334149f, -0.227419f, -0.413766f, 
0.207150f, -0.029382f, -0.256672f, -0.476675f, 0.196383f, -0.147024f, 0.214997f, -0.048937f, -0.283324f, -0.006494f, 
-0.313960f, -0.071124f, -0.219497f, 0.040301f, 0.214875f, 0.434284f, 0.481702f, 0.365539f, -0.400213f, -0.453188f, 
-0.105678f, -0.438691f, -0.226921f, 0.511873f, 0.309900f, -0.217122f, -0.420025f, -0.208365f, -0.210052f, -0.154530f, 
0.203470f, 0.086839f, -0.062822f, 0.169974f, -0.613900f, 0.152594f, 0.466519f, -0.330446f, 0.204379f, -0.446034f, 
-0.017538f, -0.176047f, 0.451219f, -0.193746f, -0.434948f, 0.273535f, 0.294165f, -0.432518f, -0.350464f, 0.389737f, 
-0.401417f, 0.257561f, -0.349824f, -0.257172f, 0.262781f, -0.436416f, -0.480366f, 0.308153f, 0.092059f, 0.246476f, 
0.394775f, -0.399264f, 0.202850f, 0.487808f, -0.098651f, -0.133810f, -0.362090f, -0.166274f, 0.191332f, -0.446297f, 
-0.009498f, 0.309107f, 0.232827f, 0.349455f, -0.297462f, -0.578767f, 0.079397f, 0.220777f, 0.107458f, 0.085447f, 
0.060233f, -0.317704f, 0.179081f, 0.034991f, -0.131417f, 0.177384f, -0.009761f, 0.290557f, -0.298198f, 0.032032f, 
-0.479291f, 0.227332f, 0.071621f, 0.273559f, -0.328784f, -0.173036f, 0.159819f, -0.392087f, -0.302026f, -0.144253f, 
0.319400f, 0.369964f, 0.157513f, -0.325565f, 0.329243f, -0.206748f, 0.116115f, -0.560586f, -0.400829f, 0.024060f, 
0.271986f, 0.408921f, 0.026310f, 0.371455f, -0.121233f, -0.261519f, -0.291878f, -0.034699f, 0.317973f, -0.445243f, 
0.375318f, 0.098153f, 0.022157f, -0.337465f, -0.388439f, 0.308275f, -0.344528f, 0.255419f, -0.357644f, -0.409213f, 
-0.393895f, -0.547156f, -0.708180f, -0.451907f, 0.341664f, 0.300090f, -0.189627f, -0.340504f, 0.177573f, 0.446992f, 
-0.565183f, -0.043045f, -0.275871f, -0.531475f, -0.373545f, 0.176274f, 0.177766f, 0.183476f, -0.078285f, -0.213291f, 
-0.193707f, -0.048568f, 0.315319f, 0.272584f, -0.017608f, -0.050422f, 0.149161f, -0.228527f, 0.009781f, -0.072733f, 
0.008613f, -0.527591f, 0.286553f, 0.176204f, -0.319030f, -0.140125f, 0.280937f, 0.204855f, 0.197389f, 0.192068f, 
0.088956f, 0.108329f, 0.273432f, -0.233696f, -0.220691f, -0.070841f, -0.391349f, -0.236493f, 0.162567f, 0.218952f, 
0.189065f, -0.026294f, -0.161280f, -0.022205f, 0.308583f, -0.353964f, -0.994031f, 0.169822f, 0.004325f, 0.306645f, 
0.147804f, 0.158554f, 0.184999f, -0.637103f, 0.317187f, -0.740713f, 0.038707f, -0.035966f, 0.108177f, -0.301664f, 
0.007974f, 0.190508f, -0.380788f, 0.203677f, -0.277567f, 0.135204f, -0.838926f, 0.003408f, 0.177573f, 0.313931f, 
-0.077813f, -0.396457f, -0.225111f, -0.185560f, 0.016931f, -0.351777f, 0.196783f, -0.118781f, 0.064152f, 0.072940f, 
-0.384611f, -0.148421f, -0.008561f, 0.072379f, 0.190514f, -0.056456f, -0.006296f, -0.220401f, 0.024311f, -0.113645f, 
-0.152853f, 0.145515f, 0.077930f, 0.106833f, 0.144661f, -0.042067f, -0.057545f, -0.106968f, 0.086187f, 0.220573f, 
0.191052f, 0.202498f, 0.176766f, -0.057440f, -0.198246f, 0.266576f, -0.000020f, 0.009452f, 0.095613f, -0.594044f, 
0.067696f, 0.024509f, 0.047482f, 0.180497f, -0.651841f, 0.035143f, -0.107303f, 0.212353f, -0.107662f, -0.638148f, 
0.047441f, -0.088968f, 0.243652f, 0.162188f, -0.179661f, 0.320558f, 0.146823f, -0.517645f, 0.204839f, 0.184086f, 
0.214463f, 0.227693f, -0.150352f, -0.001245f, -0.355845f, 0.157734f, -0.038173f, -0.125578f, 0.257678f, 0.235645f, 
-0.457877f, 0.483839f, 0.171872f, 0.114634f, -0.148823f, -0.082211f, 0.055812f, -0.081311f, 0.285634f, -0.194299f, 
0.336518f, -0.221512f, -0.097368f, -0.150846f, -0.495192f, 0.012672f, -0.135837f, 0.101282f, 0.336181f, 0.388115f, 
-0.143569f, 0.161449f, -0.795006f, 0.180070f, -0.338708f, 0.315325f, 0.134538f, 0.451736f, 0.271368f, -0.043789f, 
-0.074077f, 0.093838f, 0.267695f, 0.145359f, 0.276526f, 0.283965f, 0.214137f, 0.222599f, 0.049345f, -0.036536f, 
-0.415813f, 0.053876f, 0.112973f, -0.155654f, 0.105911f, 0.234228f, -0.514882f, -0.096566f, -0.574673f, 0.292202f, 
-0.584725f, -0.410061f, -0.125579f, 0.115825f, -0.341130f, 0.209392f, 0.066787f, 0.447631f, 0.193027f, -0.410181f, 
-0.002224f, -0.273769f, 0.120297f, 0.233186f, 0.533990f, -0.474413f, -0.469664f, 0.046065f, -0.427814f, -0.175636f, 
-0.200638f, 0.336778f, -0.139149f, -0.147794f, 0.307369f, 0.342346f, 0.209223f, -0.853858f, 0.232867f, -0.087176f, 
-0.087138f, 0.214470f, -0.140429f, -0.199247f, 0.318417f, 0.082613f, -0.084678f, -0.521939f, -0.593306f, -0.301022f, 
-0.140652f, 0.076721f, 0.036594f, 0.225828f, 0.084320f, 0.056708f, -0.026364f, 0.256627f, 0.039727f, -0.441436f, 
0.003037f, 0.221276f, -0.761472f, -0.554621f, -0.421666f, 0.690928f, 0.303859f, -0.272475f, -0.652113f, 0.415220f, 
-0.361451f, -0.746611f, 0.310995f, -0.731263f, -0.033190f, -0.511874f, -0.319976f, 0.308610f, -0.095375f, 0.098423f, 
-0.084913f, 0.206856f, 0.223662f, 0.285740f, 0.578233f, 0.168305f, 0.408256f, 0.301158f, -0.218441f, 0.548929f, 
-0.335325f, 0.436850f, -0.119055f, -0.470332f, 0.144621f, 0.086437f, 0.566938f, 0.352155f, 0.222655f, -0.146494f, 
0.222011f, -0.344162f, -0.094412f, 0.635656f, 0.118615f, 0.010411f, -0.416127f, -0.457616f, -0.284763f, 0.176723f, 
-0.166043f, -0.314742f, 0.328603f, -0.020921f, -0.371133f, 0.408353f, -0.209449f, 0.235733f, 0.319407f, 0.368624f, 
0.371230f, 0.453466f, 0.028739f, 0.263417f, -0.553154f, -0.243602f, -0.196439f, -0.015795f, 0.399061f, 0.065054f, 
0.529474f, 0.152452f, 0.614379f, -0.262699f, -0.014567f, 0.347973f, 0.077516f, -0.053895f, -0.007757f, 0.323146f, 
-0.391362f, -0.175856f, -0.384331f, -0.290405f, 0.469779f, 0.702690f, -0.413446f, -0.603027f, 0.002389f, -0.411689f, 
0.380701f, 0.009593f, -0.476287f, 0.033841f, -0.585517f, 0.328952f, 0.804365f, 0.169724f, 0.394870f, 0.738170f, 
};

// Layer 1 Bias (100)
const float b1[100] = {
0.169622f, 0.155328f, 0.210060f, 0.216319f, 0.028516f, 0.096632f, 0.233518f, -0.070681f, 0.291115f, -0.026776f, 0.176603f, 0.182058f, 0.252537f, 0.154307f, 0.146547f, 0.237023f, 0.189187f, -0.056900f, -0.235132f, 0.157319f, 0.172715f, -0.142303f, -0.120255f, -0.114363f, 0.167437f, 0.047694f, 0.034735f, 0.059684f, -0.058987f, 0.247053f, 0.283837f, -0.043183f, 0.361651f, 0.141498f, 0.205708f, 0.199106f, 0.061599f, 0.182543f, 0.031894f, -0.253863f, 0.208339f, 0.035109f, -0.246104f, -0.048370f, 0.216865f, -0.030066f, 0.105933f, 0.137675f, -0.188045f, -0.102357f, -0.267528f, -0.145759f, -0.077551f, -0.128294f, 0.133863f, 0.089488f, -0.124899f, -0.153836f, 0.134187f, 0.056786f, 0.186510f, 0.264900f, 0.207317f, -0.037961f, -0.028196f, 0.318164f, 0.240893f, 0.186536f, 0.121092f, 0.243350f, 0.079629f, 0.246483f, 0.126185f, -0.211476f, 0.075648f, -0.058420f, -0.057970f, 0.074931f, 0.246896f, 0.220734f, 0.189232f, -0.248520f, -0.156716f, 0.141351f, 0.096710f, 0.203444f, -0.000263f, 0.096837f, 0.176354f, 0.250759f, 0.316579f, 0.262350f, 0.199650f, 0.133974f, 0.343886f, 0.207659f, 0.146188f, 0.064285f, 0.380379f, 0.279050f, };

// Layer 2 Weights (100x100)
const float w2[10000] = {
0.103649f, -0.257856f, -0.085812f, -0.315252f, -0.073001f, -0.157354f, 0.079055f, 0.167383f, -0.185828f, -0.320601f, 
-0.039233f, -0.191739f, 0.041227f, 0.053997f, -0.045286f, 0.032655f, -0.342673f, 0.079561f, 0.149252f, -0.025330f, 
-0.209202f, -0.231527f, -0.275406f, -0.518739f, 0.120180f, -0.008780f, 0.036737f, 0.212501f, -0.101385f, 0.014511f, 
0.072027f, -0.142002f, 0.156899f, 0.158806f, 0.101370f, -0.348992f, -0.032368f, -0.345959f, 0.167115f, -0.298570f, 
0.088735f, -0.152615f, 0.066632f, -0.145528f, 0.138156f, -0.203469f, 0.051052f, -0.373550f, -0.247563f, 0.053537f, 
0.386143f, 0.150871f, -0.028244f, -0.090815f, -0.485159f, -0.191463f, 0.053019f, -0.258130f, 0.016412f, -0.068376f, 
0.297313f, -0.040879f, -0.018981f, -0.024311f, -0.155167f, -0.035723f, -0.298110f, -0.084535f, 0.301100f, 0.309878f, 
-0.156415f, -0.078367f, -0.031622f, -0.038524f, -0.305721f, -0.085019f, -0.203890f, -0.088131f, 0.076916f, 0.172565f, 
-0.015225f, -0.294197f, 0.108607f, -0.049702f, -0.171009f, 0.271350f, -0.012414f, 0.037093f, -0.360313f, -0.112463f, 
-0.181319f, -0.097202f, 0.032565f, 0.032777f, -0.201286f, 0.142590f, -0.116980f, 0.156010f, 0.133451f, 0.048572f, 
-0.266719f, 0.190436f, -0.215885f, -0.091457f, 0.316658f, 0.121289f, 0.030202f, 0.041171f, -0.053791f, 0.230128f, 
0.285019f, -0.042870f, -0.002196f, 0.058906f, 0.070217f, 0.049660f, 0.207856f, 0.107794f, -0.042240f, 0.334563f, 
-0.077913f, 0.453937f, 0.401165f, -0.058862f, 0.156714f, -0.076024f, -0.136803f, -0.065148f, 0.122699f, 0.264022f, 
-0.145006f, -0.086636f, -0.085894f, -0.023651f, -0.033602f, -0.054914f, 0.050903f, -0.000502f, -0.150337f, 0.030668f, 
-0.092858f, 0.155011f, 0.168761f, -0.074778f, -0.371851f, 0.113098f, 0.038463f, -0.097400f, 0.077473f, 0.118093f, 
-0.014000f, -0.268684f, 0.181967f, 0.212240f, 0.308896f, -0.187472f, 0.052548f, 0.338694f, 0.036718f, -0.116242f, 
0.291330f, -0.111275f, -0.001522f, -0.216059f, -0.032731f, 0.001248f, 0.046458f, 0.084702f, -0.153119f, -0.001789f, 
0.074074f, 0.144390f, 0.086239f, -0.211378f, 0.133787f, 0.171395f, 0.072465f, -0.162637f, 0.218921f, -0.235958f, 
-0.037421f, 0.056333f, -0.063239f, 0.270609f, 0.082540f, -0.016147f, 0.128192f, 0.188840f, 0.249116f, -0.167274f, 
0.078976f, 0.028569f, -0.044841f, -0.260542f, -0.193311f, -0.288841f, -0.245417f, 0.036716f, -0.047257f, 0.325780f, 
-0.114293f, 0.070942f, 0.258181f, 0.022504f, 0.061311f, -0.023142f, 0.018992f, 0.023799f, 0.143212f, -0.458631f, 
0.336445f, 0.231245f, 0.016872f, 0.009981f, 0.074566f, 0.014566f, -0.209035f, -0.263577f, -0.137787f, -0.073349f, 
0.057809f, -0.104432f, 0.135932f, 0.176825f, 0.012422f, -0.308227f, 0.227988f, -0.260845f, -0.067739f, 0.008068f, 
-0.400843f, 0.108277f, -0.108441f, 0.075701f, -0.040461f, -0.075217f, -0.403328f, 0.103338f, 0.049094f, -0.223820f, 
-0.174549f, 0.036526f, 0.100083f, -0.129446f, 0.042189f, 0.028248f, -0.025417f, 0.190898f, 0.073822f, -0.088366f, 
-0.126841f, -0.043901f, -0.142923f, 0.067060f, -0.097268f, -0.008131f, -0.017947f, 0.168162f, -0.014988f, -0.212702f, 
-0.271804f, -0.056893f, -0.049822f, 0.277151f, -0.140451f, -0.306050f, 0.061150f, -0.062365f, 0.204960f, 0.006591f, 
-0.125524f, -0.030912f, 0.134934f, -0.057705f, 0.001907f, 0.054542f, -0.014141f, -0.020012f, -0.360068f, -0.040272f, 
0.088234f, 0.122565f, -0.126994f, -0.098129f, -0.111299f, 0.146241f, 0.013700f, 0.307268f, -0.011398f, -0.101256f, 
-0.052960f, 0.159117f, -0.118138f, 0.111368f, 0.161868f, 0.138176f, 0.037246f, 0.074216f, 0.055396f, -0.418880f, 
-0.009653f, -0.116767f, -0.128797f, -0.010951f, 0.012335f, -0.361267f, 0.170690f, 0.050945f, -0.036168f, -0.142853f, 
0.290740f, 0.025873f, 0.034474f, -0.118434f, 0.017671f, 0.050603f, -0.088835f, -0.212258f, -0.010279f, -0.176297f, 
0.049558f, -0.179661f, -0.067909f, 0.162186f, 0.002394f, -0.317216f, 0.057700f, -0.053093f, -0.127589f, -0.172468f, 
-0.265401f, -0.075397f, -0.139936f, -0.090160f, 0.018022f, 0.231358f, -0.510918f, 0.041437f, 0.002272f, -0.262495f, 
-0.115704f, 0.074594f, -0.057385f, -0.105068f, 0.064836f, 0.168245f, -0.081459f, -0.341897f, 0.172936f, -0.014419f, 
-0.089869f, 0.214063f, -0.020640f, -0.076162f, -0.085714f, 0.176008f, -0.050950f, 0.035945f, -0.296120f, 0.203261f, 
-0.400563f, 0.026064f, 0.166057f, 0.106910f, -0.088819f, -0.392889f, 0.153403f, 0.008620f, 0.146322f, -0.112180f, 
-0.235521f, 0.260649f, -0.221263f, 0.131876f, -0.187731f, 0.156456f, 0.329729f, 0.156676f, -0.085529f, -0.098250f, 
-0.067421f, -0.120506f, 0.193686f, 0.019659f, -0.031876f, 0.064203f, 0.196897f, 0.161090f, 0.032718f, -0.021588f, 
-0.180599f, 0.094299f, -0.186230f, 0.238635f, 0.001808f, -0.327875f, -0.017894f, 0.195603f, 0.055093f, 0.166068f, 
-0.101148f, -0.152541f, 0.106271f, 0.043216f, -0.082287f, 0.021620f, -0.043090f, 0.315437f, -0.023793f, 0.132302f, 
-0.306977f, 0.293130f, -0.225022f, -0.361276f, -0.125019f, -0.590022f, -0.063868f, -0.097780f, 0.164616f, 0.141976f, 
-0.039058f, 0.244962f, -0.101095f, -0.556153f, -0.146550f, -0.512479f, -0.238746f, 0.673037f, 0.292554f, 0.103896f, 
0.167692f, -0.137928f, 0.324024f, -0.068815f, -0.161297f, 0.328164f, 0.229734f, 0.028116f, 0.393969f, 0.710928f, 
0.103090f, -0.067291f, 0.110434f, -0.488343f, -0.167805f, -0.214621f, 0.173583f, 0.153720f, -0.143753f, -0.117983f, 
-0.752851f, 0.057312f, 0.397769f, 0.246838f, 0.024739f, -0.217612f, -0.528860f, -0.421692f, 0.329819f, -0.250032f, 
-0.030168f, -0.037731f, -0.357829f, -0.054180f, -0.038818f, 0.310317f, -0.023305f, -0.116126f, -0.091945f, -0.719822f, 
0.370497f, -0.433792f, 0.188375f, -0.064549f, 0.224661f, -0.204955f, -0.148868f, 0.074891f, -0.599370f, 0.188474f, 
-0.022419f, -0.015053f, -0.056439f, 0.046517f, 0.106280f, -0.033307f, -0.192920f, -0.680492f, -0.440320f, 0.094478f, 
0.331163f, -0.076741f, 0.707273f, 0.029280f, -0.231485f, -0.111281f, 0.144261f, -0.155131f, 0.058476f, -0.099005f, 
0.000762f, -0.115582f, -0.171398f, 0.115526f, 0.163214f, -0.059026f, -0.639904f, -0.129430f, -0.088307f, -0.000121f, 
-0.473778f, -0.330604f, 0.262923f, -0.096934f, 0.186485f, -0.182781f, -0.097007f, 0.336723f, 0.151754f, -0.115134f, 
0.274522f, 0.060274f, -0.423195f, -0.171941f, -0.117157f, -0.122365f, -0.009597f, 0.041235f, 0.006584f, 0.139102f, 
-0.166937f, 0.035740f, -0.112434f, -0.189543f, 0.064323f, 0.219046f, 0.231441f, 0.150726f, 0.001895f, -0.181677f, 
0.251081f, -0.018378f, -0.163695f, 0.206253f, 0.102598f, -0.036273f, -0.185510f, 0.086646f, -0.538780f, 0.044305f, 
-0.385789f, -0.434597f, 0.024259f, 0.203172f, 0.154980f, 0.256059f, -0.075595f, -0.281360f, 0.204817f, 0.206495f, 
0.046355f, -0.140091f, 0.260671f, 0.053813f, 0.067798f, 0.099136f, 0.092368f, 0.160778f, 0.010757f, 0.030319f, 
-0.309294f, -0.443763f, -0.508565f, -0.090579f, -0.472885f, -0.101747f, -0.687173f, 0.231484f, 0.161753f, -0.053790f, 
0.087658f, 0.046452f, -0.118232f, -0.291906f, 0.113252f, 0.014178f, 0.153922f, -0.255044f, 0.266450f, -0.027835f, 
0.158389f, -0.163553f, -0.229139f, -0.015535f, 0.082407f, -0.452465f, 0.201313f, 0.066923f, -0.077456f, 0.087921f, 
-0.058953f, -0.202804f, -0.184525f, -0.081888f, 0.022886f, 0.044348f, -0.162332f, -0.269043f, 0.002890f, -0.067603f, 
0.156486f, -0.069623f, -0.173126f, -0.289770f, -0.089448f, 0.145710f, -0.201796f, 0.280671f, 0.277246f, -0.001399f, 
0.267573f, 0.168625f, -0.060071f, -0.237116f, -0.115037f, 0.076020f, 0.015338f, -0.017200f, -0.109025f, 0.220314f, 
0.166757f, -0.266720f, -0.119843f, -0.435847f, -0.241995f, -0.174617f, -0.011832f, 0.234144f, -0.168454f, -0.190698f, 
-0.112100f, -0.165046f, -0.073296f, 0.130594f, 0.033883f, 0.299844f, 0.008591f, -0.040694f, 0.093029f, -0.004720f, 
-0.489435f, -0.321568f, 0.050247f, 0.004627f, -0.026490f, -0.022067f, 0.075314f, 0.164946f, 0.074249f, 0.325147f, 
-0.083801f, 0.153434f, 0.098841f, -0.580519f, -0.149697f, -0.235654f, -0.172890f, -0.232396f, 0.076862f, -0.152490f, 
-0.391709f, -0.003084f, -0.061442f, -0.001713f, -0.157650f, -0.061293f, 0.220811f, 0.338037f, 0.041650f, -0.021356f, 
0.047967f, -0.140046f, -0.073457f, 0.351479f, 0.207493f, 0.135380f, 0.097340f, 0.099133f, -0.062822f, 0.088482f, 
0.033580f, 0.042468f, -0.090880f, 0.025826f, -0.067641f, -0.507172f, 0.006875f, 0.070172f, 0.189618f, -0.009801f, 
-0.315561f, 0.122419f, -0.154851f, 0.043463f, 0.159380f, 0.114240f, 0.180709f, -0.250296f, 0.179318f, -0.263528f, 
-0.146398f, -0.046438f, -0.134619f, 0.274203f, -0.211977f, -0.071934f, -1.059860f, 0.173178f, -0.095748f, -0.040454f, 
0.273696f, 0.169069f, -0.028205f, -0.469059f, 0.098432f, 0.166580f, 0.167791f, -0.829722f, -0.612126f, -0.185061f, 
-0.688575f, 0.108953f, 0.044282f, -0.181706f, -0.179258f, 0.002689f, -0.121670f, -0.383728f, -0.056358f, -0.625922f, 
0.349317f, 0.176995f, -0.059207f, -0.440314f, -0.089745f, -0.144265f, 0.117460f, -0.873630f, -0.130801f, 0.277625f, 
0.129009f, 0.042326f, 0.146953f, -0.003079f, 0.266921f, -0.063373f, 0.126507f, -0.041190f, -0.274648f, -0.385590f, 
0.054011f, 0.168167f, -0.131544f, -0.143104f, -0.052914f, 0.087932f, -0.037319f, 0.227824f, 0.044104f, -0.040149f, 
0.191700f, -0.201068f, -0.015955f, -0.024523f, 0.117377f, 0.163978f, 0.011256f, -0.106127f, -0.229756f, 0.020866f, 
0.062989f, 0.128078f, -0.176402f, 0.032187f, 0.079931f, -0.044520f, -0.201003f, 0.134714f, -0.455088f, 0.115332f, 
0.013934f, 0.016419f, -0.258864f, 0.055982f, -0.094736f, 0.149072f, 0.010541f, 0.011735f, 0.070120f, -0.117191f, 
0.092433f, 0.232772f, 0.447786f, 0.024487f, -0.227449f, -0.037048f, -0.062777f, -0.065203f, 0.173082f, -0.271641f, 
0.148564f, 0.130211f, 0.044765f, 0.098394f, -0.006640f, 0.140815f, 0.177651f, -0.421711f, 0.038472f, 0.249249f, 
0.168557f, -0.131837f, 0.220329f, 0.315919f, 0.245946f, -0.648139f, 0.308708f, -0.138255f, 0.120772f, -0.010324f, 
0.115194f, 0.168235f, -0.153949f, 0.070632f, 0.113217f, 0.025247f, -0.363688f, -0.218039f, 0.170407f, 0.143738f, 
-0.403344f, 0.368841f, -0.132219f, -0.366376f, -0.079950f, 0.236420f, -0.176442f, -0.183344f, 0.119080f, -0.066733f, 
-0.371866f, 0.095676f, 0.240966f, 0.091201f, 0.112113f, -0.035434f, 0.086491f, 0.184413f, 0.028997f, 0.057699f, 
-1.121430f, -0.047679f, 0.050227f, 0.015152f, 0.033004f, -0.452075f, 0.102392f, 0.041250f, -0.138738f, -0.003008f, 
0.135800f, 0.369143f, 0.100766f, -0.082028f, 0.126998f, 0.103970f, 0.417300f, -0.050412f, -0.409639f, 0.068413f, 
0.049851f, 0.092365f, 0.172857f, 0.348995f, 0.021972f, 0.111076f, 0.284365f, 0.083982f, 0.123786f, 0.026641f, 
-0.211428f, -0.064043f, 0.003056f, 0.100733f, 0.281522f, -0.172607f, 0.060030f, 0.016234f, -0.073119f, -0.048405f, 
0.343351f, -0.006159f, 0.585307f, -0.456740f, -0.071009f, 0.001771f, 0.567972f, 0.092440f, 0.027066f, -0.422653f, 
0.154675f, -0.017242f, -0.650704f, -0.307793f, 0.058196f, 0.160040f, 0.165062f, -0.360853f, 0.014115f, 0.323177f, 
-0.079483f, -0.260220f, 0.557441f, -0.263004f, 0.225705f, -0.235990f, 0.252966f, 0.368377f, 0.221104f, 0.220358f, 
0.387364f, 0.396452f, 0.307291f, -0.049755f, 0.006174f, -0.383658f, -0.127060f, 0.028146f, -0.038113f, 0.277423f, 
-0.330263f, 0.101980f, -0.580213f, -0.086759f, 0.149425f, -0.209105f, 0.127787f, 0.313707f, 0.336880f, -0.087467f, 
-0.075157f, -0.108040f, -0.217427f, -0.140719f, -0.002079f, 0.174506f, 0.113207f, -0.232201f, 0.257720f, -0.441865f, 
-0.206862f, 0.500022f, 0.136202f, -0.040504f, -0.009084f, 0.051961f, 0.334815f, 0.090497f, 0.038468f, -0.452252f, 
0.107810f, 0.171786f, 0.540767f, 0.198673f, 0.458173f, 0.055857f, -0.120699f, -0.280096f, -0.353116f, 0.395425f, 
0.255888f, -0.222581f, -0.416512f, 0.006742f, -0.337378f, 0.006201f, -0.523196f, -0.154713f, -0.163684f, -0.664311f, 
-0.295815f, -0.035187f, 0.189218f, -0.166722f, 0.246493f, 0.245673f, -0.264018f, 0.127942f, 0.529105f, -0.335350f, 
-0.154689f, 0.200708f, 0.031663f, 0.044619f, 0.275844f, -0.055137f, 0.102145f, 0.136632f, 0.218555f, 0.088353f, 
0.196082f, 0.446563f, -0.064669f, 0.253049f, 0.067557f, -0.075530f, 0.322517f, -0.276422f, 0.112427f, 0.205099f, 
-0.099344f, 0.324105f, 0.125036f, 0.146378f, -0.070616f, -0.367358f, 0.291752f, 0.056727f, 0.180496f, 0.118538f, 
0.188194f, 0.072824f, -0.105951f, -0.071543f, -0.010755f, -0.046677f, -0.519476f, 0.135959f, -0.095462f, 0.463534f, 
-0.125441f, 0.241498f, -0.096454f, -0.378917f, -0.243508f, 0.004105f, -0.165903f, -0.107885f, 0.254137f, -0.010603f, 
0.044604f, 0.176767f, 0.029737f, 0.011038f, 0.332346f, -0.063220f, 0.149006f, 0.332162f, -0.258379f, 0.033408f, 
-0.459846f, 0.112153f, -0.026987f, 0.121141f, 0.061126f, 0.138499f, -0.023570f, -0.277359f, -0.193054f, 0.177517f, 
0.025684f, 0.307555f, -0.077982f, -0.156270f, 0.262785f, 0.133123f, 0.043079f, -0.051936f, -0.343848f, -0.107063f, 
0.070613f, -0.169899f, -0.102916f, 0.210939f, -0.145502f, -0.083192f, 0.103400f, 0.179738f, -0.027764f, -0.260409f, 
-0.166416f, 0.090324f, 0.210496f, 0.273137f, -0.091000f, -0.073675f, -0.027470f, 0.200519f, 0.287203f, 0.098409f, 
0.387502f, 0.211820f, -0.177453f, 0.019240f, -0.093089f, -0.120155f, 0.182014f, -0.330515f, -0.085582f, -0.397807f, 
0.291941f, -0.477099f, 0.305640f, -0.026861f, 0.096404f, 0.249945f, -0.098898f, -0.124913f, -0.009281f, -0.246685f, 
0.228026f, -0.216664f, -0.101131f, 0.195852f, -0.009160f, -0.070937f, 0.303136f, -0.044711f, 0.079064f, -0.590339f, 
-0.148007f, 0.079539f, 0.074180f, -0.058995f, 0.131522f, -0.259486f, -0.477751f, -0.216378f, -0.028735f, -0.421294f, 
0.117285f, 0.249269f, 0.114147f, -0.096101f, -0.011167f, 0.197648f, 0.087083f, 0.030544f, -0.187976f, 0.054320f, 
0.114514f, 0.143134f, -0.310241f, -0.502223f, -0.138633f, 0.042763f, -0.064092f, -0.197536f, -0.221825f, 0.002238f, 
-0.034385f, -0.070224f, 0.063860f, 0.190793f, 0.096485f, -0.216993f, -0.124894f, 0.081964f, 0.312663f, 0.081408f, 
-0.280478f, 0.221370f, -0.211485f, 0.331319f, 0.140689f, -0.162211f, 0.191563f, 0.287898f, 0.080132f, 0.277018f, 
-0.132044f, -0.218924f, 0.040285f, -0.352217f, -0.023011f, 0.097500f, 0.212400f, 0.357499f, 0.103329f, -0.054679f, 
-0.261259f, -0.093085f, -0.115754f, 0.154604f, 0.363777f, 0.072943f, 0.249720f, 0.136219f, 0.284301f, -0.333210f, 
0.070972f, -0.113553f, -0.141480f, 0.106544f, 0.109534f, 0.015273f, -0.355150f, 0.041393f, -0.051339f, 0.222297f, 
-0.303448f, -0.462533f, 0.181565f, -0.202795f, -0.124055f, 0.145500f, 0.166329f, 0.199067f, 0.187281f, -0.017707f, 
-0.033687f, 0.014280f, -0.621677f, -0.004619f, 0.178489f, 0.103089f, -0.158313f, 0.285629f, -0.094894f, 0.043671f, 
-0.076930f, 0.144384f, -0.151019f, -0.113963f, 0.151360f, -0.055806f, -0.077598f, 0.079389f, 0.016211f, -0.266385f, 
0.473172f, -0.159011f, 0.259598f, 0.375622f, -0.139676f, -0.085589f, -0.271671f, -0.061641f, -0.481064f, -0.009803f, 
0.053489f, 0.199255f, -0.187688f, 0.085659f, 0.022671f, 0.123176f, -0.093487f, -0.474875f, -0.005383f, 0.105374f, 
0.066397f, -0.010800f, 0.254484f, -0.214984f, 0.046775f, -0.062217f, -0.132065f, 0.023446f, -0.029036f, 0.195908f, 
-0.230267f, -0.247699f, -0.304360f, -0.091842f, -0.831234f, -0.010618f, -0.344566f, 0.041275f, 0.149390f, -0.165925f, 
0.114074f, 0.338573f, 0.218128f, -0.160974f, 0.059071f, 0.192544f, 0.091088f, 0.024981f, 0.116222f, 0.324499f, 
0.238980f, 0.138406f, 0.096970f, -0.148063f, -0.184245f, -0.444291f, 0.196614f, -0.152677f, -0.031665f, 0.399182f, 
0.180630f, 0.066884f, -0.026811f, -0.191805f, 0.073044f, -0.139270f, 0.159111f, -0.001610f, 0.069513f, -0.726091f, 
0.428547f, -0.284748f, 0.146575f, -0.169863f, -0.044349f, 0.036721f, -0.237445f, -0.179628f, 0.012433f, -0.451543f, 
0.003196f, -0.540909f, 0.157607f, -0.385685f, 0.253313f, -0.075478f, 0.176550f, -0.380007f, -0.447255f, -0.020006f, 
-0.244803f, -0.018798f, 0.028350f, 0.027169f, -0.235565f, -0.259292f, -0.531248f, -0.683184f, 0.015422f, -0.552675f, 
-0.180988f, 0.151945f, -0.213878f, -0.169845f, 0.070842f, 0.018265f, -0.162342f, -0.531388f, 0.200197f, 0.188790f, 
-0.098760f, -0.037077f, -0.051972f, -0.019081f, -0.014435f, -0.063125f, 0.094973f, 0.134875f, 0.048562f, -0.096234f, 
-0.142486f, -0.104044f, 0.036565f, -0.045847f, -0.076449f, -0.455779f, 0.145154f, -0.015108f, 0.274883f, -0.064999f, 
-0.332566f, 0.164900f, -0.340316f, -0.041399f, -0.020468f, 0.209765f, -0.040559f, 0.117519f, -0.601323f, 0.030180f, 
0.007659f, -0.162839f, 0.094401f, 0.205332f, 0.117745f, -0.091626f, -0.049020f, 0.419855f, -0.195832f, 0.077721f, 
-0.193830f, 0.135900f, -0.880277f, 0.299179f, 0.159511f, -0.029976f, -0.045818f, -0.102120f, 0.174874f, -0.266088f, 
0.028438f, 0.156166f, 0.055733f, 0.311191f, -0.166471f, 0.125734f, -0.024048f, 0.046970f, -0.125655f, -0.118539f, 
-0.096035f, 0.134936f, -0.077116f, 0.067642f, -0.042294f, 0.119904f, 0.139306f, 0.175385f, -0.242645f, -0.018259f, 
-0.009764f, -0.031176f, -0.261165f, 0.042795f, -0.069692f, 0.221811f, 0.027211f, 0.286532f, -0.000753f, -0.189046f, 
0.233271f, -0.107600f, -0.041355f, 0.083119f, -0.051534f, -0.028229f, 0.068296f, 0.065490f, -0.028140f, 0.144278f, 
-0.006158f, -0.137886f, 0.127607f, -0.030226f, 0.114822f, 0.012920f, -0.061425f, 0.229299f, 0.019792f, 0.060528f, 
0.116701f, 0.120954f, -0.064067f, 0.010662f, -0.081726f, 0.139726f, -0.245123f, -0.083578f, 0.054480f, 0.140774f, 
-0.115828f, -0.174887f, 0.088197f, 0.062556f, -0.047983f, 0.167279f, -0.183969f, 0.254675f, -0.109704f, 0.125203f, 
-0.189287f, 0.145812f, -0.014023f, 0.186001f, -0.155238f, 0.014154f, 0.074294f, 0.116408f, 0.175559f, -0.270732f, 
0.076852f, 0.274751f, 0.242048f, -0.038180f, 0.045199f, 0.009683f, 0.089029f, -0.003196f, -0.017568f, 0.027408f, 
-0.084478f, -0.162179f, 0.085377f, 0.501581f, 0.124863f, 0.059443f, 0.002047f, -0.009954f, 0.154942f, -0.035695f, 
0.040109f, -0.019973f, -0.064892f, -0.269065f, 0.162741f, -0.208956f, 0.149211f, -0.322925f, -0.120807f, -0.427551f, 
0.571780f, -0.243632f, 0.378358f, -0.061567f, -0.072999f, 0.177229f, 0.033361f, 0.019837f, 0.259138f, 0.051140f, 
0.024920f, -0.097780f, -0.155574f, -0.273400f, 0.017069f, 0.162212f, 0.081552f, -0.181987f, -0.066886f, 0.134564f, 
-0.070795f, -0.081598f, -0.072319f, -0.420748f, -0.305466f, -0.398716f, -0.203279f, 0.055918f, -0.234259f, -0.141580f, 
-0.041164f, 0.013145f, -0.146443f, -0.324947f, 0.028494f, 0.112530f, -0.237237f, -0.269970f, -0.048594f, 0.215624f, 
0.293837f, 0.227639f, -0.106749f, -0.171723f, -0.058595f, -0.114909f, 0.071668f, 0.118630f, -0.149246f, -0.087761f, 
0.007868f, 0.081969f, 0.269193f, -0.030318f, -0.168809f, -0.454144f, 0.280183f, -0.071749f, 0.119663f, 0.547100f, 
-0.708763f, 0.177708f, -0.756230f, -0.022015f, -0.213880f, -0.192105f, 0.474186f, 0.019806f, -0.277951f, -0.164692f, 
0.137229f, 0.086566f, -0.014778f, 0.190511f, -0.053327f, 0.176333f, 0.022696f, 0.488526f, -0.117509f, -0.095762f, 
-0.093774f, 0.036475f, 0.121590f, 0.105385f, 0.147522f, -0.434231f, -0.235241f, -0.072727f, 0.155185f, -0.035742f, 
0.327690f, 0.382215f, 0.433743f, -0.004020f, -0.252042f, -0.042350f, -0.041895f, 0.106438f, -0.243666f, -0.104338f, 
-0.013736f, -0.142872f, 0.108020f, -0.058755f, 0.084266f, 0.069264f, -0.153227f, -0.030531f, -0.122965f, -0.234198f, 
0.117900f, -0.361147f, 0.334486f, 0.122833f, 0.253880f, -0.074794f, 0.074266f, 0.035627f, -0.063446f, -0.098861f, 
-0.051408f, -0.032183f, 0.242928f, 0.406940f, 0.322308f, -0.189842f, -0.180569f, 0.009170f, 0.051061f, -0.047508f, 
-0.071317f, 0.025069f, 0.292525f, 0.333301f, 0.605262f, -0.141322f, -0.021686f, 0.261839f, 0.089180f, 0.128032f, 
-0.174880f, 0.151141f, -0.143820f, -0.292718f, -0.243295f, 0.014630f, 0.048814f, -0.389109f, -0.080570f, -0.231534f, 
0.038583f, -0.119240f, 0.057297f, 0.223132f, -0.087780f, -0.159101f, 0.150442f, 0.187737f, 0.350568f, -0.119083f, 
0.049870f, 0.298312f, 0.360921f, 0.270437f, 0.088140f, -0.131813f, 0.181788f, 0.122483f, 0.063492f, 0.432128f, 
0.132774f, -0.069663f, 0.032431f, -0.192078f, -0.203509f, 0.132369f, -0.142077f, -0.070234f, 0.161365f, -0.035153f, 
-0.003573f, -0.131744f, 0.006350f, -0.002932f, 0.271915f, 0.248934f, 0.061614f, -0.013784f, 0.283420f, -0.403280f, 
-0.064074f, -0.064523f, 0.088036f, -0.016734f, 0.006412f, 0.093863f, 0.006764f, 0.037118f, 0.109803f, 0.264974f, 
-0.089528f, 0.162971f, -0.183685f, -0.098330f, -0.140084f, -0.001625f, 0.141788f, -0.036545f, -0.048805f, 0.149237f, 
0.030168f, 0.195847f, -0.004236f, 0.128046f, -0.126326f, 0.143013f, -0.060605f, 0.184250f, 0.091454f, -0.063386f, 
0.301422f, -0.185513f, 0.204865f, -0.170794f, -0.163825f, 0.069004f, 0.088340f, 0.176733f, -0.176852f, 0.260339f, 
-0.072468f, -0.117852f, 0.061282f, 0.118957f, -0.041895f, -0.100779f, -0.006796f, 0.204244f, -0.097525f, 0.062147f, 
0.119223f, 0.002607f, -0.038431f, 0.071265f, -0.030155f, -0.010350f, 0.075059f, -0.017386f, 0.102609f, 0.194169f, 
-0.098990f, 0.098941f, 0.274424f, 0.015972f, 0.133173f, 0.160778f, 0.124487f, 0.023804f, 0.201629f, -0.063601f, 
-0.116465f, -0.125454f, 0.193448f, 0.007296f, -0.133040f, -0.142859f, -0.099268f, 0.044749f, -0.073219f, -0.227891f, 
0.109946f, 0.180018f, 0.102982f, -0.055629f, -0.246576f, 0.055217f, 0.108225f, 0.032220f, -0.048244f, -0.011588f, 
-0.066200f, -0.002507f, 0.170676f, 0.023291f, -0.066118f, -0.007515f, 0.024401f, -0.169576f, -0.021966f, 0.094226f, 
-0.088627f, 0.071289f, -0.397919f, 0.234638f, 0.438894f, -0.141555f, 0.210846f, -0.064389f, -0.033054f, 0.164853f, 
0.080229f, -0.010746f, 0.097185f, 0.189284f, -0.289921f, 0.010361f, -0.076288f, 0.032690f, -0.105540f, 0.001809f, 
0.192767f, 0.097044f, -0.267955f, 0.248635f, -0.138909f, 0.119345f, -0.067833f, 0.050438f, 0.166889f, 0.091422f, 
0.144558f, -0.214024f, 0.071668f, 0.043947f, -0.001093f, -0.095386f, -0.114006f, 0.276250f, 0.000559f, 0.213694f, 
0.102956f, -0.054165f, 0.147316f, -0.224027f, -0.033137f, 0.009539f, 0.057564f, 0.248965f, 0.021124f, 0.121296f, 
0.350466f, -0.055806f, 0.081253f, 0.159251f, 0.150419f, -0.295889f, 0.198524f, 0.279870f, -0.346878f, 0.224866f, 
-0.042716f, -0.004333f, 0.240821f, -0.015047f, -0.131647f, 0.080857f, -0.143334f, -0.301332f, 0.046086f, 0.049448f, 
-0.218670f, -0.114861f, -0.136654f, 0.017847f, -0.298743f, 0.015395f, 0.147966f, -0.102322f, 0.106821f, -0.487856f, 
-0.010335f, 0.356322f, -0.129312f, -0.132142f, -0.235955f, 0.048656f, -0.059808f, 0.109975f, -0.045521f, -0.079583f, 
0.008722f, 0.115480f, 0.212673f, -0.029647f, -0.273839f, 0.048542f, -0.048916f, -0.172804f, -0.082912f, 0.405408f, 
-0.229024f, 0.024028f, -0.418938f, -0.202595f, 0.346955f, -0.173073f, 0.184245f, -0.083096f, 0.077000f, 0.175844f, 
-0.044010f, -0.195994f, 0.310823f, -0.120773f, 0.031097f, 0.069884f, 0.136849f, 0.253673f, 0.055279f, 0.175420f, 
0.345903f, 0.238156f, -0.678167f, 0.110515f, 0.093660f, -0.214421f, -0.063442f, 0.097493f, -0.113347f, 0.210612f, 
-0.115370f, 0.223502f, -0.304117f, -0.434965f, -0.135745f, 0.055775f, 0.042989f, 0.162465f, 0.094913f, 0.110469f, 
0.135089f, -0.204977f, -0.422732f, -0.169044f, -0.193259f, -0.242104f, -0.574056f, -0.048390f, 0.077064f, -0.012204f, 
0.083908f, -0.025350f, -0.188784f, 0.127694f, 0.478701f, -0.223455f, 0.283269f, 0.062272f, -0.017454f, -0.099470f, 
0.198501f, -0.057191f, 0.149826f, -0.190114f, 0.040902f, -0.249014f, 0.034668f, -0.084590f, -0.069998f, 0.270477f, 
-0.231750f, 0.020844f, -0.371057f, -0.362046f, -0.179318f, -0.046430f, 0.391711f, 0.071078f, 0.110399f, -0.134469f, 
-0.013231f, 0.137298f, 0.052102f, 0.031819f, -0.234680f, 0.090068f, -0.190305f, 0.129852f, 0.107732f, -0.050098f, 
0.197239f, 0.045965f, 0.140717f, -0.487641f, -0.001474f, -0.450547f, -0.058223f, -0.093939f, 0.019196f, 0.476095f, 
-0.106538f, 0.138500f, -0.169011f, 0.131135f, -0.061270f, 0.264865f, 0.184849f, -0.021375f, 0.058721f, 0.056166f, 
-0.104617f, -0.223640f, -0.071582f, 0.265258f, 0.193278f, 0.003854f, -0.246907f, 0.059418f, 0.100105f, -0.130604f, 
-0.177051f, 0.173557f, 0.177475f, -0.202700f, -0.130229f, 0.074370f, 0.120531f, -0.226410f, -0.108710f, -0.030688f, 
-0.121269f, 0.219333f, 0.060796f, -0.049226f, -0.153464f, -0.031485f, 0.209389f, -0.054995f, 0.196863f, -0.210251f, 
0.115969f, 0.251442f, 0.109741f, -0.014456f, 0.162319f, -0.067746f, 0.198449f, -0.011234f, 0.061287f, 0.276495f, 
0.084953f, 0.129031f, 0.128279f, 0.084881f, -0.143717f, -0.190689f, 0.003289f, 0.005539f, -0.089195f, -0.124810f, 
0.199347f, -0.027721f, 0.246099f, -0.065948f, 0.157676f, 0.045990f, -0.084369f, 0.139845f, -0.117165f, -0.027835f, 
-0.083894f, 0.134247f, 0.199790f, 0.008560f, 0.127220f, 0.270770f, 0.088946f, -0.017842f, 0.255791f, -0.203174f, 
-0.043284f, 0.181252f, -0.011413f, 0.122208f, 0.156196f, -0.188256f, 0.126226f, 0.169821f, -0.106210f, -0.168930f, 
0.308329f, 0.099286f, -0.288395f, -0.205759f, 0.042977f, 0.175678f, -0.136032f, 0.143884f, -0.276022f, 0.076610f, 
-0.266158f, 0.037208f, -0.140141f, -0.207791f, -0.058646f, 0.250535f, 0.107277f, -0.049850f, 0.035494f, -0.305537f, 
-0.124839f, 0.103083f, -0.003119f, 0.186086f, 0.132981f, 0.233326f, -0.015808f, -0.123795f, 0.048927f, -0.072802f, 
0.090010f, 0.141738f, 0.014426f, 0.044012f, -0.067095f, -0.349153f, 0.232560f, -0.445780f, 0.088337f, -0.230406f, 
-0.345483f, -0.045289f, 0.108589f, -0.020773f, 0.020368f, 0.045670f, -0.040829f, 0.051275f, -0.145782f, -0.061375f, 
0.005626f, 0.082303f, -0.041252f, -0.501996f, 0.110446f, 0.039192f, -0.134860f, 0.135079f, -0.129677f, 0.271509f, 
0.158258f, -0.083226f, 0.050853f, -0.199358f, 0.028437f, 0.052685f, 0.097329f, -0.110412f, -0.234328f, -0.340727f, 
-0.576278f, 0.152722f, 0.060953f, 0.153469f, -0.170364f, -0.507044f, 0.135080f, 0.059725f, -0.144574f, -0.029138f, 
0.237012f, 0.080889f, -0.089937f, 0.156754f, -0.019527f, -0.038939f, 0.141185f, 0.155600f, -0.115613f, -0.225637f, 
0.037686f, -0.013509f, 0.015670f, -0.088406f, -0.156084f, -0.113053f, -0.083817f, -0.009030f, -0.263174f, 0.127960f, 
-0.011045f, 0.019762f, 0.299262f, -0.221564f, 0.083328f, 0.182113f, -0.071598f, 0.157520f, -0.229784f, 0.076149f, 
-0.144836f, -0.166830f, 0.028933f, -0.020558f, -0.206622f, 0.071279f, 0.320836f, -0.258531f, -0.103808f, 0.116131f, 
-0.045318f, -0.206814f, 0.105728f, -0.188024f, 0.038090f, 0.119437f, -0.284614f, 0.312026f, 0.007117f, -0.502314f, 
-0.076207f, -0.399686f, -0.587136f, -0.019925f, -0.306225f, 0.403789f, -0.047140f, 0.417546f, 0.076288f, 0.187986f, 
-0.093019f, -0.121102f, -0.179958f, -0.100727f, -0.160406f, -0.095270f, 0.108409f, -0.153566f, 0.109457f, -0.071700f, 
0.184313f, 0.140555f, -0.335098f, 0.191082f, 0.229195f, -0.035989f, 0.166029f, 0.047471f, -0.301888f, 0.142683f, 
-0.172026f, -0.360432f, -0.332126f, -0.055835f, -0.148910f, 0.022746f, 0.002491f, -0.199378f, 0.013763f, 0.077193f, 
0.388427f, 0.012306f, -0.046027f, 0.255820f, 0.104850f, -0.039762f, 0.213924f, -0.052660f, 0.382324f, -0.269059f, 
0.091808f, -0.178054f, -0.240193f, 0.299668f, -0.011890f, 0.226796f, -0.138477f, 0.187390f, 0.082952f, -0.039138f, 
-0.194049f, -0.010461f, -0.211237f, -0.422662f, 0.003442f, -0.471504f, -0.043373f, -0.207754f, -0.011326f, -0.094554f, 
0.278960f, -0.123232f, -0.249059f, -0.000366f, 0.186988f, 0.012590f, -0.120850f, -0.117606f, -0.161833f, 0.140396f, 
0.055064f, -0.123411f, -0.082627f, 0.040782f, 0.262110f, -0.224218f, -0.099021f, 0.087233f, -0.156082f, 0.200530f, 
-0.295791f, -0.201465f, -0.123344f, -0.208006f, 0.077400f, -0.244413f, 0.198403f, 0.124106f, 0.104003f, -0.014409f, 
0.065896f, 0.230233f, 0.039886f, 0.152999f, -0.057813f, -0.018639f, -0.085133f, 0.360047f, 0.149833f, -0.043515f, 
0.306661f, -0.199735f, 0.137040f, 0.010588f, -0.002650f, -0.043365f, 0.081115f, 0.438484f, -0.224489f, 0.276577f, 
0.125893f, -0.072279f, 0.039698f, -0.035430f, -0.091948f, 0.044327f, -0.170391f, 0.369007f, -0.035227f, -0.196536f, 
0.160430f, 0.012624f, -0.135423f, 0.283427f, 0.067739f, 0.023619f, 0.178348f, -0.085492f, 0.012817f, 0.057780f, 
-0.110556f, 0.102337f, 0.071956f, 0.175547f, 0.009972f, 0.200401f, -0.122674f, -0.186309f, 0.201361f, -0.043390f, 
-0.085020f, 0.062457f, 0.257775f, 0.157578f, -0.291220f, 0.047227f, -0.101101f, -0.039084f, 0.290008f, -0.117616f, 
0.161986f, 0.225600f, 0.028591f, -0.007718f, -0.074397f, -0.051321f, -0.022328f, 0.099156f, 0.053404f, 0.229611f, 
-0.070056f, -0.028791f, 0.393462f, -0.080571f, -0.229276f, -0.023724f, -0.029435f, -0.255102f, -0.085195f, 0.253064f, 
0.026975f, 0.031908f, -0.168586f, 0.130716f, -0.042135f, 0.209355f, -0.035330f, 0.081458f, 0.209667f, -0.082018f, 
-0.155041f, -0.281795f, 0.097220f, 0.105466f, 0.120405f, 0.161898f, -0.022069f, 0.134030f, -0.051852f, 0.018259f, 
-0.160905f, 0.047470f, -0.051225f, -0.029923f, 0.016977f, 0.171386f, 0.166227f, -0.216108f, -0.076850f, 0.228450f, 
-0.122771f, -0.039369f, -0.090175f, 0.026876f, -0.062479f, -0.029890f, 0.236177f, -0.211154f, 0.216789f, -0.101295f, 
0.020855f, -0.010262f, -0.185330f, 0.169961f, 0.067793f, 0.305539f, 0.289147f, 0.058508f, -0.239341f, 0.229528f, 
0.139343f, -0.166354f, -0.075626f, -0.075113f, -0.310738f, 0.016368f, 0.170448f, -0.201687f, 0.123005f, 0.070243f, 
0.166357f, -0.007094f, 0.042331f, -0.067969f, -0.029773f, 0.062684f, 0.086058f, 0.105434f, -0.179293f, -0.163452f, 
0.009225f, -0.104395f, 0.120192f, 0.149852f, -0.104619f, 0.062090f, -0.088810f, -0.061715f, 0.270993f, -0.061301f, 
-0.147783f, -0.001309f, 0.050117f, -0.186804f, 0.170398f, -0.166760f, 0.240758f, -0.198476f, 0.110527f, 0.054895f, 
-0.014258f, -0.031041f, -0.149008f, 0.052520f, 0.100740f, 0.275309f, -0.059675f, 0.229843f, -0.129431f, 0.193710f, 
-0.183498f, -0.049484f, -0.182777f, 0.043240f, 0.003268f, 0.151101f, -0.066745f, 0.075114f, 0.081982f, 0.321365f, 
0.157838f, 0.088578f, -0.083788f, 0.109839f, -0.162750f, -0.148513f, 0.149937f, 0.081952f, 0.061772f, -0.002643f, 
0.010877f, 0.043562f, 0.061022f, 0.227022f, 0.027177f, -0.207231f, -0.153712f, 0.193938f, 0.191129f, 0.117506f, 
0.093570f, 0.110893f, 0.072267f, -0.052917f, -0.000683f, 0.144447f, 0.084350f, 0.046161f, -0.186801f, 0.053124f, 
0.067035f, 0.049442f, -0.002685f, -0.071573f, 0.071185f, -0.072499f, 0.020603f, 0.271537f, 0.089068f, -0.126314f, 
0.194675f, 0.044916f, 0.238350f, -0.014946f, 0.270859f, -0.078581f, 0.179292f, 0.156104f, -0.106828f, 0.108031f, 
0.249103f, -0.149110f, -0.012153f, -0.001625f, -0.099567f, 0.086657f, -0.127982f, 0.093943f, 0.106514f, 0.078197f, 
-0.102290f, 0.075465f, 0.182282f, -0.163591f, -0.271130f, 0.101176f, 0.017884f, 0.088703f, 0.060948f, 0.010792f, 
0.005708f, 0.112426f, 0.114030f, 0.083218f, 0.125594f, -0.080541f, -0.042837f, 0.052966f, 0.230000f, 0.082920f, 
0.090816f, -0.045809f, -0.021540f, 0.038603f, -0.232652f, 0.003116f, 0.116740f, -0.065738f, -0.070384f, 0.248486f, 
0.225297f, -0.071188f, 0.098256f, -0.114136f, -0.182404f, -0.069802f, 0.181189f, -0.167828f, -0.018796f, -0.572139f, 
-0.158934f, -0.307535f, -0.098058f, 0.258450f, -0.049856f, 0.084689f, -0.172979f, -0.050678f, 0.097901f, 0.003203f, 
0.282937f, -0.075495f, 0.028503f, -0.151467f, 0.041011f, 0.215446f, -0.046037f, 0.176027f, -0.080557f, 0.113886f, 
-0.088911f, -0.043114f, -0.266384f, -0.240695f, -0.012934f, -0.205124f, -0.053253f, -0.265760f, -0.271193f, -0.259726f, 
0.062657f, 0.188383f, -0.323446f, -0.155836f, -0.019294f, 0.266088f, 0.263125f, 0.340655f, 0.328362f, -0.005207f, 
-0.231585f, -1.045810f, 0.029329f, -0.027457f, -0.240135f, 0.146702f, 0.085498f, 0.194801f, -0.142875f, 0.011062f, 
-0.170534f, 0.011178f, 0.154808f, -0.459011f, -0.107996f, -0.257190f, -0.033873f, -0.195070f, -0.258123f, -0.135653f, 
-0.183127f, 0.075892f, 0.342751f, 0.227914f, 0.173308f, 0.000846f, 0.071568f, 0.137909f, -0.128612f, 0.202251f, 
-0.131855f, -0.315310f, -0.783235f, 0.101051f, -0.040750f, -0.284924f, -0.022348f, -0.173474f, -0.635553f, -0.106518f, 
-0.121360f, 0.004082f, 0.113516f, -0.004184f, 0.013684f, -0.308412f, 0.166395f, 0.380939f, -0.137314f, 0.131800f, 
-0.148800f, 0.033663f, -0.028489f, -0.115713f, 0.147072f, -0.006313f, -0.197526f, 0.060945f, 0.029074f, 0.382704f, 
0.035132f, 0.132612f, 0.184626f, -0.019036f, -0.075335f, -0.278907f, 0.171817f, 0.070198f, 0.343060f, 0.297693f, 
0.022075f, 0.508094f, 0.166620f, 0.059580f, 0.143937f, -0.003802f, 0.088436f, 0.179531f, 0.221592f, 0.268485f, 
0.318744f, 0.153570f, 0.319444f, -0.149842f, 0.105274f, 0.125049f, 0.027109f, 0.228256f, 0.069000f, 0.442359f, 
-0.003301f, -0.079710f, 0.139198f, -0.160633f, -0.591425f, -0.124509f, 0.028569f, 0.205487f, -0.089080f, 0.067304f, 
-0.065125f, -0.220933f, 0.239873f, 0.223185f, 0.215297f, -0.201499f, 0.012081f, 0.277198f, 0.068437f, 0.179750f, 
-0.011209f, 0.062254f, -0.224853f, -0.412514f, -0.128278f, 0.026944f, 0.022626f, -0.118420f, -0.091222f, 0.417656f, 
0.099297f, 0.126777f, 0.033712f, -0.348034f, 0.079448f, -0.009744f, -0.079872f, -0.238581f, 0.170188f, -0.202551f, 
0.083363f, -0.026296f, -0.074682f, 0.121196f, -0.086935f, 0.213013f, -0.161300f, 0.054713f, 0.346269f, 0.023127f, 
0.149664f, 0.024939f, 0.176878f, -0.279451f, -0.175902f, -0.308923f, -0.199126f, 0.047608f, 0.125529f, 0.414078f, 
-0.158281f, -0.310158f, 0.065572f, -0.141055f, 0.394745f, -0.675439f, -0.131976f, 0.029191f, 0.026285f, 0.205782f, 
0.089740f, 0.090185f, -0.281194f, -0.515441f, 0.032359f, 0.220296f, 0.313688f, 0.035158f, 0.097201f, 0.143787f, 
0.303096f, 0.267625f, -0.175514f, 0.284098f, -0.154934f, -0.136705f, -0.052528f, 0.325702f, 0.240665f, -0.165385f, 
0.284644f, -0.118824f, -0.149109f, -0.064228f, -0.075992f, 0.011183f, -0.435393f, 0.533099f, -0.234594f, 0.429243f, 
-0.136036f, -0.028818f, -0.102616f, 0.174644f, -0.034809f, -0.043472f, 0.093193f, 0.332412f, 0.071912f, 0.212083f, 
-0.139519f, 0.209668f, -0.323670f, 0.084498f, 0.288482f, 0.230101f, -0.158128f, 0.089944f, -0.136632f, 0.035466f, 
-0.544480f, -0.161457f, 0.378563f, 0.220093f, 0.069037f, 0.155952f, -0.077852f, -0.258817f, 0.028339f, 0.061990f, 
-0.273160f, 0.143170f, -0.050515f, 0.114194f, 0.186731f, 0.175087f, -0.107942f, 0.206730f, -0.323148f, -0.018416f, 
0.133964f, -0.125374f, 0.048926f, -0.004184f, -0.249087f, 0.132966f, 0.153919f, 0.316015f, 0.272667f, -0.129596f, 
-0.277309f, -0.104269f, 0.425697f, 0.114265f, -0.071502f, 0.054898f, 0.217169f, 0.018318f, 0.111842f, -0.090792f, 
0.023360f, -0.022436f, 0.322339f, -0.063340f, 0.056623f, 0.037184f, -0.336404f, 0.175483f, -0.134958f, 0.122773f, 
-0.389584f, 0.133723f, 0.004067f, -0.160243f, 0.026201f, -0.008109f, -0.141012f, 0.051923f, 0.214240f, 0.242277f, 
-0.292510f, 0.090945f, -0.021591f, -0.102680f, 0.089672f, -0.061492f, 0.094859f, -0.226819f, 0.132952f, 0.034242f, 
-0.052980f, -0.145171f, 0.246433f, 0.187793f, 0.185731f, 0.022914f, 0.039699f, -0.378666f, 0.286211f, 0.133034f, 
0.044549f, -0.160978f, 0.219544f, 0.069500f, 0.037041f, -0.120579f, 0.387969f, -0.089658f, -0.234640f, -0.268396f, 
-0.208702f, -0.017914f, 0.079002f, 0.187499f, -0.088795f, 0.198659f, -0.307486f, -0.339211f, 0.114126f, 0.026263f, 
0.003113f, 0.154495f, 0.107143f, 0.128215f, -0.097583f, -0.212471f, -0.187193f, -0.052058f, -0.078268f, -0.050998f, 
0.311332f, -0.386456f, 0.311787f, 0.183029f, 0.267787f, -0.244745f, -0.527889f, 0.124434f, 0.148204f, 0.177593f, 
0.275830f, 0.185250f, 0.331995f, -0.317215f, -0.025434f, 0.066215f, -0.069761f, -0.502429f, -0.173260f, -0.086381f, 
0.066327f, -0.107931f, -0.083365f, -0.169813f, 0.003157f, 0.072621f, 0.159380f, -0.202199f, -0.195090f, -0.199258f, 
0.267254f, 0.158812f, -0.053885f, 0.142111f, -0.228641f, -0.091000f, 0.077593f, -0.091072f, 0.039488f, -0.042057f, 
0.292355f, -0.270446f, 0.283329f, 0.040409f, -0.102959f, 0.323586f, 0.064648f, -0.044079f, -0.258172f, -0.262384f, 
0.297893f, -0.243719f, -0.064145f, 0.298328f, 0.277095f, 0.029218f, 0.218058f, 0.144595f, -0.068233f, -0.325834f, 
-0.225792f, 0.105589f, 0.074505f, 0.352107f, 0.019350f, -0.116491f, -0.146141f, 0.069658f, 0.123415f, -0.110448f, 
-0.206644f, 0.184990f, -0.062316f, 0.249600f, 0.192264f, -0.006695f, 0.154326f, 0.038897f, -0.112524f, 0.305277f, 
0.213994f, 0.182102f, -0.094666f, -0.297842f, 0.014931f, 0.231712f, 0.012564f, 0.037448f, -0.113395f, -0.015616f, 
0.045084f, -0.039326f, 0.394462f, 0.090056f, 0.150843f, -0.206302f, 0.157299f, 0.205790f, 0.152204f, 0.108191f, 
-0.257896f, 0.340327f, 0.139517f, -0.002927f, -0.300696f, 0.097491f, 0.376024f, 0.214121f, 0.239259f, -0.083268f, 
0.031765f, 0.196837f, 0.213666f, -0.052536f, 0.069216f, 0.149248f, 0.037359f, 0.093988f, 0.197455f, -0.011360f, 
-0.019124f, -0.099629f, -0.078208f, -0.153335f, 0.089733f, 0.304150f, 0.051102f, 0.214656f, 0.192180f, -0.195454f, 
0.067287f, 0.293503f, -0.280257f, 0.033835f, 0.047896f, 0.017543f, -0.137917f, -0.190183f, 0.124418f, -0.006020f, 
-0.234363f, -0.367317f, -0.252106f, 0.448092f, 0.123619f, -0.066545f, -0.092145f, 0.300171f, 0.261272f, -0.048036f, 
0.381326f, 0.074397f, -0.127625f, -0.145503f, 0.129455f, -0.044188f, 0.004004f, 0.033113f, -0.079279f, 0.114905f, 
-0.152331f, -0.046161f, -0.128002f, 0.117130f, -0.099615f, -0.111331f, -0.006937f, 0.236511f, -0.134776f, -0.249931f, 
0.092163f, 0.274715f, -0.177270f, 0.118845f, -0.110632f, 0.030097f, -0.025401f, -0.141887f, 0.024900f, 0.357781f, 
0.313510f, -0.063011f, -0.102909f, -0.140612f, 0.288838f, -0.271609f, 0.379248f, 0.169954f, -0.224094f, 0.090238f, 
0.158850f, -0.107212f, -0.010645f, 0.049852f, -0.123938f, 0.106655f, 0.051282f, -0.288660f, -0.126322f, 0.096512f, 
-0.120111f, -0.051938f, 0.137888f, -0.028218f, -0.339704f, -0.042425f, -0.188900f, 0.014754f, 0.106153f, -0.038929f, 
-0.123298f, -0.068233f, -0.126353f, 0.177773f, 0.211165f, -0.119537f, 0.023067f, -0.181719f, 0.011906f, 0.188791f, 
0.202388f, -0.172496f, -0.166714f, 0.057614f, -0.189432f, 0.306105f, -0.164439f, 0.199895f, -0.303994f, 0.118656f, 
-0.062260f, 0.342073f, 0.100120f, 0.056719f, 0.156756f, 0.181104f, 0.096978f, -0.013010f, 0.095820f, 0.154191f, 
0.352465f, -0.177386f, 0.170140f, 0.366368f, 0.063556f, 0.263068f, 0.294103f, 0.006372f, -0.054380f, 0.171129f, 
0.135108f, 0.148189f, -0.114947f, 0.107492f, 0.090968f, -0.108767f, 0.199948f, -0.202378f, -0.147584f, 0.067125f, 
-0.130727f, 0.151647f, -0.323626f, -0.112252f, 0.186747f, 0.178863f, -0.030404f, 0.058340f, -0.225476f, -0.113141f, 
-0.034617f, 0.102593f, 0.010302f, 0.035394f, -0.269641f, 0.205795f, -0.117555f, -0.012622f, 0.347915f, 0.313214f, 
0.070466f, 0.075249f, -0.014517f, 0.151321f, 0.013093f, -0.204076f, 0.181844f, 0.311903f, -0.109824f, 0.356497f, 
-0.079904f, 0.111054f, 0.249740f, 0.061515f, -0.110989f, -0.302384f, 0.060651f, -0.203363f, 0.015526f, 0.365916f, 
-0.120204f, 0.217760f, -0.016335f, -0.264003f, -0.183699f, 0.097880f, 0.580556f, -0.046412f, 0.188644f, -0.198036f, 
-0.119119f, -0.023031f, 0.148365f, 0.208356f, 0.012090f, 0.158224f, 0.299852f, 0.302653f, 0.162208f, -0.016281f, 
-0.148697f, -0.125946f, -0.175959f, -0.088514f, -0.145687f, -0.170907f, -0.136588f, 0.152237f, -0.018255f, 0.093047f, 
-0.040068f, -0.065153f, -0.042451f, -0.102413f, 0.110110f, 0.103756f, 0.146645f, -0.138404f, 0.262958f, -0.394474f, 
0.085984f, -0.157332f, 0.083982f, -0.020286f, 0.084939f, -0.046192f, -0.319148f, -0.078742f, 0.025515f, -0.091344f, 
0.072921f, -0.021711f, 0.057454f, -0.158981f, -0.001033f, -0.185835f, 0.251991f, -0.164440f, -0.364392f, -0.014169f, 
-0.329632f, 0.122557f, -0.083072f, 0.017477f, -0.149391f, -0.050275f, -0.028248f, -0.073821f, -0.066221f, -0.491035f, 
0.109331f, 0.286777f, 0.097490f, -0.258595f, 0.060387f, 0.094723f, -0.139666f, -0.278195f, -0.116498f, 0.160504f, 
0.169533f, 0.145114f, -0.048388f, 0.131191f, 0.146716f, -0.040473f, -0.026744f, 0.282362f, -0.223045f, -0.378785f, 
-0.114375f, -0.141362f, 0.031825f, 0.036150f, -0.018746f, -0.085172f, 0.107088f, -0.095024f, -0.123863f, 0.052161f, 
-0.216433f, 0.222126f, 0.038955f, -0.092326f, 0.149571f, 0.251305f, 0.014303f, -0.129896f, -0.206390f, 0.045907f, 
-0.111306f, 0.099355f, -0.126918f, 0.158349f, 0.228729f, -0.011783f, 0.121930f, 0.316534f, -0.073942f, 0.015318f, 
0.100699f, -0.078458f, -0.290821f, 0.213202f, 0.126450f, 0.021027f, 0.068286f, 0.214842f, -0.002686f, -0.148175f, 
-0.269884f, -0.074449f, -0.102205f, -0.077527f, -0.065236f, 0.182313f, 0.010093f, 0.097627f, 0.047409f, 0.258348f, 
0.038987f, 0.240398f, 0.169021f, 0.224070f, 0.102214f, -0.093035f, 0.117330f, 0.118441f, -0.042600f, 0.285748f, 
-0.060475f, 0.273603f, 0.180335f, -0.192132f, -0.050965f, -0.212858f, 0.232749f, -0.255116f, -0.161419f, 0.163658f, 
0.059068f, 0.061584f, -0.046545f, -0.105045f, -0.003877f, 0.031032f, 0.031181f, -0.137516f, -0.095122f, 0.169249f, 
-0.113821f, -0.099642f, 0.051703f, -0.034455f, -0.241802f, -0.012996f, -0.178184f, -0.266555f, 0.054620f, 0.165141f, 
-0.050591f, -0.078307f, 0.248325f, 0.272263f, 0.180587f, -0.098194f, 0.040649f, 0.142802f, 0.057048f, -0.006901f, 
0.246868f, 0.022372f, 0.169680f, -0.237684f, -0.095225f, 0.235406f, 0.017695f, 0.162914f, -0.324745f, 0.152747f, 
0.243106f, 0.155217f, 0.190942f, -0.279504f, 0.026099f, 0.021624f, 0.092815f, -0.153333f, 0.141090f, -0.051498f, 
0.003489f, 0.081393f, 0.109716f, 0.074874f, 0.238477f, 0.153958f, 0.058301f, -0.103036f, 0.088231f, -0.123499f, 
0.046359f, -0.158143f, 0.159986f, -0.176108f, -0.019578f, -0.056931f, -0.142153f, -0.077881f, -0.055497f, 0.197232f, 
-0.214924f, 0.218770f, 0.220074f, -0.065626f, 0.051180f, 0.230741f, 0.046610f, 0.238691f, 0.099212f, 0.070966f, 
-0.069903f, 0.324931f, -0.093234f, 0.119885f, 0.262656f, 0.093121f, 0.327552f, -0.267477f, 0.085553f, 0.213365f, 
-0.363430f, 0.390193f, 0.366909f, -0.194496f, 0.319507f, -0.320053f, 0.016134f, -0.873291f, 0.129482f, 0.141569f, 
0.239948f, 0.310682f, 0.171243f, -0.174480f, 0.097453f, 0.087014f, -0.086793f, -0.683980f, -0.037515f, 0.386376f, 
-0.449728f, -0.050775f, -0.235550f, -0.165062f, -0.416405f, 0.179648f, 0.103613f, -1.121394f, 0.338939f, 0.013787f, 
-0.340799f, -0.062159f, 0.324782f, 0.248360f, 0.166087f, -0.138675f, 0.108308f, 0.487466f, 0.195189f, 0.210771f, 
-0.062185f, 0.064767f, -0.023492f, -0.765638f, -0.032177f, 0.292026f, 0.270267f, -0.246845f, -1.011712f, -0.108962f, 
0.062744f, 0.126078f, -0.097517f, -0.746446f, 0.206333f, -0.170394f, 0.159324f, -0.293688f, -0.194750f, 0.067851f, 
-0.067061f, -0.163790f, -0.349192f, 0.317484f, 0.291256f, -0.218757f, 0.107445f, -0.131814f, 0.182990f, -0.029930f, 
-0.119249f, 0.026717f, -0.078904f, 0.181587f, -0.032573f, -0.269028f, 0.160185f, 0.160725f, -0.194654f, 0.071723f, 
0.321932f, -0.057813f, -0.174229f, -0.120634f, 0.250250f, -0.243555f, 0.073155f, -0.284963f, -0.236106f, -0.046700f, 
-0.343189f, 0.210395f, -0.066071f, -0.234182f, -0.027555f, 0.144183f, -0.617658f, -0.043614f, 0.059005f, -0.327431f, 
0.129820f, -0.078469f, -0.110017f, 0.172140f, 0.294376f, 0.343096f, -0.133075f, -0.306477f, -0.073122f, -0.078420f, 
0.190432f, -0.008113f, -0.134161f, 0.027676f, 0.147428f, -0.295483f, 0.090235f, -0.105566f, -0.123847f, 0.220626f, 
0.459201f, -0.062673f, 0.166403f, -0.270984f, -0.056125f, -0.040452f, -0.045339f, 0.104510f, -0.471110f, 0.200688f, 
-0.319693f, -0.044350f, -0.105931f, -0.362715f, -0.358234f, 0.267167f, -0.029998f, -0.188200f, -0.055064f, -0.095232f, 
-0.214643f, -0.059567f, -0.044120f, 0.069973f, 0.087389f, 0.102681f, -0.112656f, 0.321510f, 0.041344f, -0.304724f, 
-0.136942f, 0.044043f, -0.174532f, 0.096761f, 0.163603f, 0.000555f, -0.434729f, 0.106190f, 0.014708f, 0.097020f, 
0.140823f, -0.107551f, -0.192313f, -0.333675f, -0.095192f, -0.054715f, 0.006242f, -0.297686f, -0.197838f, -0.196628f, 
-0.298166f, 0.114920f, 0.248745f, 0.017689f, 0.183020f, -0.424501f, 0.243723f, 0.014113f, 0.195017f, -0.043524f, 
0.109781f, -0.147268f, -0.270794f, -0.001116f, -0.070675f, -0.183490f, -0.116287f, -0.166535f, -0.103658f, -0.022526f, 
0.000023f, -0.374177f, 0.302215f, -0.019680f, 0.065405f, 0.171721f, -0.164216f, 0.064521f, -0.051299f, -0.052561f, 
-0.160694f, -0.280398f, 0.006231f, 0.069443f, 0.011877f, 0.231484f, 0.021359f, -0.010311f, -0.186594f, 0.140536f, 
-0.076636f, -0.173061f, -0.176092f, -0.257893f, -0.034131f, -0.061717f, 0.001146f, 0.084315f, -0.056746f, -0.050962f, 
0.035680f, 0.163417f, -0.132606f, -0.066929f, -0.043193f, 0.322135f, 0.076882f, 0.056440f, 0.029419f, 0.271304f, 
-0.091851f, -0.235237f, -0.079378f, -0.163805f, -0.073286f, 0.290020f, -0.092501f, -0.132745f, -0.018993f, 0.216957f, 
-0.197935f, -0.038546f, -0.009347f, -0.252236f, -0.062373f, -0.295958f, -0.077228f, 0.084934f, -0.225255f, -0.146087f, 
-0.239212f, -0.216403f, -0.097515f, 0.130655f, -0.310510f, -0.000709f, 0.005541f, 0.211330f, -0.135924f, 0.028447f, 
0.010229f, 0.102786f, 0.012867f, 0.007000f, 0.145234f, 0.002499f, 0.122228f, -0.138042f, 0.014387f, -0.008275f, 
-0.322942f, -0.165155f, -0.062936f, -0.049273f, -0.073164f, -0.115768f, -0.038625f, 0.082954f, -0.094099f, 0.208406f, 
0.058351f, -0.010732f, 0.386688f, 0.025611f, 0.134953f, -0.105827f, -0.039766f, -0.059625f, -0.119529f, -0.419167f, 
0.260948f, -0.159256f, -0.214277f, 0.055666f, 0.060983f, 0.273355f, -0.150414f, 0.127075f, -0.144759f, -0.294519f, 
0.165942f, -0.329626f, 0.095523f, 0.157493f, -0.041168f, 0.223309f, 0.202043f, -0.034763f, -0.333306f, -0.085404f, 
-0.195798f, 0.134008f, 0.057151f, 0.392461f, -0.142155f, -0.182436f, 0.414787f, 0.173740f, -0.091044f, -0.446907f, 
0.018335f, 0.110244f, 0.083059f, -0.114461f, 0.504139f, 0.058658f, 0.178382f, 0.398666f, -0.176921f, -0.023696f, 
0.189740f, 0.404090f, 0.047035f, -0.107591f, -0.278477f, 0.036489f, 0.054616f, -0.260085f, -0.030902f, -0.280685f, 
-0.092611f, 0.011980f, 0.031660f, 0.063578f, -0.161498f, -0.430770f, 0.090951f, 0.204018f, 0.294464f, -0.156462f, 
0.092379f, 0.081795f, 0.277013f, 0.588809f, -0.042406f, -0.178415f, -0.190904f, 0.143425f, -0.040851f, 0.294948f, 
0.275772f, -0.162586f, 0.188577f, -0.273763f, -0.346610f, 0.138581f, -0.019273f, -0.124851f, -0.113134f, -0.172810f, 
0.290199f, -0.147512f, -0.158984f, -0.364778f, 0.234339f, 0.299506f, 0.074537f, -0.083098f, -0.043613f, -0.299628f, 
0.080089f, -0.141646f, -0.298926f, 0.077145f, 0.336208f, -0.383954f, -0.433356f, -0.184848f, -0.168251f, 0.165451f, 
-0.161663f, 0.220355f, 0.183118f, -0.257009f, -0.031332f, 0.038850f, -0.123678f, -0.053396f, 0.145711f, -0.013689f, 
-0.056188f, 0.179102f, -0.544818f, 0.182846f, -0.295782f, 0.262104f, -0.129597f, 0.461825f, 0.281759f, 0.026658f, 
0.086270f, -0.256326f, 0.060725f, -0.187825f, -0.045823f, 0.074423f, -0.170239f, 0.200428f, -0.227029f, 0.119763f, 
0.231380f, -0.072343f, 0.045795f, 0.249777f, 0.040097f, 0.165368f, -0.479726f, 0.380705f, -0.013816f, -0.023479f, 
0.086279f, -0.139216f, -0.108285f, 0.099853f, 0.273440f, 0.263540f, 0.122778f, -0.019721f, 0.083181f, 0.152372f, 
-0.097307f, -0.078859f, 0.052178f, 0.221787f, -0.160079f, 0.101220f, -0.105522f, -0.161431f, 0.193259f, 0.024643f, 
-0.055353f, -0.171677f, -0.109535f, 0.120116f, -0.212598f, 0.085170f, -0.329860f, 0.369972f, 0.048045f, -0.264290f, 
0.320838f, 0.062935f, 0.125493f, 0.187811f, 0.013472f, -0.049561f, 0.028553f, 0.011027f, -0.035809f, 0.326515f, 
-0.430261f, 0.098819f, 0.428379f, -0.165863f, -0.137494f, -0.415717f, 0.044316f, -0.171516f, 0.310051f, 0.073787f, 
0.185635f, 0.178153f, 0.006107f, 0.231765f, -0.309193f, -0.023324f, 0.012883f, -0.166332f, 0.099756f, -0.033808f, 
-0.074080f, -0.418956f, -0.013643f, 0.102306f, -0.040007f, 0.125635f, -0.014980f, -0.033682f, -0.093180f, -0.252821f, 
0.280490f, -0.342022f, -0.003708f, -0.083718f, -0.100622f, 0.240584f, 0.103589f, 0.037909f, -0.121426f, -0.075910f, 
-0.373526f, 0.153662f, -0.250800f, 0.137790f, -0.100968f, -0.007594f, 0.030481f, -0.232292f, 0.045824f, -0.337220f, 
0.075300f, 0.180813f, -0.205203f, 0.175915f, 0.292201f, 0.272900f, 0.164392f, -0.053624f, -0.187336f, 0.336844f, 
0.031119f, -0.147215f, 0.064824f, -0.196589f, -0.127421f, 0.106586f, 0.150793f, -0.021235f, 0.250577f, -0.114789f, 
0.346269f, -0.184724f, 0.071107f, 0.192616f, -0.131970f, -0.204537f, 0.075428f, 0.115773f, -0.151741f, 0.007306f, 
0.017718f, 0.052048f, -0.046596f, -0.018978f, -0.272680f, 0.092909f, 0.008574f, 0.169862f, 0.220699f, 0.092124f, 
-0.122552f, 0.303155f, 0.011004f, -0.272101f, 0.020703f, -0.264804f, 0.273074f, -0.106303f, -0.180524f, 0.123536f, 
0.297582f, -0.090919f, -0.371585f, 0.011610f, 0.109559f, 0.186874f, 0.184099f, 0.011704f, -0.293377f, 0.041362f, 
-0.138012f, -0.114092f, -0.288084f, 0.044669f, 0.270502f, -0.044278f, 0.111234f, -0.502565f, -0.117362f, 0.042305f, 
0.364191f, -0.423269f, 0.208870f, 0.155599f, -0.226249f, 0.033923f, -0.136020f, 0.359480f, 0.268508f, 0.068780f, 
0.384227f, -0.003427f, -0.199389f, -0.023365f, 0.191568f, -0.043464f, -0.068612f, 0.244720f, -0.010032f, -0.154758f, 
-0.080315f, -0.023833f, -0.321342f, -0.080697f, -0.266868f, -0.297434f, -0.062286f, 0.040790f, -0.500000f, -0.128260f, 
0.377134f, 0.038356f, -0.046158f, -0.006039f, -0.069138f, 0.188293f, -0.330647f, 0.146657f, -0.326288f, 0.342286f, 
0.058544f, 0.056997f, -0.399391f, -0.358378f, 0.011764f, -0.206583f, -0.076359f, 0.047452f, -0.130264f, -0.041510f, 
0.057672f, -0.134761f, 0.104317f, 0.196298f, 0.112842f, -0.262819f, 0.159415f, -0.209941f, 0.152525f, 0.283221f, 
-0.354766f, 0.039644f, -0.300873f, -0.151190f, -0.291294f, 0.048885f, 0.367268f, 0.171705f, 0.227234f, -0.219787f, 
-0.056060f, 0.297368f, -0.117365f, -0.112151f, 0.051857f, 0.078267f, 0.098303f, 0.533469f, 0.198735f, 0.163481f, 
-0.002794f, 0.040067f, 0.240133f, -0.127857f, -0.016666f, 0.033720f, -0.191895f, 0.022264f, 0.000085f, 0.080131f, 
0.265788f, -0.400408f, 0.194804f, -0.472156f, -0.205530f, -0.151764f, 0.296745f, -0.256508f, -0.557710f, -0.744620f, 
0.217189f, -0.008805f, -0.164519f, -0.296687f, -0.600651f, 0.123398f, -0.275261f, 0.271449f, 0.484448f, 0.168875f, 
0.046248f, -0.147211f, 0.693600f, -0.582691f, 0.344557f, 0.407414f, -0.263911f, 0.378368f, -0.109898f, 0.019452f, 
0.226084f, -0.265638f, 0.127305f, 0.326547f, 0.319850f, -1.245202f, -0.017027f, 0.549765f, -0.650394f, 0.242058f, 
-0.059900f, -0.398481f, 0.330571f, 0.206097f, 0.977120f, -0.411067f, 0.095795f, 0.757039f, 0.305407f, -0.256718f, 
0.454061f, -0.079276f, -0.400499f, -0.798027f, -0.291372f, 0.283943f, -0.502663f, -0.565488f, -0.156606f, -0.576320f, 
0.108408f, 0.167751f, -0.516169f, 0.312705f, 0.082764f, -0.190061f, -0.726103f, 0.129343f, 0.436745f, -0.098135f, 
-0.522034f, -0.125110f, 0.439462f, 0.109131f, -0.193085f, -0.350915f, -0.140310f, 0.251339f, -0.186613f, 0.641155f, 
0.830910f, -0.676991f, 0.311732f, -0.217179f, -0.279123f, 0.360630f, -0.318164f, 0.217829f, -0.646676f, -0.263485f, 
-0.207211f, -0.169263f, 0.513811f, 0.155572f, 0.095811f, 0.384579f, 0.159137f, -0.114122f, 0.285454f, -0.375524f, 
0.103576f, -0.333736f, -0.121598f, -0.199293f, -0.213379f, 0.137963f, -0.004313f, 0.182986f, -0.038166f, -0.284511f, 
-0.160182f, 0.207653f, 0.021936f, -0.031156f, 0.307235f, -0.021200f, -0.272455f, -0.187823f, 0.174052f, -0.337615f, 
-0.094268f, -0.387940f, -0.342028f, -0.192327f, 0.072216f, 0.088957f, 0.014056f, -0.286289f, 0.229769f, -0.128938f, 
0.272515f, -0.106850f, -0.242044f, -0.355563f, 0.025920f, 0.038857f, 0.101688f, -1.110103f, -0.253962f, 0.218749f, 
0.087885f, 0.080273f, -0.015350f, 0.000145f, -0.544741f, 0.127944f, -0.000772f, -0.837139f, -0.482392f, 0.159586f, 
-0.684678f, 0.081517f, 0.012198f, -0.204375f, -0.595259f, 0.195601f, -0.046796f, -0.259470f, -0.193903f, -0.002560f, 
-0.048840f, 0.135578f, -0.146724f, -0.878022f, 0.172189f, 0.180125f, -0.066655f, 0.013709f, -0.301667f, -0.150932f, 
0.006429f, -0.281661f, -0.487329f, -0.110594f, 0.219613f, -0.024165f, -0.739804f, 0.029522f, 0.031109f, 0.281717f, 
-0.223290f, -0.296776f, -0.241385f, -0.269874f, 0.398164f, -0.431323f, 0.134688f, -0.029411f, -0.095259f, 0.133751f, 
-0.497540f, 0.004163f, -0.598458f, 0.028854f, 0.389848f, -0.580093f, 0.063869f, 0.144169f, 0.070507f, -0.072211f, 
-0.157829f, 0.164550f, 0.486498f, 0.133076f, -0.157171f, 0.238014f, -0.278813f, 0.466220f, 0.067566f, 0.159227f, 
-0.098348f, 0.600529f, -0.162454f, -0.107022f, 0.153663f, 0.027087f, 0.432667f, -0.350589f, 0.024799f, 0.282465f, 
-0.444180f, 0.004956f, 0.371753f, -0.130703f, 0.154961f, -0.400545f, 0.269980f, -0.301689f, 0.375334f, 0.156001f, 
0.342317f, 0.353778f, 0.317337f, -0.165000f, 0.194015f, 0.204221f, -0.050687f, -0.062770f, 0.156586f, 0.337840f, 
-0.512240f, -0.051915f, -0.065037f, -0.462287f, -0.401107f, -0.100787f, -0.010241f, -0.390610f, 0.044118f, -0.300632f, 
-0.352479f, 0.076035f, 0.207343f, 0.292436f, 0.094949f, 0.024099f, 0.000499f, 0.054492f, 0.140539f, 0.237848f, 
-0.174559f, 0.142662f, -0.041758f, -0.131347f, -0.144604f, 0.313881f, 0.116930f, 0.062537f, -0.313592f, 0.086279f, 
0.215665f, 0.085301f, -0.003222f, -0.455815f, 0.215064f, -0.178023f, -0.145075f, -0.391445f, -0.092138f, 0.085134f, 
-0.027043f, -0.102937f, -0.024668f, 0.192818f, 0.048987f, 0.194288f, 0.198096f, -0.060097f, 0.060865f, -0.358971f, 
0.308622f, 0.031128f, 0.184303f, 0.058683f, -0.190999f, -0.048503f, 0.085576f, -0.216223f, 0.327767f, 0.174796f, 
-0.037684f, 0.141222f, -0.358738f, 0.169459f, 0.068293f, -0.000441f, 0.030640f, -0.119314f, -0.153148f, 0.089118f, 
0.080971f, -0.051375f, 0.056069f, 0.324156f, 0.069599f, -0.032136f, -0.226045f, 0.226686f, -0.145651f, 0.126994f, 
0.118904f, 0.256182f, 0.146700f, -0.074473f, -0.005480f, -0.291196f, -0.042208f, -0.133547f, 0.022295f, -0.132198f, 
-0.278822f, -0.175075f, -0.150349f, -0.097515f, -0.139930f, -0.112855f, -0.095741f, 0.087677f, -0.190173f, -0.145777f, 
-0.166928f, 0.127733f, -0.169311f, -0.123590f, -0.104024f, 0.023974f, 0.156768f, 0.125808f, -0.097678f, 0.260157f, 
0.142433f, -0.065803f, 0.099231f, -0.160934f, -0.023330f, -0.030384f, 0.081769f, 0.011426f, -0.112749f, 0.002310f, 
0.304633f, -0.216839f, -0.111531f, 0.126117f, -0.116358f, -0.156201f, 0.140434f, 0.131405f, -0.117715f, 0.154630f, 
-0.122581f, 0.029011f, -0.016013f, 0.110114f, -0.267625f, -0.100374f, 0.097238f, -0.146845f, 0.340513f, -0.013150f, 
-0.005540f, 0.061596f, -0.101679f, 0.038853f, 0.004133f, 0.083605f, 0.171226f, -0.078484f, -0.079698f, 0.047348f, 
0.228358f, -0.057091f, -0.074889f, -0.332257f, -0.199657f, 0.155409f, 0.037328f, 0.200226f, -0.127530f, 0.286450f, 
0.099062f, 0.056280f, 0.351162f, -0.038720f, -0.074361f, -0.341114f, -0.130880f, -0.093865f, 0.007569f, -0.042881f, 
-0.039451f, 0.206626f, -0.116867f, -0.251813f, 0.178517f, 0.158443f, -0.038224f, 0.008012f, -0.126189f, 0.056267f, 
-0.149530f, -0.211670f, -0.141282f, -0.001727f, -0.122431f, 0.264678f, 0.172254f, 0.391064f, 0.057732f, -0.081643f, 
0.305236f, 0.093576f, -0.097577f, -0.031602f, 0.269847f, -0.000540f, -0.146082f, 0.177112f, 0.086244f, 0.088713f, 
-0.019871f, -0.040510f, 0.096066f, 0.314046f, 0.269194f, -0.101185f, 0.011327f, 0.098952f, -0.125788f, 0.130197f, 
0.025473f, 0.118124f, -0.182183f, -0.043205f, 0.012638f, 0.170084f, -0.104301f, -0.131590f, -0.035017f, 0.040988f, 
-0.253916f, 0.113633f, -0.035505f, 0.122376f, 0.010281f, 0.002449f, 0.106036f, 0.200684f, 0.044437f, -0.059132f, 
0.109477f, -0.052174f, 0.067051f, 0.315373f, 0.253208f, 0.177069f, -0.114450f, 0.289247f, -0.014506f, 0.201327f, 
0.027704f, 0.104534f, 0.278544f, -0.022452f, 0.064716f, 0.164942f, -0.013737f, 0.185144f, -0.083426f, 0.268503f, 
-0.113466f, 0.107010f, 0.028825f, 0.006395f, 0.310811f, 0.099417f, 0.267610f, -0.128184f, 0.180875f, -0.211056f, 
0.203091f, 0.069660f, -0.255707f, -0.090791f, -0.028356f, -0.085998f, 0.133104f, -0.171630f, 0.014816f, -0.117997f, 
0.096367f, -0.373349f, -0.019558f, 0.146128f, -0.127942f, 0.187490f, -0.116058f, -0.157068f, -0.137242f, -0.030455f, 
0.178828f, 0.013590f, 0.027885f, 0.154227f, 0.188666f, 0.073559f, 0.258230f, -0.064563f, 0.143875f, -0.156766f, 
-0.255323f, 0.111715f, -0.169083f, 0.074380f, 0.070222f, -0.243152f, -0.164561f, 0.112176f, -0.024058f, 0.023066f, 
0.014272f, 0.008599f, -0.208470f, -0.035712f, 0.246151f, -0.091317f, 0.034156f, -0.073965f, 0.066597f, 0.217203f, 
0.042941f, -0.085425f, -0.189688f, -0.114411f, 0.080859f, 0.032995f, 0.104987f, 0.130419f, -0.194677f, -0.203121f, 
0.028361f, 0.012807f, 0.334762f, 0.255328f, -0.010596f, 0.073321f, 0.143179f, 0.008064f, 0.168023f, 0.054536f, 
-0.052525f, 0.006422f, -0.125599f, 0.224389f, -0.095991f, -0.037535f, 0.078825f, 0.127529f, 0.283573f, -0.169407f, 
0.037884f, -0.091434f, 0.007539f, -0.051959f, 0.080423f, 0.056037f, 0.221719f, 0.233297f, -0.015866f, -0.096244f, 
0.085248f, -0.041993f, 0.070320f, 0.161548f, 0.254454f, 0.184910f, -0.091384f, 0.060330f, -0.119843f, -0.237030f, 
0.098489f, 0.164523f, -0.234647f, 0.117363f, -0.136095f, -0.070457f, 0.043545f, -0.047818f, 0.027877f, 0.033262f, 
0.117676f, 0.177489f, -0.117352f, -0.059684f, 0.098143f, 0.081738f, 0.056812f, -0.174122f, -0.211867f, -0.152137f, 
0.011753f, 0.008713f, -0.014414f, 0.131396f, -0.114868f, 0.378408f, -0.143533f, 0.123069f, 0.137150f, -0.244935f, 
0.077925f, -0.148535f, -0.091829f, -0.086498f, 0.183611f, -0.126367f, 0.059561f, 0.171562f, -0.161165f, 0.049678f, 
0.134271f, -0.131253f, -0.121044f, -0.038011f, 0.274029f, 0.109667f, -0.071162f, 0.219417f, -0.113801f, 0.275708f, 
0.012269f, -0.014465f, -0.085749f, 0.050419f, -0.095721f, 0.079303f, -0.246506f, -0.015595f, -0.074534f, -0.101841f, 
-0.311209f, -0.080514f, 0.228801f, 0.197724f, -0.121905f, 0.289533f, 0.030083f, 0.143241f, 0.180933f, -0.291852f, 
0.065108f, -0.141542f, -0.109353f, 0.150169f, -0.129909f, 0.191292f, 0.180717f, 0.211730f, 0.006268f, -0.261967f, 
-0.157573f, 0.158031f, 0.134801f, 0.108865f, -0.155201f, -0.177451f, 0.027041f, 0.018614f, 0.076173f, 0.156800f, 
-0.350206f, -0.042081f, -0.016878f, -0.108449f, -0.006987f, -0.190014f, 0.064721f, -0.056205f, 0.073972f, 0.057021f, 
0.023428f, -0.166822f, 0.082054f, -0.341841f, 0.313194f, -0.054629f, 0.076831f, 0.077254f, -0.423207f, 0.112237f, 
0.028949f, 0.094276f, -0.149093f, -0.027152f, -0.342569f, -0.377945f, 0.295197f, -0.126910f, 0.076885f, 0.190982f, 
0.030838f, 0.420817f, 0.510921f, 0.063118f, -0.102366f, -0.051486f, -0.190378f, 0.143634f, 0.204913f, 0.206820f, 
0.477471f, -0.079535f, 0.251692f, -0.139828f, -0.149881f, -0.213368f, -0.143300f, 0.484910f, -0.274909f, 0.258542f, 
-0.274595f, -0.284181f, 0.231953f, -0.175705f, -0.005306f, -0.411343f, -0.173746f, 0.475762f, 0.160854f, -0.293830f, 
0.135302f, -0.083213f, -0.101380f, -0.029994f, 0.273305f, -0.063243f, 0.241205f, 0.080234f, 0.062556f, 0.141303f, 
-0.187234f, 0.015578f, -0.018099f, -0.247505f, 0.096981f, 0.159418f, -0.319749f, -0.333085f, 0.262725f, 0.021660f, 
0.085141f, 0.045667f, 0.507685f, -0.134137f, 0.037670f, 0.069413f, -0.299734f, -0.126015f, -0.154356f, 0.221791f, 
0.449487f, -0.102000f, 0.154859f, 0.037687f, -0.315357f, 0.376088f, -0.415044f, 0.020177f, 0.146649f, -0.110466f, 
-0.284996f, 0.090657f, 0.432786f, -0.031041f, -0.154787f, 0.024066f, -0.223575f, -0.111660f, 0.401216f, 0.087673f, 
0.154233f, -0.299555f, -0.466709f, 0.282622f, -0.108258f, 0.254870f, -0.013082f, -0.134550f, 0.102382f, -0.364817f, 
0.186498f, 0.175947f, -0.015227f, -0.376351f, -0.328578f, 0.197544f, -0.396389f, -0.113738f, -0.057471f, -0.533071f, 
0.280312f, -0.185773f, -0.534107f, 0.328787f, -0.114363f, 0.457034f, -0.042194f, 0.174778f, 0.136677f, -0.578453f, 
0.518931f, -0.279576f, -0.261037f, -0.346900f, -0.225291f, -0.227298f, -0.036428f, 0.015826f, 0.053398f, 0.165601f, 
0.318316f, -0.266074f, 0.206574f, 0.345115f, 0.046174f, -0.136610f, -0.395461f, 0.173553f, -0.440217f, 0.222079f, 
-0.076516f, 0.264492f, 0.020619f, -0.197540f, -0.426677f, 0.147033f, -0.515297f, -0.295058f, 0.050950f, -0.120881f, 
-0.490481f, -0.193015f, 0.535797f, 0.051803f, 0.090379f, 0.245553f, -0.171192f, 0.256054f, 0.046567f, -0.326208f, 
0.101637f, -0.438459f, -0.517278f, 0.083354f, 0.185133f, 0.077885f, -0.306510f, 0.198786f, 0.070048f, -0.017298f, 
0.221954f, 0.453850f, 0.237939f, -0.306008f, -0.017750f, -0.226360f, 0.525607f, 0.278534f, -0.401285f, 0.655730f, 
-0.706545f, 0.100554f, 0.316326f, 0.102094f, 0.017555f, -0.339600f, 0.431521f, -0.099390f, 0.064734f, 0.122943f, 
-0.080607f, -0.223779f, 0.255186f, -0.073125f, -0.080491f, -0.277301f, -0.343473f, 0.187460f, -0.129859f, 0.081352f, 
0.136365f, 0.604412f, -0.434068f, -0.346202f, -0.095646f, -0.315565f, 0.192834f, -0.061466f, 0.204964f, 0.025106f, 
-0.064511f, -0.019312f, 0.247822f, 0.204122f, -0.110745f, -0.001509f, -0.016381f, 0.264508f, 0.275323f, -0.038560f, 
0.364184f, -0.052979f, 0.106808f, -0.018698f, 0.131781f, 0.024965f, -0.054277f, -0.020844f, 0.225325f, 0.528434f, 
-0.166283f, -0.070383f, 0.307917f, 0.006912f, -0.087024f, -0.192324f, 0.078879f, 0.448665f, 0.141224f, -0.171665f, 
-0.273241f, -0.073385f, 0.100472f, 0.054989f, 0.044550f, 0.191671f, -0.350878f, -0.377045f, -0.083143f, 0.087140f, 
-0.371042f, 0.019346f, 0.143329f, -0.089214f, -0.168360f, 0.355215f, 0.072276f, -0.079561f, 0.088699f, -0.476751f, 
0.472445f, -0.250368f, -0.046102f, 0.156529f, 0.542541f, 0.148890f, -0.439318f, 0.162346f, -0.109750f, 0.275605f, 
0.220113f, -0.171764f, 0.235015f, 0.251436f, -0.088166f, 0.245036f, -0.143290f, -0.104382f, -0.219602f, 0.360730f, 
-0.715989f, -0.107285f, 0.157037f, 0.157061f, 0.136419f, -0.129156f, 0.090944f, -0.275434f, 0.270673f, 0.284224f, 
0.161784f, 0.035596f, -0.054700f, -0.120774f, 0.340218f, -0.003004f, -0.659129f, 0.227318f, -0.039689f, 0.012542f, 
-0.184235f, 0.306799f, 0.192795f, -0.261733f, -0.012399f, -0.233452f, 0.124161f, 0.146655f, 0.084305f, 0.394166f, 
-0.214909f, 0.067362f, -0.120516f, 0.054544f, -0.246214f, -0.031097f, 0.015024f, 0.153679f, 0.234947f, 0.065790f, 
0.338595f, -0.178839f, 0.256892f, -0.390846f, 0.016441f, 0.002055f, 0.100221f, 0.025108f, 0.183075f, 0.219445f, 
0.173243f, 0.114485f, 0.161488f, -0.032822f, -0.198449f, -0.175087f, -0.544073f, 0.083401f, 0.212826f, 0.056293f, 
0.070575f, -0.154898f, 0.496030f, 0.082496f, 0.124297f, 0.082088f, -0.121351f, -0.018251f, 0.036200f, 0.176351f, 
-0.075145f, 0.101924f, -0.225293f, -0.103300f, -0.142113f, 0.470235f, -0.016502f, 0.130239f, -0.253795f, -0.052046f, 
0.368912f, -0.086160f, -0.056028f, -0.212014f, 0.378422f, 0.000210f, -0.449237f, -0.011597f, 0.073672f, 0.203262f, 
0.167228f, 0.150199f, -0.098157f, 0.326589f, 0.105023f, 0.130809f, -0.003152f, -0.156781f, 0.191419f, 0.236907f, 
-0.126408f, -0.141857f, 0.272083f, -0.003494f, -0.022664f, -0.592356f, -0.018523f, -0.147157f, 0.272121f, 0.212079f, 
-0.014476f, -0.188639f, 0.140675f, -0.064976f, 0.057080f, 0.073524f, 0.311763f, 0.066387f, -0.017134f, 0.155884f, 
0.025720f, 0.504309f, -0.249472f, -0.160436f, -0.330798f, -0.189318f, 0.056447f, -0.228187f, 0.270772f, 0.270151f, 
-0.040087f, 0.164840f, 0.412328f, -0.219127f, -0.096914f, 0.016863f, -0.316898f, 0.276045f, 0.396470f, 0.167652f, 
0.375206f, -0.149968f, 0.369391f, -0.264975f, -0.008033f, -0.150042f, -0.059844f, 0.075780f, 0.051879f, 0.401851f, 
-0.053191f, -0.458403f, -0.125998f, -0.003212f, 0.323999f, -0.251997f, -0.146843f, 0.354501f, 0.615080f, -0.128137f, 
0.019271f, -0.099913f, 0.142484f, 0.353569f, 0.155943f, 0.156097f, -0.287765f, -0.048783f, 0.069937f, -0.011443f, 
-0.338356f, 0.313367f, -0.277430f, -0.309491f, 0.100633f, 0.520749f, -0.136204f, -0.067661f, -0.124804f, -0.194329f, 
0.195717f, -0.145503f, 0.210859f, -0.075165f, 0.400094f, -0.137284f, -0.108086f, 0.114176f, -0.187103f, 0.322008f, 
0.466913f, -0.274991f, 0.128006f, 0.214326f, -0.244069f, 0.132955f, -0.459201f, -0.251886f, -0.172327f, -0.184022f, 
-0.537227f, -0.066241f, 0.264244f, -0.116514f, 0.029516f, -0.087895f, -0.328768f, -0.349782f, 0.275891f, -0.091072f, 
-0.014423f, -0.113053f, -0.315789f, 0.008670f, -0.058170f, -0.207227f, 0.036189f, -0.312635f, 0.071471f, -0.173164f, 
0.250541f, -0.644402f, 0.268389f, 0.065794f, 0.083527f, 0.329495f, -0.050094f, 0.057943f, 0.281665f, -0.369292f, 
0.123570f, -0.260775f, -0.481278f, 0.204336f, 0.158987f, 0.115872f, 0.123772f, -0.013933f, -0.024139f, -0.137692f, 
-0.350340f, 0.079471f, 0.038245f, 0.189201f, 0.277658f, -0.078768f, -0.079227f, -0.124007f, 0.266198f, -0.537216f, 
0.160670f, 0.149005f, -0.079353f, 0.111398f, 0.169330f, 0.202252f, -0.150643f, -0.053455f, -0.406232f, 0.243396f, 
-0.220594f, 0.134416f, -0.592619f, -0.407358f, -0.235960f, -0.040044f, -0.215522f, -0.061011f, -0.005030f, 0.065381f, 
0.264837f, -0.198915f, 0.104839f, -0.053798f, -0.102594f, -0.324935f, -0.118009f, 0.134081f, 0.303564f, -0.047283f, 
-0.431943f, 0.214365f, -0.272573f, 0.225217f, -0.402661f, 0.086156f, 0.001245f, 0.201882f, 0.280783f, 0.260558f, 
-0.027045f, -0.000984f, 0.113569f, -0.476113f, 0.046726f, -0.188471f, -0.022879f, 0.419800f, 0.151673f, 0.282793f, 
0.144238f, -0.171364f, -0.123651f, -0.225761f, 0.120804f, 0.055501f, 0.118576f, -0.158125f, 0.152015f, 0.077629f, 
0.078514f, 0.073771f, 0.382275f, -0.306075f, -0.174575f, -0.198023f, -0.000262f, 0.294177f, -0.033304f, -0.402624f, 
0.048490f, 0.261210f, -0.147130f, -0.023702f, -0.172957f, 0.102256f, -0.378881f, 0.084403f, 0.102309f, 0.363829f, 
-0.067337f, -0.266639f, 0.172622f, -0.117951f, 0.240359f, -0.442915f, 0.281033f, -0.581144f, -0.162840f, -0.036965f, 
-0.151165f, -0.046048f, 0.106445f, 0.091013f, 0.334983f, -0.229679f, 0.047019f, -0.440917f, 0.155866f, -0.147843f, 
-0.098011f, 0.186031f, -0.089481f, -0.213829f, 0.184385f, -0.022684f, 0.177599f, -0.457540f, -0.090702f, -0.053365f, 
0.079582f, 0.055945f, 0.069579f, -0.121457f, -0.265333f, 0.020194f, 0.156532f, -0.036128f, -0.010273f, -0.165822f, 
-0.304351f, 0.092135f, 0.097494f, 0.089146f, -0.160396f, -0.323667f, 0.042684f, -0.149215f, -0.249130f, -0.114289f, 
0.207288f, 0.007451f, 0.188558f, 0.191079f, 0.099575f, -0.075845f, -0.093455f, -0.172378f, 0.098722f, 0.307712f, 
0.200851f, -0.241129f, -0.051503f, -0.106367f, -0.225632f, 0.182095f, 0.077792f, 0.173603f, -0.526905f, -0.267861f, 
0.160731f, -0.044625f, 0.030221f, 0.003239f, 0.007947f, 0.072880f, -0.044935f, 0.060166f, -0.000242f, -0.220494f, 
0.097967f, -0.119259f, -0.298798f, 0.240710f, -0.023254f, -0.159100f, -0.203348f, -0.055146f, -0.022406f, -0.109416f, 
-0.303431f, -0.042261f, 0.207894f, -0.365424f, -0.124970f, -0.099084f, 0.015013f, 0.016426f, 0.082210f, -0.258926f, 
-0.126328f, -0.451995f, -0.258301f, 0.189376f, -0.087059f, -0.067974f, -0.218336f, -0.483763f, 0.225182f, 0.127053f, 
-0.154928f, -0.174279f, 0.005067f, -0.052586f, -0.130300f, 0.024423f, -0.065813f, -0.217082f, 0.176662f, -0.134023f, 
-0.101695f, -0.065254f, 0.045097f, -0.304761f, -0.047478f, 0.016089f, 0.146532f, 0.281607f, 0.111157f, 0.086539f, 
-0.543593f, -0.017252f, -0.009612f, 0.028430f, -0.159020f, 0.112413f, -0.417985f, -0.290492f, 0.039328f, 0.206733f, 
0.023902f, -0.063678f, -0.176366f, 0.097827f, 0.084950f, -0.082751f, -0.471701f, 0.224962f, -0.018554f, -0.204013f, 
-0.189898f, -0.426637f, -0.268907f, -0.138051f, 0.124167f, -0.239703f, -0.219179f, -0.004553f, -0.069405f, 0.221170f, 
0.015459f, 0.182635f, -0.030638f, -0.088747f, 0.304871f, -0.109378f, 0.298645f, -0.297397f, -0.256909f, -0.105626f, 
0.103460f, 0.036295f, 0.022496f, 0.273466f, -0.098941f, -0.148611f, 0.230242f, -0.145859f, -0.027734f, 0.155188f, 
-0.199008f, -0.042169f, -0.014076f, 0.227006f, 0.318652f, -0.053293f, 0.127953f, -0.023421f, 0.060054f, 0.083186f, 
0.063615f, -0.081093f, -0.094319f, -0.096427f, 0.065385f, 0.049638f, 0.159071f, -0.064428f, -0.084086f, 0.058701f, 
0.180909f, 0.115537f, -0.029440f, 0.157578f, -0.240191f, -0.110555f, -0.168029f, 0.129962f, 0.102271f, -0.108667f, 
-0.008247f, 0.089090f, 0.204907f, 0.133722f, -0.050514f, 0.052094f, -0.063574f, 0.190052f, 0.066984f, 0.026743f, 
-0.128301f, -0.217299f, 0.149312f, -0.174945f, -0.166169f, -0.068730f, 0.171041f, 0.346728f, -0.164827f, -0.094432f, 
0.196553f, -0.047351f, 0.005011f, -0.008901f, 0.277016f, -0.194496f, 0.082369f, 0.247933f, -0.123520f, 0.101502f, 
0.115165f, 0.091982f, 0.099490f, -0.143300f, -0.018417f, 0.146264f, 0.021638f, -0.234711f, 0.130617f, 0.206840f, 
-0.138129f, -0.146275f, 0.259789f, -0.160565f, -0.250495f, -0.181776f, 0.032742f, 0.041394f, -0.019859f, -0.018648f, 
0.090789f, 0.179021f, 0.153984f, 0.216422f, 0.106905f, 0.034306f, -0.113386f, -0.101231f, 0.129860f, 0.201610f, 
-0.088144f, -0.072683f, 0.361768f, -0.121750f, -0.241270f, 0.034468f, -0.217486f, -0.078674f, 0.027215f, 0.330835f, 
0.057464f, -0.069135f, -0.097078f, -0.087609f, 0.095806f, 0.196867f, 0.045574f, -0.027486f, 0.120877f, 0.114964f, 
-0.092320f, 0.099943f, -0.112797f, 0.010205f, 0.140252f, 0.153013f, -0.157113f, 0.134639f, -0.009195f, 0.249445f, 
-0.234368f, 0.261714f, 0.012607f, -0.079322f, 0.244247f, -0.133319f, -0.006503f, -0.102516f, -0.213626f, 0.068425f, 
-0.099021f, -0.021388f, 0.153621f, 0.032747f, 0.119756f, 0.048794f, 0.031575f, -0.011024f, 0.136797f, 0.061176f, 
0.081377f, 0.282253f, 0.095558f, -0.195596f, -0.237478f, 0.317014f, 0.055142f, -0.307969f, -0.215101f, 0.118003f, 
0.117295f, 0.088409f, 0.023075f, 0.031870f, 0.155388f, -0.022772f, 0.134683f, 0.133663f, 0.083244f, -0.148792f, 
-0.093005f, 0.054124f, 0.012664f, 0.057354f, -0.043655f, 0.022279f, 0.081002f, -0.009350f, -0.089903f, 0.116607f, 
-0.006558f, -0.148348f, -0.049015f, -0.060172f, 0.215377f, 0.044030f, 0.097486f, -0.193811f, 0.086512f, -0.026737f, 
-0.052745f, 0.086200f, -0.051451f, -0.084495f, 0.251047f, -0.045957f, -0.002626f, -0.187377f, 0.159764f, -0.160835f, 
0.116246f, -0.129537f, 0.028611f, -0.330790f, 0.019594f, 0.162407f, 0.138038f, 0.170751f, -0.139099f, -0.067525f, 
-0.074965f, 0.077281f, -0.146339f, 0.177369f, -0.342726f, -0.098388f, -0.198101f, -0.344838f, 0.201202f, 0.055245f, 
-0.497959f, -1.020437f, 0.175749f, -0.004101f, 0.101962f, 0.145968f, -0.561049f, 0.308950f, 0.016519f, -0.711712f, 
0.236538f, -0.233146f, -0.776282f, -0.258020f, 0.053288f, 0.395836f, -0.196913f, 0.097322f, -0.359311f, -0.069006f, 
-0.772674f, 0.075324f, -0.036346f, 0.282920f, 0.120605f, -0.086280f, 0.442579f, -0.335421f, 0.102691f, -0.953154f, 
0.444716f, -0.161772f, -0.048963f, 0.445069f, 0.266596f, -0.157601f, -0.116517f, 0.061755f, -0.894849f, 0.183150f, 
-0.295144f, -0.367398f, -0.222026f, -0.003419f, -0.520044f, 0.210908f, -0.514323f, -0.665597f, 0.155750f, -0.125182f, 
0.309273f, -0.398159f, -0.144469f, 0.234306f, -0.152765f, -0.652308f, -0.033769f, 0.286675f, 0.261071f, -0.256469f, 
0.216187f, -0.502512f, -0.537351f, 0.282052f, -0.287157f, 0.100265f, -0.742768f, 0.086678f, 0.114234f, 0.313752f, 
-0.323009f, -0.047081f, 0.063976f, -0.660102f, 0.189985f, -0.095117f, 0.120438f, -0.520151f, 0.130452f, 0.297591f, 
0.158502f, -0.169544f, -0.444486f, 0.088876f, -0.027362f, 0.087223f, 0.173188f, -0.066240f, 0.150781f, 0.123190f, 
0.204406f, 0.132705f, 0.407696f, 0.198524f, -0.022924f, -0.060604f, -0.926477f, 0.289341f, 0.025698f, 0.140956f, 
-0.028432f, 0.360459f, 0.010557f, 0.078127f, 0.025057f, -0.215597f, 0.147106f, -0.083840f, -0.044963f, 0.319022f, 
-0.199977f, 0.030748f, 0.279836f, -0.027265f, 0.177942f, -0.068677f, 0.039197f, -0.030750f, 0.054890f, -0.010734f, 
0.354288f, 0.171488f, 0.205493f, -0.147361f, 0.007156f, 0.161838f, 0.118692f, -0.197656f, -0.095832f, 0.326335f, 
-0.186948f, -0.068260f, 0.245467f, -0.113866f, -0.288138f, -0.094468f, -0.013494f, -0.258906f, 0.154477f, -0.201081f, 
-0.154028f, -0.140163f, 0.464690f, 0.122277f, 0.014124f, 0.143415f, 0.030026f, -0.182185f, 0.220568f, 0.016025f, 
-0.260133f, 0.134117f, -0.062163f, -0.123815f, 0.061725f, -0.127760f, 0.089523f, 0.139282f, -0.342979f, 0.173447f, 
0.197487f, 0.072718f, 0.136127f, 0.030583f, -0.080252f, -0.094510f, -0.196804f, 0.067677f, -0.144511f, 0.253671f, 
0.005581f, -0.018723f, 0.049082f, 0.216135f, 0.043775f, 0.157629f, 0.064153f, -0.028915f, 0.053093f, 0.079556f, 
-0.114165f, 0.138136f, 0.210595f, 0.345486f, -0.038643f, -0.142968f, 0.226720f, -0.108805f, 0.105617f, 0.237709f, 
0.141484f, 0.074226f, 0.261288f, 0.219556f, -0.199346f, 0.025788f, -0.334628f, -0.094571f, 0.036606f, 0.049864f, 
-0.218929f, -0.017472f, 0.142973f, -0.327433f, 0.088684f, 0.058238f, 0.194363f, 0.099031f, 0.132019f, -0.120874f, 
-0.063057f, -0.135145f, 0.182101f, 0.000254f, 0.139315f, -0.158219f, 0.232802f, -0.052632f, -0.173711f, 0.197402f, 
-0.105828f, 0.092502f, 0.151913f, 0.074012f, 0.189081f, 0.079381f, 0.269374f, -0.158794f, 0.162317f, -0.086447f, 
-0.043704f, 0.017520f, -0.022713f, 0.250058f, 0.046644f, 0.192349f, -0.103835f, 0.010165f, 0.007708f, 0.017574f, 
-0.276433f, 0.082149f, 0.096395f, 0.049287f, 0.091043f, 0.431533f, -0.199862f, -0.275815f, 0.213914f, 0.161863f, 
0.026269f, 0.139815f, 0.001187f, -0.043492f, 0.140134f, -0.013330f, -0.063444f, 0.265077f, -0.096243f, -0.124585f, 
-0.022053f, -0.147315f, 0.107634f, 0.153729f, -0.246924f, 0.033669f, -0.402237f, -0.019131f, -0.073113f, 0.116824f, 
-0.087301f, -0.050950f, 0.049921f, -0.139433f, -0.043828f, 0.043765f, 0.048351f, -0.066715f, -0.019101f, -0.075146f, 
0.124632f, -0.090408f, 0.053698f, -0.008646f, 0.236807f, -0.274220f, 0.205222f, 0.089977f, 0.122522f, 0.032814f, 
0.016042f, 0.238946f, 0.088095f, 0.141827f, 0.023438f, 0.410803f, 0.081241f, 0.308145f, 0.124205f, 0.319029f, 
-0.133195f, 0.336640f, 0.158091f, 0.096090f, 0.106574f, -0.218924f, 0.080184f, -0.205998f, 0.083451f, 0.142006f, 
-0.512781f, 0.042693f, -0.040915f, -0.313625f, 0.275341f, -0.351888f, 0.210928f, -0.585001f, 0.210126f, 0.125027f, 
0.033107f, 0.175568f, 0.191931f, -0.086089f, 0.031633f, 0.258556f, -0.120258f, -0.207683f, 0.231830f, 0.252617f, 
-0.313786f, 0.088915f, 0.276469f, -0.482677f, -0.750166f, 0.144253f, -0.027437f, -0.609823f, 0.231897f, 0.060921f, 
0.100814f, 0.154216f, 0.348284f, 0.340777f, 0.180937f, -0.211831f, 0.108744f, 0.228022f, -0.006110f, 0.180801f, 
-0.236599f, -0.004314f, 0.058206f, -0.332261f, -0.082565f, 0.113793f, 0.144677f, -0.012532f, -0.674042f, 0.226925f, 
0.184330f, -0.184769f, 0.181030f, -0.444426f, 0.262002f, -0.009972f, -0.026954f, -0.383612f, -0.115634f, -0.012532f, 
-0.146919f, 0.097366f, -0.072382f, 0.299275f, 0.206050f, -0.049553f, 0.043069f, 0.006234f, 0.172547f, -0.043852f, 
0.014032f, -0.011465f, -0.088242f, -0.174490f, 0.035007f, 0.007175f, 0.111108f, -0.084829f, -0.175091f, 0.054457f, 
0.014693f, -0.219817f, 0.090397f, -0.033528f, 0.320581f, -0.207313f, -0.541002f, 0.150284f, -0.182441f, 0.237544f, 
-0.079014f, 0.373620f, 0.250012f, 0.046386f, -0.161489f, 0.005485f, 0.009768f, 0.068977f, -0.042865f, 0.266914f, 
0.051783f, 0.395394f, -0.428265f, 0.147611f, -0.213375f, 0.117576f, -0.171639f, 0.183778f, 0.169499f, 0.169943f, 
0.306322f, -0.156337f, 0.085516f, -0.176537f, -0.033309f, -0.093038f, -0.001387f, 0.239913f, -0.033075f, 0.431505f, 
-0.046418f, 0.054728f, 0.046056f, 0.001020f, -0.381747f, -0.097560f, -0.076797f, 0.251027f, 0.082926f, 0.047993f, 
-0.047945f, -0.067304f, 0.441003f, 0.007609f, 0.486421f, -0.168894f, -0.003149f, 0.244524f, 0.073975f, 0.260320f, 
0.028994f, -0.169050f, -0.014993f, -0.202222f, 0.048471f, 0.285721f, -0.059408f, -0.190959f, -0.099358f, 0.180864f, 
-0.061546f, 0.019241f, -0.131086f, -0.134621f, -0.038337f, -0.165773f, -0.040745f, 0.133563f, 0.083316f, -0.075411f, 
0.197323f, 0.113802f, 0.158847f, 0.045425f, 0.118444f, 0.269948f, 0.101018f, 0.001945f, 0.264392f, 0.173909f, 
0.028796f, -0.118729f, 0.309008f, -0.224107f, -0.175006f, -0.533415f, -0.215808f, 0.051030f, 0.286059f, 0.286681f, 
-0.232226f, 0.072089f, -0.221791f, -0.176767f, 0.200023f, -0.230168f, 0.107061f, -0.306499f, -0.234031f, -0.008413f, 
0.304677f, -0.204446f, 0.132679f, -0.088338f, 0.017658f, 0.062374f, 0.214094f, -0.083850f, 0.018098f, -0.034319f, 
0.058927f, 0.251393f, -0.278108f, 0.370263f, 0.057338f, -0.145922f, -0.143755f, 0.100945f, 0.157016f, -0.132795f, 
0.288849f, 0.113613f, 0.011716f, -0.051243f, -0.229023f, -0.168196f, -0.087336f, 0.284181f, -0.361651f, 0.358503f, 
0.022040f, -0.134696f, -0.012594f, -0.119430f, 0.075537f, -0.045934f, -0.245721f, 0.140378f, 0.011829f, 0.301761f, 
0.189334f, 0.139731f, 0.035174f, 0.037948f, 0.325220f, -0.041893f, 0.251479f, 0.011028f, -0.222274f, 0.122742f, 
-0.165736f, 0.133903f, 0.195288f, 0.109696f, -0.167076f, 0.115061f, 0.078278f, -0.354394f, 0.157495f, 0.323814f, 
-0.069510f, 0.251087f, -0.186684f, 0.083179f, 0.015153f, 0.103665f, 0.261127f, 0.009270f, -0.042694f, -0.326925f, 
0.056432f, -0.062347f, 0.057159f, 0.138824f, -0.297677f, 0.211867f, -0.077819f, 0.338535f, 0.217957f, 0.076451f, 
-0.292718f, 0.006160f, 0.370431f, -0.178670f, 0.017310f, -0.157134f, -0.129979f, 0.118328f, 0.183498f, 0.096565f, 
-0.122901f, -0.014411f, -0.016396f, 0.096736f, -0.115591f, -0.216584f, 0.039550f, 0.016577f, 0.073830f, -0.002400f, 
0.079067f, -0.138161f, 0.022085f, -0.326984f, -0.144060f, -0.016704f, -0.362158f, 0.079863f, 0.142400f, -0.256302f, 
0.000484f, -0.234780f, -0.187934f, -0.321719f, -0.043061f, 0.081394f, 0.099061f, 0.040807f, 0.253839f, -0.033718f, 
0.127416f, 0.118634f, 0.234592f, 0.178035f, -0.008574f, 0.037275f, -0.202711f, -0.602802f, 0.187861f, -0.243442f, 
0.073917f, -0.083664f, 0.269202f, 0.011788f, -0.079065f, -0.001733f, 0.207499f, -0.404944f, 0.037665f, -0.149310f, 
-0.142396f, 0.196567f, 0.237299f, 0.014662f, -0.223998f, -0.059944f, -0.368667f, -0.034453f, -0.178599f, 0.026008f, 
0.013613f, 0.178496f, 0.077236f, -0.200120f, -0.168394f, -0.286209f, -0.145625f, -0.012561f, 0.233980f, -0.062394f, 
0.030186f, -0.132664f, 0.174691f, -0.150349f, -0.095002f, 0.084256f, -0.099728f, 0.145782f, -0.204415f, 0.102827f, 
-0.014651f, 0.105904f, -0.019566f, -0.187597f, 0.143062f, 0.237418f, 0.082024f, 0.183599f, -0.231244f, 0.040447f, 
0.186680f, -0.164423f, -0.207289f, -0.055389f, -0.053374f, -0.119197f, -0.128402f, 0.022393f, 0.244623f, 0.157753f, 
-0.002544f, -0.145517f, -0.154405f, 0.189868f, -0.243845f, 0.205941f, 0.250564f, 0.119955f, 0.017300f, 0.191040f, 
-0.098403f, -0.049121f, 0.129943f, 0.043498f, 0.124326f, 0.085619f, 0.000142f, 0.125516f, -0.033568f, -0.188243f, 
0.024240f, -0.132471f, -0.111491f, -0.136684f, -0.113112f, 0.185434f, 0.153394f, -0.281298f, 0.011650f, 0.034010f, 
-0.209964f, 0.052767f, 0.180872f, 0.088355f, -0.039539f, -0.045539f, 0.157874f, -0.194818f, 0.244792f, -0.209578f, 
-0.114449f, 0.038886f, 0.143164f, -0.109342f, 0.231125f, 0.073497f, 0.145863f, -0.274425f, 0.128408f, 0.086139f, 
-0.032468f, 0.202863f, 0.153399f, 0.214535f, -0.306255f, -0.117808f, 0.000110f, 0.097462f, -0.087210f, -0.078502f, 
0.124463f, 0.132945f, 0.049528f, -0.109161f, 0.084231f, -0.063200f, -0.041344f, 0.285178f, -0.034012f, -0.097814f, 
0.045986f, -0.044021f, -0.063396f, 0.097265f, 0.170386f, 0.018747f, 0.082962f, -0.043306f, 0.214222f, -0.062768f, 
-0.135034f, 0.355565f, 0.016440f, -0.169689f, 0.145665f, -0.197506f, 0.125431f, 0.037166f, -0.160786f, -0.177697f, 
0.090643f, 0.105475f, -0.266152f, 0.059043f, 0.137927f, 0.151374f, -0.093860f, -0.045778f, -0.074720f, -0.058148f, 
0.157018f, 0.097273f, 0.174426f, 0.069321f, -0.228623f, 0.226227f, -0.000890f, -0.242794f, 0.239521f, 0.230532f, 
0.227848f, -0.135381f, -0.140767f, 0.018147f, 0.088417f, -0.060923f, -0.277681f, 0.201127f, 0.072550f, -0.145262f, 
0.313407f, 0.045230f, 0.058662f, 0.019134f, 0.054648f, 0.207743f, -0.165041f, 0.082702f, -0.537262f, 0.013775f, 
-0.410361f, -0.013073f, -0.169903f, 0.378114f, 0.334810f, 0.197246f, 0.419147f, -0.140280f, 0.202075f, -0.174230f, 
-0.007820f, -0.064157f, 0.235745f, 0.308001f, 0.435558f, -0.061279f, -0.056806f, 0.174876f, -0.025804f, 0.095445f, 
-0.178736f, 0.022769f, -0.222718f, -0.010401f, -0.156949f, 0.283920f, -0.081598f, -0.283919f, 0.175344f, -0.000131f, 
-0.156766f, -0.293744f, -0.085005f, 0.164176f, -0.103063f, -0.464527f, -0.097329f, 0.050850f, 0.191924f, -0.009831f, 
-0.063121f, -0.177415f, 0.017846f, 0.113863f, -0.122540f, 0.147168f, -0.115914f, 0.142553f, 0.217517f, 0.009482f, 
0.180295f, 0.037335f, 0.053467f, -0.180444f, 0.104923f, 0.004701f, 0.054851f, 0.152150f, -0.055525f, 0.028702f, 
0.362908f, 0.040681f, -0.151693f, -0.142094f, 0.251003f, 0.097674f, 0.397520f, 0.046499f, 0.113814f, -0.049464f, 
0.304908f, -0.072826f, 0.125901f, 0.066502f, 0.070441f, 0.003659f, -0.078926f, -0.099305f, 0.109890f, 0.170331f, 
-0.043529f, -0.111916f, 0.013956f, -0.071507f, 0.099917f, -0.170714f, 0.057649f, 0.104421f, 0.073495f, -0.008951f, 
-0.115408f, -0.333697f, -0.086481f, 0.067896f, 0.027128f, 0.178281f, 0.046500f, 0.191525f, 0.222671f, -0.012911f, 
-0.002961f, -0.008670f, 0.164449f, 0.001912f, -0.121741f, 0.186456f, 0.092046f, -0.217317f, 0.062130f, -0.002227f, 
0.219835f, 0.004966f, 0.120721f, 0.383643f, 0.007977f, -0.039020f, -0.173150f, 0.068474f, -0.118554f, 0.088593f, 
-0.196936f, -0.050320f, -0.100884f, 0.056046f, -0.104606f, 0.363665f, -0.071188f, -0.108846f, 0.425072f, -0.073920f, 
0.059149f, 0.340501f, -0.031407f, 0.268209f, 0.072597f, 0.179018f, 0.255478f, 0.250244f, 0.132499f, -0.132090f, 
0.077749f, -0.150342f, -0.136365f, 0.132076f, 0.214146f, 0.060508f, -0.348200f, 0.014426f, -0.017557f, 0.115403f, 
-0.054680f, 0.005700f, 0.056924f, -0.055587f, 0.049645f, 0.001253f, -0.223447f, -0.018704f, 0.070138f, -0.066177f, 
0.070166f, 0.164118f, 0.068705f, 0.175615f, 0.060755f, -0.049711f, 0.162855f, 0.130378f, 0.145848f, -0.166657f, 
0.254444f, 0.039464f, 0.285489f, 0.182578f, -0.261891f, 0.036955f, 0.130326f, 0.207340f, 0.290203f, -0.031668f, 
0.155443f, 0.431987f, -0.268424f, 0.008695f, 0.318648f, 0.271473f, 0.073471f, -0.281017f, 0.179198f, -0.063818f, 
-0.192086f, -0.066347f, 0.240140f, -0.078606f, 0.013845f, -0.089544f, 0.051521f, -0.144312f, 0.271007f, 0.146260f, 
0.167525f, 0.008458f, 0.037215f, -0.343063f, -0.108984f, 0.153972f, 0.012052f, -0.436597f, -0.088547f, 0.250675f, 
-0.056610f, 0.264338f, -0.218619f, -0.069615f, -0.186593f, 0.075759f, -0.032276f, -0.465026f, 0.107686f, 0.139901f, 
-0.538474f, 0.063276f, 0.037197f, 0.197601f, -0.316787f, 0.151715f, -0.124604f, -0.122365f, 0.348824f, -0.082873f, 
-0.144286f, -0.005265f, 0.130037f, -0.315625f, 0.066344f, -0.026159f, 0.066736f, 0.056340f, -0.235009f, -0.379408f, 
0.304968f, -0.125718f, 0.058764f, -0.190196f, 0.367691f, 0.194446f, -0.192206f, -0.054455f, -0.258450f, 0.250749f, 
-0.008306f, 0.008160f, -0.231948f, 0.271396f, 0.177364f, -0.085244f, 0.183919f, 0.041270f, -0.084909f, 0.107118f, 
-0.345995f, -0.154896f, -0.194916f, 0.223132f, 0.310887f, -0.114835f, 0.090929f, -0.010643f, 0.083355f, 0.023509f, 
0.027926f, 0.150380f, 0.336215f, 0.068542f, -0.183024f, -0.245929f, -0.305999f, 0.231207f, -0.075818f, -0.043883f, 
-0.193837f, 0.028289f, -0.037917f, -0.213181f, -0.021998f, -0.127969f, 0.047624f, 0.076057f, -0.131516f, -0.042968f, 
-0.173468f, 0.017273f, 0.139656f, -0.199659f, -0.182061f, 0.254429f, -0.161556f, 0.344958f, -0.131750f, 0.182921f, 
0.173316f, 0.183502f, 0.167372f, 0.078926f, 0.099774f, -0.014919f, 0.276299f, -0.102474f, -0.065650f, 0.068676f, 
0.202080f, -0.159327f, -0.134170f, 0.356607f, 0.029746f, -0.006718f, 0.040178f, 0.213822f, 0.158228f, -0.052991f, 
-0.154569f, -0.056644f, 0.087929f, 0.057021f, -0.042761f, 0.317708f, -0.019117f, -0.056668f, 0.288919f, -0.141676f, 
0.033786f, 0.336856f, -0.012501f, 0.080283f, 0.097179f, 0.117382f, 0.008786f, 0.297789f, 0.305333f, -0.155281f, 
0.147538f, 0.063666f, 0.102476f, 0.140827f, -0.028376f, 0.314570f, -0.325090f, -0.062915f, -0.068735f, 0.138062f, 
-0.155370f, -0.229460f, 0.142188f, -0.142789f, -0.105638f, 0.046669f, -0.295692f, -0.239693f, -0.036004f, -0.224480f, 
0.126648f, 0.162695f, 0.092896f, 0.090443f, 0.345288f, -0.180877f, 0.061877f, -0.120433f, 0.016840f, -0.117770f, 
0.142901f, -0.229199f, -0.135799f, 0.020672f, 0.119753f, 0.030211f, 0.050227f, -0.265109f, 0.157918f, 0.093392f, 
-0.119979f, -0.200208f, -0.033302f, -0.076066f, 0.191310f, 0.162504f, -0.195665f, -0.115431f, -0.012220f, -0.217176f, 
-0.051977f, -0.228171f, -0.229173f, 0.054324f, 0.010932f, 0.147601f, -0.151783f, -0.230165f, 0.028893f, -0.255441f, 
0.205806f, -0.079207f, 0.028016f, -0.136766f, 0.150762f, -0.001606f, -0.016864f, 0.024158f, -0.116535f, -0.010812f, 
0.003044f, 0.031036f, -0.056707f, 0.058447f, 0.128567f, 0.005944f, -0.160666f, -0.050097f, -0.091603f, 0.185387f, 
-0.175734f, -0.142454f, 0.025175f, -0.183578f, -0.208709f, 0.093124f, -0.064804f, 0.109780f, 0.169151f, 0.080956f, 
-0.362135f, -0.059748f, 0.258999f, -0.175932f, -0.118025f, -0.097372f, -0.148435f, 0.062979f, -0.114471f, -0.129552f, 
-0.158944f, 0.014003f, -0.221712f, 0.026760f, -0.246985f, 0.178238f, 0.036148f, 0.219026f, 0.013255f, -0.134442f, 
-0.064008f, 0.009535f, 0.176607f, 0.030075f, -0.112174f, 0.178586f, 0.233822f, 0.153550f, -0.127703f, 0.163146f, 
-0.208689f, -0.121591f, 0.137756f, -0.045789f, 0.264284f, -0.005925f, 0.254865f, -0.096864f, 0.074080f, -0.018387f, 
-0.114608f, -0.104747f, -0.127644f, 0.023314f, -0.080088f, -0.116687f, -0.356474f, -0.152843f, 0.157463f, 0.000519f, 
-0.441139f, -0.465241f, 0.077208f, -0.115126f, 0.027084f, -0.256421f, -0.142549f, 0.171046f, 0.169353f, -0.117514f, 
0.177396f, 0.112685f, -0.665993f, -0.116383f, -0.107264f, 0.079568f, -0.200312f, 0.309339f, -0.162668f, 0.158044f, 
-0.185254f, -0.115051f, 0.107173f, -0.010685f, 0.089624f, 0.281208f, 0.483108f, -0.063209f, 0.024157f, -0.346676f, 
0.278997f, -0.180573f, 0.061307f, 0.262667f, 0.066630f, 0.080129f, 0.045314f, -0.135736f, -0.598748f, -0.264681f, 
-0.348108f, -0.406849f, -0.036320f, 0.061836f, 0.052324f, 0.072987f, -0.239747f, -0.493310f, 0.192715f, 0.060234f, 
0.251949f, 0.007258f, 0.067792f, -0.252566f, -0.084464f, -0.050787f, -0.037081f, 0.021953f, -0.051369f, 0.090627f, 
0.080500f, -0.623740f, -0.614372f, 0.121679f, -0.076633f, 0.110758f, -1.076218f, -0.096161f, 0.062578f, -0.014169f, 
-0.041061f, 0.030504f, 0.222902f, -0.179028f, 0.220759f, -0.065152f, -0.139239f, -0.411144f, 0.263485f, 0.329043f, 
0.284811f, 0.116959f, -0.260142f, -0.035851f, -0.066984f, -0.060857f, 0.088131f, -0.005464f, -0.192393f, 0.234884f, 
-0.215592f, 0.080212f, -0.593395f, 0.022209f, 0.112753f, -0.073086f, 0.347872f, -0.324171f, 0.116873f, -0.134966f, 
0.178146f, -0.361110f, 0.250512f, 0.114123f, -0.067479f, -0.069779f, -0.369083f, -0.054877f, 0.116088f, -0.301032f, 
0.528557f, -0.133943f, -0.015412f, 0.063040f, -0.074992f, 0.039810f, 0.109214f, 0.193463f, -0.134116f, -0.174731f, 
0.025211f, 0.091578f, -0.118445f, -0.139822f, -0.233901f, -0.263881f, -0.030718f, 0.312915f, 0.085935f, -0.026195f, 
0.407101f, -0.022947f, 0.065939f, -0.154657f, -0.023166f, -0.103726f, 0.067083f, 0.222939f, -0.174548f, 0.287357f, 
0.045487f, -0.259293f, -0.105705f, -0.014868f, 0.039193f, -0.156831f, -0.271780f, 0.049713f, -0.275682f, -0.038545f, 
0.222312f, -0.100349f, 0.085656f, -0.039340f, 0.111704f, -0.213057f, 0.098731f, -0.096648f, 0.199133f, 0.061079f, 
-0.310487f, 0.088586f, -0.241026f, 0.179667f, -0.118999f, 0.157092f, 0.021864f, 0.218597f, 0.331650f, -0.323097f, 
-0.149105f, 0.099406f, -0.184990f, -0.165875f, -0.103288f, -0.282488f, 0.001061f, -0.050658f, -0.086802f, 0.080210f, 
-0.081094f, -0.025332f, 0.077800f, -0.246350f, -0.027005f, 0.169551f, -0.156525f, -0.059965f, -0.015501f, 0.165510f, 
-0.086712f, -0.002925f, 0.472576f, -0.124080f, -0.003273f, 0.216524f, 0.306628f, 0.313019f, 0.181664f, -0.208302f, 
0.450356f, 0.354983f, -0.032667f, 0.311783f, 0.208980f, 0.113180f, 0.189634f, -0.048619f, 0.416872f, 0.260513f, 
-0.602664f, 0.202505f, 0.593528f, -0.384636f, 0.203737f, -0.205441f, 0.239771f, -0.372458f, -0.126720f, 0.104696f, 
-0.055825f, 0.271616f, 0.190649f, -0.174509f, 0.150350f, -0.272252f, -0.135370f, -0.304818f, -0.108957f, 0.245315f, 
-0.190778f, 0.000713f, -0.336146f, -0.366511f, -0.089375f, 0.048601f, -0.084223f, -0.363987f, 0.728459f, 0.026539f, 
0.096579f, -0.362442f, 0.199152f, -0.022246f, -0.221753f, -0.250838f, 0.019972f, 0.386151f, 0.062991f, -0.207995f, 
-0.226758f, 0.154598f, -0.258634f, -0.094230f, -0.127408f, -0.084932f, 0.012075f, -0.189992f, -0.246717f, 0.085088f, 
0.224584f, 0.182162f, 0.108209f, -0.454487f, 0.587355f, 0.045415f, 0.196993f, -0.112265f, -0.073089f, 0.493061f, 
0.041666f, -0.128959f, -0.453135f, 0.463944f, 0.228472f, 0.013648f, -0.017088f, 0.056224f, -0.130602f, -0.004835f, 
-0.107755f, -0.112181f, 0.127403f, 0.092511f, 0.325480f, -0.050139f, -0.085303f, 0.110346f, 0.266262f, -0.030591f, 
-0.300516f, 0.019356f, 0.014879f, 0.089289f, 0.329330f, -0.219259f, -0.247862f, -0.074252f, 0.078191f, 0.245564f, 
-0.328967f, -0.467017f, -0.105030f, -0.247602f, 0.039978f, -0.303464f, 0.154605f, 0.544418f, 0.263108f, -0.251655f, 
0.193214f, 0.504051f, -0.366017f, 0.398800f, -0.109037f, -0.257680f, -0.221512f, 0.232057f, -0.011136f, 0.269202f, 
0.076194f, -0.053364f, -0.323639f, -0.380506f, -0.113917f, 0.164551f, 0.196659f, 0.482617f, -0.119236f, 0.174986f, 
0.060583f, -0.232721f, 0.138227f, 0.035812f, 0.025660f, -0.212233f, -0.260627f, 0.438717f, -0.366884f, 0.074147f, 
-0.074833f, -0.400586f, 0.021937f, 0.223071f, 0.453441f, 0.068152f, -0.034478f, 0.070936f, -0.026328f, 0.363036f, 
0.189694f, 0.010835f, 0.062653f, -0.344671f, -0.119174f, -0.354070f, 0.148729f, -0.156099f, 0.033849f, -0.087291f, 
0.059252f, -0.129228f, -0.400639f, 0.098946f, -0.011109f, 0.128495f, -0.270075f, 0.122758f, -0.118005f, -0.295688f, 
0.162898f, 0.129564f, -0.020874f, 0.033311f, 0.108539f, -0.100817f, -0.208659f, -0.462475f, 0.252402f, 0.133760f, 
0.091167f, -0.126356f, 0.465815f, 0.094610f, -0.167353f, -0.453569f, -0.111094f, -0.092476f, -0.214718f, 0.127647f, 
0.067121f, -0.009516f, 0.209194f, 0.031768f, 0.308156f, -0.137487f, 0.054857f, -0.223292f, -0.237404f, -0.073805f, 
-0.038708f, -0.393395f, 0.036273f, 0.142685f, -0.055974f, -0.258735f, 0.099885f, 0.245245f, 0.148918f, -0.165053f, 
0.120827f, 0.134031f, 0.115397f, 0.175131f, 0.079359f, -0.122269f, -0.059541f, -0.025102f, -0.091790f, 0.086511f, 
-0.073894f, 0.147332f, 0.086979f, 0.205807f, -0.093493f, 0.064687f, 0.075692f, 0.393518f, -0.062756f, -0.260261f, 
0.066811f, 0.158621f, 0.181405f, -0.102059f, 0.441397f, 0.030284f, 0.059144f, 0.391980f, -0.230424f, -0.080102f, 
-0.065713f, 0.247733f, -0.059264f, -0.233553f, -0.004944f, -0.051981f, 0.037882f, 0.025612f, 0.026759f, -0.104718f, 
0.442132f, -0.178628f, -0.064777f, 0.124261f, 0.049866f, -0.378890f, -0.004802f, 0.075977f, 0.364434f, 0.128894f, 
-0.202307f, 0.008086f, 0.242378f, 0.074323f, -0.075834f, -0.301313f, 0.289242f, 0.092523f, 0.394868f, 0.157431f, 
0.289562f, -0.160404f, -0.056472f, -0.130519f, -0.244463f, 0.065503f, -0.112024f, 0.094046f, -0.074120f, -0.066684f, 
0.354696f, 0.010695f, 0.194029f, -0.298927f, -0.048573f, 0.268893f, -0.088528f, 0.041765f, 0.139751f, 0.054937f, 
0.260380f, -0.096644f, 0.028910f, 0.081616f, -0.325489f, 0.283469f, -0.046122f, 0.310604f, 0.168476f, -0.051155f, 
-0.078047f, 0.455601f, -0.325038f, -0.322744f, 0.243870f, 0.038400f, 0.050957f, -0.111566f, 0.008466f, -0.250899f, 
-0.534898f, -0.854887f, -0.160369f, -0.369602f, 0.247394f, 0.049751f, -0.036152f, 0.086980f, 0.133079f, 0.060407f, 
0.234337f, 0.076532f, 0.303289f, -0.156747f, 0.121277f, -0.029790f, 0.119272f, -0.747517f, 0.357098f, 0.316122f, 
0.006576f, 0.121089f, 0.007944f, -0.202176f, 0.073533f, 0.129862f, 0.121192f, -0.395790f, 0.078607f, -0.204662f, 
-0.701994f, 0.236665f, -0.046282f, 0.012006f, -0.582379f, -0.099369f, -0.480816f, -0.500292f, 0.093462f, -0.018482f, 
0.033747f, -0.074178f, -0.056277f, -0.126520f, 0.133142f, 0.319981f, -0.071473f, 0.157280f, 0.042318f, -0.546030f, 
0.617532f, -0.269165f, -0.005186f, -0.125527f, 0.384917f, 0.000168f, -0.560476f, -0.123401f, -0.222026f, 0.284436f, 
-0.363678f, 0.109156f, -0.136667f, -0.080208f, 0.024587f, -0.234746f, -0.138498f, 0.166220f, -0.090182f, -0.059309f, 
