#ifndef WEIGHTS_DATA_H
#define WEIGHTS_DATA_H

const float w1[] = {
    -0.05563378f,    -0.35045835f,    -0.27977106f,    -0.25920120f,    -0.54997730f,    -0.09112263f,    0.03862452f,    0.33916840f,    0.20137529f,    -0.39130530f,
    0.04422377f,    -0.42129901f,    0.18065798f,    0.12884779f,    0.08210908f,    -0.15187676f,    0.10249926f,    0.20527561f,    -0.05652735f,    0.16362555f,
    0.14606245f,    -0.03118780f,    0.13670044f,    0.03531264f,    -0.02447213f,    -0.20348805f,    0.00045843f,    0.23393875f,    -0.42711359f,    -0.01651540f,
    -0.07854377f,    0.00106886f,    0.32880917f,    -0.09913482f,    0.43776354f,    -0.10910947f,    0.56040782f,    -0.25646955f,    -0.15479335f,    -0.19070330f,
    0.05892502f,    -0.12374680f,    -0.09343341f,    -0.04357299f,    0.17734776f,    -0.06038496f,    -0.06110865f,    -0.09918845f,    0.12123691f,    0.10568266f,
    -0.14496309f,    0.13539310f,    0.18903828f,    0.14624111f,    0.01167628f,    0.09400889f,    0.32642570f,    0.40148568f,    -0.05016824f,    0.24090068f,
    0.66007155f,    -0.28083834f,    -0.16272664f,    -0.45595351f,    -0.20283771f,    0.15787424f,    -0.10998405f,    -0.07940553f,    -0.16991137f,    -0.17494307f,
    0.13534512f,    -0.19546556f,    0.17116456f,    0.00270313f,    0.21177010f,    0.04967947f,    0.14737548f,    -0.01479451f,    -0.07393799f,    -0.17155451f,
    -0.16128208f,    0.12192621f,    -0.45921242f,    -0.27856290f,    0.43755987f,    -0.04693201f,    0.25669399f,    -0.07433011f,    0.07980295f,    -0.26506603f,
    0.60577190f,    -0.15546055f,    -0.05783734f,    0.14835016f,    -0.11730422f,    0.02733915f,    -0.04938489f,    0.14731722f,    -0.14832684f,    0.02493513f,
    -0.14475705f,    0.00726950f,    0.11723049f,    -0.04114415f,    0.04467940f,    0.33099052f,    -0.03829918f,    -0.21316680f,    -0.45733610f,    0.03557068f,
    0.39553845f,    0.30914360f,    0.13781445f,    0.24050404f,    0.07936122f,    0.25474524f,    -0.02360855f,    -0.19037090f,    -0.13834475f,    0.07921486f,
    -0.07723027f,    0.02897078f,    0.03091986f,    -0.09439628f,    -0.20231542f,    -0.19836073f,    -0.04133192f,    -0.12762684f,    0.16942184f,    -0.11477013f,
    -0.03598687f,    0.22095947f,    0.06530825f,    0.03930414f,    -0.22510786f,    -0.45694765f,    0.06845178f,    -0.15559746f,    0.13453569f,    0.55032277f,
    0.52694076f,    0.50764573f,    -0.51774305f,    -0.15407595f,    -0.16103199f,    0.09800212f,    0.12953986f,    -0.15818179f,    -0.08552185f,    -0.10067169f,
    -0.05923063f,    0.10074507f,    0.05302118f,    0.18357567f,    0.21718048f,    0.05647157f,    -0.04077323f,    0.01947980f,    -0.36111805f,    0.37565106f,
    -0.32768083f,    -0.16759518f,    -0.02759525f,    -0.43611819f,    -0.41158488f,    0.29866847f,    0.38331655f,    -0.31870979f,    -0.01310894f,    -0.06124163f,
    -0.13005067f,    0.05911709f,    -0.05910805f,    0.04179330f,    -0.20275889f,    -0.18408972f,    -0.19496882f,    -0.19213276f,    0.09221469f,    -0.18467352f,
    -0.06375548f,    0.05438887f,    -0.13247140f,    -0.18911274f,    -0.17834708f,    0.31720662f,    0.60476738f,    -0.13819480f,    -0.19704692f,    -0.36244491f,
    -0.27960697f,    0.33587304f,    -0.01268492f,    -0.19987546f,    -0.23780155f,    -0.17380685f,    0.12883793f,    0.08463477f,    0.21665703f,    0.08432604f,
    0.04025505f,    0.10017587f,    0.20369659f,    0.13604780f,    0.09167652f,    -0.19045056f,    -0.08448510f,    -0.12657900f,    0.19564855f,    0.12232971f,
    0.11180581f,    0.18991889f,    0.43567976f,    0.02112858f,    -0.40858960f,    -0.18099114f,    0.31701469f,    -0.31254864f,    -0.14813195f,    0.03359927f,
    0.30206090f,    -0.00275047f,    -0.15524635f,    0.00328889f,    -0.14204174f,    -0.16146688f,    -0.00106665f,    0.06712826f,    0.17909203f,    0.15323614f,
    -0.11480967f,    -0.13296410f,    0.13459994f,    -0.19788437f,    0.08248042f,    -0.01686037f,    0.00252491f,    -0.02860699f,    0.24463080f,    0.11023875f,
    0.25488654f,    0.30484334f,    -0.43755201f,    -0.42276126f,    0.09078224f,    -0.01344404f,    -0.40195855f,    0.12674399f,    0.03498293f,    0.03323545f,
    0.09406595f,    0.17172076f,    -0.10351363f,    0.10945223f,    -0.10133150f,    -0.21322697f,    0.00272997f,    -0.17550455f,    -0.19716269f,    0.13098638f,
    0.05654027f,    -0.01314062f,    0.28800344f,    0.18281040f,    0.29078612f,    -0.19553320f,    -0.30914545f,    0.38855508f,    -0.05983878f,    -0.43072510f,
    -0.54008693f,    0.17534037f,    0.37072921f,    0.21698402f,    0.00191565f,    -0.00888391f,    0.08012761f,    0.13287450f,    -0.16045251f,    0.19789122f,
    -0.20639274f,    0.02111794f,    -0.17600428f,    -0.21548043f,    -0.07255037f,    0.19008143f,    -0.12350848f,    -0.04779863f,    -0.10338289f,    0.50004786f,
    -0.19220114f,    -0.09707787f,    0.25535920f,    -0.16109957f,    0.00840488f,    -0.11289676f,    0.15635972f,    0.34287575f,    -0.20987076f,    0.01707231f,
    0.08940868f,    -0.17923121f,    -0.05914998f,    -0.07499883f,    0.20712049f,    0.15690450f,    -0.01809995f,    -0.06748688f,    -0.05625269f,    0.01521473f,
    -0.11178606f,    -0.20907417f,    -0.15897305f,    -0.06510114f,    -0.22710781f,    -0.03807946f,    0.13353203f,    -0.27806190f,    0.03406272f,    -0.14741965f,
    0.01857835f,    0.21443295f,    -0.00376164f,    -0.17029813f,    0.14680657f,    -0.20473874f,    -0.09704311f,    -0.05409612f,    0.08096458f,    0.03215514f,
    -0.18096371f,    0.15710534f,    -0.08467385f,    0.11979158f,    0.14144899f,    0.06971253f,    0.13878559f,    0.09277947f,    0.09366083f,    -0.24378322f,
    -0.28663799f,    -0.04514382f,    0.07863197f,    0.27638346f,    0.10941809f,    -0.00897809f,    -0.01349527f,    0.05769840f,    0.10710197f,    -0.46006054f,
    -0.01716122f,    0.02257091f,    0.07358359f,    0.07827373f,    0.01921962f,    0.15267445f,    0.11893128f,    0.13877194f,    -0.03606984f,    -0.17038700f,
    0.17507876f,    0.10366650f,    -0.03879200f,    -0.02133515f,    0.23691277f,    0.19013870f,    0.29108751f,    0.24102019f,    -0.22027479f,    -0.06952403f,
    0.14021890f,    0.43840009f,    0.27096492f,    -0.03974156f,    -0.09929576f,    -0.30848768f,    0.02301530f,    -0.09685639f,    0.03256680f,    -0.19043735f,
    -0.07997908f,    -0.03221712f,    0.19781817f,    0.12070210f,    0.12329204f,    0.11154576f,    0.10948972f,    0.06964256f,    0.06569214f,    -0.11971422f,
    -0.03568191f,    0.18214969f,    -0.10134782f,    0.25018966f,    -0.37034130f,    0.00606056f,    0.01943886f,    -0.46591857f,    0.02906141f,    0.12343679f,
    0.05323893f,    0.09254666f,    0.38480833f,    0.05652426f,    -0.12192028f,    0.10202383f,    0.02217290f,    -0.02550566f,    0.06046446f,    -0.14372775f,
    0.21045576f,    0.14909898f,    0.16696377f,    0.17070468f,    -0.12893522f,    -0.12456295f,    -0.07617728f,    0.33807915f,    0.00266202f,    0.22096038f,
    -0.41043213f,    0.25801790f,    -0.35141554f,    0.34017172f,    0.14120041f,    0.24735945f,    0.22920743f,    0.24971156f,    -0.36562470f,    0.16779314f,
    0.09867416f,    -0.14491999f,    0.03017780f,    0.20519467f,    -0.05882144f,    -0.16325611f,    -0.07910028f,    0.00831494f,    0.18990500f,    0.13495861f,
    -0.16620526f,    -0.16779511f,    0.03395474f,    -0.20736530f,    -0.28194100f,    0.14330119f,    0.16927016f,    -0.38774872f,    0.12504739f,    0.15116373f,
    -0.35255811f,    0.04830471f,    0.17232993f,    -0.18625477f,    -0.14295737f,    0.06988107f,    0.04502185f,    -0.07314952f,    -0.06211741f,    -0.07860135f,
    0.06584625f,    0.12679522f,    -0.21499190f,    0.11741062f,    -0.12984298f,    -0.15399104f,    -0.20386098f,    -0.17911966f,    0.19798288f,    0.06053639f,
    0.10704042f,    0.38216352f,    -0.29493019f,    0.15844345f,    -0.31017011f,    0.37053531f,    -0.42336062f,    0.14467239f,    0.27749586f,    0.13961318f,
    0.14120561f,    0.04628558f,    0.00449869f,    -0.21006653f,    -0.07964033f,    0.18813260f,    -0.19087744f,    -0.17496540f,    -0.21036839f,    0.06496023f,
    0.02707657f,    -0.09487160f,    -0.13377723f,    -0.16886681f,    -0.01130440f,    0.24143963f,    -0.01069422f,    -0.26549858f,    -0.31027791f,    0.07877420f,
    -0.14118157f,    -0.36540708f,    0.16670440f,    0.19936953f,    -0.19409509f,    -0.11213847f,    -0.14682867f,    0.20351402f,    -0.10034653f,    -0.08943991f,
    -0.09493133f,    0.19096272f,    0.01924919f,    0.02447495f,    0.18845661f,    -0.15484908f,    0.07679950f,    -0.03752139f,    0.21050538f,    0.07781105f,
    0.17260794f,    0.23942749f,    0.06184062f,    -0.01555200f,    0.29531625f,    0.16437967f,    -0.02644208f,    -0.43939900f,    -0.29424974f,    0.29735693f,
    -0.33243424f,    -0.02064766f,    0.13338387f,    -0.14236952f,    -0.10625625f,    0.05810849f,    -0.03015456f,    0.04158337f,    0.17417984f,    -0.19048761f,
    -0.17498517f,    0.06895702f,    -0.06746294f,    0.10249685f,    0.02080891f,    0.03097065f,    -0.10503656f,    -0.10677017f,    0.30047747f,    -0.17301826f,
    -0.50122118f,    0.03451011f,    -0.38301823f,    0.14076282f,    -0.35915774f,    0.04513906f,    -0.49188915f,    -0.35476324f,    0.14983466f,    0.13587810f,
    -0.05913630f,    0.03738742f,    -0.02854894f,    -0.17423010f,    0.03435029f,    0.16163187f,    -0.11011266f,    -0.01985863f,    0.16827752f,    0.04652767f,
    -0.12425251f,    0.04499696f,    -0.04139094f,    -0.29924849f,    0.11873993f,    -0.22082585f,    -0.15875213f,    -0.31651756f,    -0.06048341f,    0.25804693f,
    0.59073812f,    0.01458992f,    -0.25275099f,    0.22095539f,    -0.03076934f,    -0.08506209f,    0.03907929f,    -0.14991242f,    0.20681734f,    0.11951835f,
    0.07713385f,    -0.05592576f,    -0.16431314f,    0.16517980f,    0.16680904f,    0.06646682f,    0.06166463f,    0.14197855f,    0.15086776f,    0.07191331f,
    -0.05034594f,    0.05732409f,    -0.29025906f,    -0.16821539f,    0.47950932f,    -0.07198240f,    0.25952026f,    0.23390052f,    0.04194655f,    -0.06759806f,
    -0.39353034f,    0.15346645f,    0.02762946f,    -0.09845461f,    -0.07408787f,    0.13530953f,    -0.14707834f,    -0.14631589f,    0.17483689f,    -0.12754703f,
    0.10768880f,    -0.04623501f,    0.03543089f,    -0.17433414f,    0.05181694f,    -0.23377083f,    -0.25977099f,    0.17930207f,    -0.24284588f,    -0.16295274f,
    -0.18520226f,    -0.02905279f,    0.08552952f,    0.25531700f,    -0.25715372f,    -0.02155800f,    -0.24692786f,    0.09802763f,    0.10368298f,    -0.06704043f,
    -0.14476568f,    0.19843055f,    -0.04654109f,    -0.15263689f,    -0.07751252f,    0.04755296f,    0.06616215f,    -0.07482578f,    0.05850260f,    0.10921945f,
    0.22598794f,    0.35683787f,    0.28119659f,    -0.17779167f,    0.29167444f,    0.23260561f,    0.37884113f,    0.23717465f,    -0.34899446f,    -0.22277449f,
    0.37332556f,    0.05421022f,    0.01880402f,    0.07150201f,    0.10044162f,    0.16019700f,    0.17993431f,    0.11700229f,    0.19309358f,    0.12452491f,
    -0.10882805f,    0.07189123f,    -0.21667409f,    -0.19060461f,    -0.03844962f,    0.12746425f,    -0.11885637f,    0.36911783f,    0.95483905f,    0.12488462f,
    0.34657416f,    0.17819290f,    -0.44918302f,    0.68626618f,    0.05133548f,    -0.27697390f,    0.21334791f,    -0.30936787f,    -0.01447409f,    0.05528815f,
    -0.13794231f,    -0.09763029f,    -0.15797441f,    -0.00352167f,    0.19333483f,    0.18297346f,    0.12388487f,    -0.09355240f,    0.10131235f,    -0.14675827f,
    0.17278542f,    0.14908455f,    -0.05046931f,    -0.02666984f,    0.35040903f,    -0.27717474f,    0.69877768f,    -0.68630171f,    0.23656607f,    -0.09193307f,
    0.01989764f,    0.11163166f,    0.05854081f,    0.01658711f,    -0.33162621f,    0.02007589f,    0.00397488f,    0.12272333f,    0.15328778f,    0.02024764f,
    0.06426089f,    0.18322147f,    -0.16794506f,    -0.17316692f,    0.20955177f,    0.08344795f,    -0.07048842f,    -0.11878455f,    0.15988046f,    -0.18266802f,
    -0.15313546f,    -0.09297001f,    0.02825867f,    -0.02930705f,    -0.03973115f,    -0.04012056f,    0.06403995f,    0.08367877f,    0.57631671f,    -0.06286085f,
    -0.02204932f,    -0.16545722f,    0.19570230f,    0.09122710f,    -0.13524611f,    0.07970373f,    -0.14138824f,    -0.18543503f,    -0.11080436f,    0.20183556f,
    -0.12514278f,    0.08500271f,    0.13644888f,    0.02617504f,    -0.07427993f,    -0.14199066f,    -0.33120376f,    0.12247699f,    -0.01142905f,    0.26876986f,
    -0.31325755f,    -0.10137451f,    0.00014272f,    -0.34835097f,    0.38769677f,    -0.08707271f,    0.39460632f,    0.00260901f,    0.19937079f,    0.16695164f,
    -0.17037180f,    0.14017169f,    -0.18160132f,    0.14282502f,    -0.15817642f,    -0.02958339f,    0.02554937f,    0.05167590f,    0.16626321f,    0.18274169f,
    -0.14365900f,    -0.00933725f,    -0.35363856f,    0.27911809f,    -0.34977704f,    0.28733593f,    0.33082262f,    -0.09644932f,    -0.11081260f,    0.04486389f,
    0.18809181f,    -0.40672186f,    0.03623935f,    -0.00420348f,    0.04098202f,    -0.04873601f,    0.01689552f,    0.17098777f,    0.19248052f,    0.08697496f,
    0.00521225f,    0.06757031f,    0.12900279f,    0.02123772f,    -0.18187949f,    0.19728787f,    -0.04192843f,    -0.06959150f,    0.00926868f,    -0.17196684f,
    -0.11986138f,    0.09098521f,    -0.53392828f,    0.35290670f,    -0.31403974f,    0.51186275f,    -0.33200574f,    0.28426415f,    -0.18700802f,    -0.19190347f,
    -0.13636762f,    -0.03126206f,    -0.16773981f,    0.00068894f,    0.01177943f,    0.16022490f,    -0.17874381f,    0.14830707f,    -0.07870300f,    0.07706846f,
    0.05166827f,    0.06887735f,    -0.13170147f,    -0.06002307f,    0.28706020f,    -0.32566398f,    0.50235438f,    -0.07439435f,    0.47265574f,    0.04060187f,
    -0.12616819f,    0.21864286f,    -0.14357454f,    0.09549369f,    0.05975202f,    -0.18625061f,    0.02379319f,    0.13630418f,    -0.20219976f,    -0.09126611f,
    0.18179886f,    0.04625161f,    0.01288682f,    0.03350462f,    0.04474662f,    -0.20927952f,    -0.04482082f,    -0.15327016f,    0.00160902f,    0.23830123f,
    0.05342557f,    0.15339176f,    0.24044524f,    -0.02737843f,    -0.55437165f,    0.16989711f,    -0.22404544f,    0.09334436f,    -0.23423943f,    0.38153782f,
    0.52293855f,    -0.20198749f,    -0.09315532f,    0.03587888f,    0.04460125f,    -0.01995899f,    0.04689394f,    0.15757675f,    0.18477111f,    -0.01243955f,
    -0.17747274f,    0.11258598f,    -0.00400406f,    -0.15762338f,    -0.06580741f,    0.25169098f,    0.18588269f,    -0.00699080f,    -0.41641077f,    0.36619085f,
    -0.19179657f,    -0.16601385f,    0.05440339f,    0.28554833f,    -0.08116019f,    0.23078175f,    0.77221709f,    -0.07314192f,    0.12774526f,    -0.05196580f,
    -0.14170951f,    0.08558531f,    0.02467145f,    -0.13773026f,    0.11025889f,    -0.02679032f,    -0.19865113f,    0.13946392f,    0.17400061f,    -0.04538302f,
    0.04532052f,    -0.26103601f,    -0.04458869f,    -0.20966987f,    0.36011523f,    0.38092172f,    0.05229349f,    -0.48019153f,    -0.33337516f,    -0.00356087f,
    -0.20986475f,    0.26476541f,    -0.03852930f,    -0.06289443f,    -0.08395743f,    -0.20145431f,    0.17810450f,    0.05317925f,    -0.21421695f,    0.10743366f,
    0.08581741f,    -0.20495445f,    -0.10747914f,    -0.09967683f,    -0.00890753f,    -0.20631616f,    0.16460684f,    0.24523416f,    -0.12208690f,    -0.06563041f,
    0.41685447f,    -0.26706642f,    0.52113336f,    0.13769342f,    0.05534221f,    -0.44688156f,    0.33700186f,    -0.18458283f,    -0.17557596f,    0.10235201f,
    -0.15767691f,    -0.18235800f,    -0.01802056f,    -0.06756726f,    -0.16965191f,    -0.19602211f,    0.12035318f,    0.07683061f,    -0.21437137f,    -0.18587227f,
    -0.17652033f,    0.16656728f,    0.09660894f,    0.18802032f,    -0.22063164f,    -0.15037185f,    0.35369012f,    0.19887474f,    -0.12366509f,    0.03518411f,
    0.05487613f,    -0.40230793f,    0.28635010f,    0.02996367f,    0.19259237f,    -0.18733710f,    -0.09161016f,    -0.14563470f,    -0.07430223f,    0.03447817f,
    0.17938255f,    -0.00454484f,    -0.21484050f,    -0.10765187f,    0.08178230f,    0.07396053f,    -0.20891163f,    -0.12750685f,    0.22256656f,    -0.19901261f,
    -0.02085797f,    -0.11564359f,    -0.06750616f,    0.66838622f,    -0.26587081f,    0.16676001f,    0.36544666f,    0.24510676f,    0.12515396f,    0.22599825f,
    0.39806497f,    0.14798351f,    -0.08664766f,    -0.10140772f,    -0.05865692f,    0.03252713f,    -0.16846788f,    -0.05455256f,    -0.03277552f,    -0.14083639f,
    -0.21430695f,    -0.03845434f,    0.07744201f,    0.05803879f,    0.06224312f,    -0.04173997f,    -0.28966510f,    -0.08633081f,    -0.10238048f,    0.44812340f,
    0.03476977f,    -0.10377944f,    0.35658875f,    -0.42121419f,    0.14424936f,    0.05821880f,    0.07207741f,    -0.10774667f,    -0.15536378f,    -0.01494299f,
    0.17985965f,    0.16866858f,    -0.13197255f,    -0.13091156f,    0.07419936f,    0.04434253f,    -0.14877693f,    0.20062880f,    0.14399780f,    0.01321502f,
    -0.05616929f,    0.22434139f,    -0.02442882f,    0.07285920f,    -0.32344982f,    0.22134328f,    0.34657153f,    0.44598550f,    -0.15017210f,    -0.54815871f,
    -0.14563973f,    -0.11249146f,    -0.12532455f,    0.21573375f,    0.12273325f,    -0.06680615f,    -0.13380168f,    -0.12854183f,    -0.08302630f,    -0.16886234f,
    -0.01037969f,    0.07781313f,    -0.18978305f,    -0.11457675f,    -0.10287156f,    0.11100347f,    -0.06800256f,    0.11901275f,    -0.16597523f,    0.22518727f,
    -0.22011001f,    -0.24192162f,    -0.19177803f,    -0.32302186f,    -0.10662733f,    0.67499763f,    -0.44096392f,    0.01891309f,    0.00874620f,    -0.20051122f,
    -0.02471052f,    0.04447044f,    0.18185271f,    0.16670273f,    0.08891486f,    -0.07112482f,    0.05443747f,    -0.01036131f,    0.16746370f,    0.02197483f,
    -0.03212924f,    0.02742130f,    0.19070539f,    0.15221284f,    -0.08180185f,    0.10673040f,    -0.10899273f,    0.42426485f,    -0.18834274f,    -0.18779482f,
    -0.05123410f,    0.25951445f,    -0.26607975f,    -0.13448615f,    0.60408300f,    0.07653852f,    -0.01510864f,    0.20108746f,    -0.01324545f,    0.15988509f,
    0.00168256f,    0.00997107f,    -0.02500901f,    -0.01902629f,    -0.05828102f,    -0.10781155f,    -0.13718048f,    -0.05423383f,    -0.05880546f,    -0.01213305f,
    0.78061754f,    0.07977432f,    -0.49515572f,    -0.02191811f,    -0.45965993f,    0.07314363f,    0.21358529f,    0.40353900f,    -0.23179935f,    -0.08571939f,
    -0.23406991f,    -0.15431657f,    0.13391660f,    0.21740814f,    0.14495896f,    0.08507352f,    -0.17179361f,    -0.16190282f,    0.06099413f,    0.06166504f,
    0.04182254f,    0.09983639f,    -0.03409363f,    0.17878763f,    -0.08478386f,    -0.14800315f,    0.02988783f,    0.10639396f,    -0.03936327f,    -0.18669386f,
    -0.06650787f,    -0.31793103f,    -0.11608925f,    0.28693038f,    0.12374382f,    -0.28902915f,    -0.04178273f,    0.20550542f,    0.04336067f,    0.02046542f,
    0.17608847f,    -0.04353772f,    -0.15692824f,    -0.21089439f,    -0.17983025f,    0.14381976f,    0.19293381f,    0.19308423f,    0.17334543f,    0.15318634f,
    -0.11417165f,    0.35434112f,    -0.25884408f,    0.24019709f,    -0.04554822f,    0.01314109f,    -0.37439540f,    -0.19927205f,    0.20278631f,    -0.03303428f,
    -0.09823614f,    -0.35065937f,    0.05774783f,    -0.09082481f,    0.11337440f,    0.08943979f,    0.02298135f,    -0.18036442f,    0.08917458f,    0.09988461f,
    -0.21291575f,    -0.00975291f,    0.07220049f,    -0.18759562f,    0.05713935f,    -0.12648509f,    0.05755218f,    0.15663426f,    -0.19187453f,    0.20054427f,
    -0.49324998f,    0.09637794f,    -0.19672394f,    -0.02830032f,    0.32070684f,    -0.48543674f,    -0.57315969f,    -0.27616486f,    0.13689232f,    0.05693351f,
    0.17177971f,    -0.20764799f,    -0.10892810f,    0.00174837f,    0.14901723f,    0.15394656f,    -0.07814917f,    0.00700614f,    0.18872122f,    0.16227587f,
    0.16310970f,    -0.15997022f,    0.01336882f,    0.06632105f,    -0.28155258f,    -0.05443665f,    0.53271031f,    -0.30881131f,    0.13875748f,    0.08315963f,
    -0.30501395f,    0.07918718f,    -0.06013326f,    0.41880354f,    -0.66457748f,    0.17530654f,    0.03802283f,    0.10838322f,    0.17098366f,    0.01474367f,
    0.03007402f,    0.15375860f,    0.13019578f,    0.14844681f,    0.16218872f,    -0.10478127f,    -0.02063721f,    0.17778783f,    0.15191294f,    0.16126883f,
    -0.25119567f,    0.22943926f,    0.11165663f,    0.00479901f,    -0.38875967f,    -0.03999532f,    -0.05042400f,    0.37368676f,    -0.07467113f,    0.02269416f,
    0.57522380f,    0.07650460f,    0.01937738f,    0.08360891f,    0.02698235f,    -0.00594249f,    -0.04832385f,    -0.17147551f,    -0.07688351f,    0.00018933f,
    -0.16849045f,    -0.10302119f,    0.00404491f,    -0.13875118f,    0.07279725f,    -0.14332411f,    0.11072335f,    -0.10759380f,    -0.20321938f,    0.25561917f,
    -0.00771156f,    0.14907669f,    -0.36252129f,    0.06139392f,    -0.26741955f,    -0.23045753f,    -0.43331137f,    0.03011777f,    -0.00871226f,    0.00270557f,
    -0.06236000f,    0.07585846f,    -0.03736526f,    0.12231199f,    -0.20746709f,    0.03002697f,    0.09588338f,    0.10856421f,    -0.02332552f,    0.20805599f,
    0.15102185f,    -0.06638573f,    0.00716395f,    0.34911415f,    0.06487001f,    -0.12996319f,    -0.29766089f,    -0.11529050f,    -0.22664332f,    0.33912277f,
    0.11854813f,    -0.27221149f,    -0.35536113f,    -0.14864707f,    0.18440337f,    0.15682529f,    -0.07820645f,    -0.14002091f,    0.21794949f,    0.05063273f,
    0.21030076f,    0.00643098f,    0.03324668f,    0.09503455f,    0.02109672f,    -0.04735984f,    0.20250787f,    0.02593022f,    0.08590421f,    0.31849229f,
    -0.24840537f,    -0.33017996f,    0.25518689f,    0.40026563f,    0.19189864f,    0.01745020f,    0.05274453f,    -0.54647082f,    -0.15549646f,    0.02880824f,
    0.18960242f,    0.10227819f,    0.19330566f,    0.09513406f,    -0.18322617f,    0.05688347f,    -0.03298676f,    0.19020529f,    -0.17986494f,    -0.06557919f,
    -0.13272956f,    -0.15293682f,    -0.10036922f,    -0.06253145f,    -0.20784396f,    0.38655141f,    0.35953298f,    -0.28071365f,    0.04073779f,    -0.25039759f,
    0.15885870f,    0.20049399f,    0.28202915f,    -0.13395388f,    0.37752104f,    0.06044953f,    -0.16948427f,    0.08610477f,    0.21317084f,    -0.11426994f,
    0.15779679f,    -0.11727108f,    0.17169394f,    -0.08834344f,    0.21569391f,    -0.08110967f,    -0.18598253f,    -0.12351003f,    0.15852398f,    -0.01680334f,
    0.38502663f,    -0.19692045f,    -0.17514302f,    -0.07456358f,    0.11417010f,    0.04148578f,    -0.15720980f,    -0.07239785f,    0.03729153f,    0.09959086f,
    0.24383073f,    -0.00282606f,    0.17564030f,    0.01623853f,    -0.05110367f,    -0.12925175f,    -0.13525844f,    -0.00913161f,    0.14748593f,    0.15066962f,
    0.21497108f,    0.14025332f,    0.21195818f,    -0.12664342f,    -0.19491591f,    -0.01124450f,    -0.01518874f,    0.04225637f,    -0.37444952f,    0.90574229f,
    0.07270222f,    0.33807921f,    0.17109713f,    0.42282614f,    0.07181504f,    0.04965125f,    0.22447477f,    0.11142530f,    0.15471239f,    -0.21220885f,
    -0.08560655f,    -0.01257138f,    -0.08141112f,    -0.03177910f,    -0.21088476f,    0.14546843f,    0.14907207f,    -0.06144938f,    0.11452930f,    -0.20668456f,
    -0.01649185f,    -0.14950339f,    0.07886583f,    -0.21766442f,    -0.20850790f,    -0.36101022f,    -0.23979576f,    0.12777564f,    0.28536943f,    0.19812614f,
    0.16557463f,    0.51466340f,    -0.16980042f,    -0.06981395f,    -0.05594344f,    0.05047606f,    -0.05724527f,    -0.15546669f,    0.02088408f,    -0.12693201f,
    -0.15626401f,    0.11998622f,    -0.07684100f,    -0.01092055f,    -0.14988828f,    0.15247799f,    0.07591211f,    -0.21001203f,    0.26757655f,    0.15520568f,
    0.00608148f,    0.33098805f,    -0.10124441f,    0.71536428f,    -0.08157872f,    0.36681920f,    -0.09806612f,    -0.34707752f,    0.15679681f,    0.06319161f,
    0.15117700f,    0.06977104f,    -0.13320945f,    -0.10473039f,    0.20998131f,    0.15141790f,    0.18917720f,    -0.03217471f,    0.02563640f,    -0.21131586f,
    -0.19873829f,    -0.11207460f,    0.07683355f,    0.08070542f,    -0.27942601f,    0.11761755f,    -0.24202800f,    0.11194967f,    0.06811951f,    0.37752241f,
    -0.20953326f,    0.38020220f,    -0.42061070f,    0.39025065f,    0.04549727f,    -0.20861585f,    -0.00271337f,    -0.12584853f,    -0.06880577f,    0.02275103f,
    0.04801013f,    0.20475985f,    -0.06761107f,    0.16880147f,    0.18601544f,    0.19429828f,    0.11683218f,    -0.18921122f,    -0.00179771f,    -0.02282614f,
    0.01687777f,    0.27896744f,    -0.34669420f,    0.06426720f,    -0.26559454f,    0.61160344f,    -0.56155223f,    0.04380480f,    -0.57230854f,    0.02583291f,
    -0.40681633f,    -0.12858315f,    -0.16775125f,    0.10638465f,    0.10412793f,    0.15938987f,    -0.17829207f,    0.16322280f,    0.14414401f,    -0.07696457f,
    -0.06322731f,    0.07674710f,    -0.16438618f,    -0.12266745f,    -0.06482938f,    0.28097689f,    0.32461727f,    -0.10480723f,    -0.14203276f,    -0.25021905f,
    0.22396117f,    -0.33304426f,    0.22563742f,    0.21181090f,    0.03368134f,    -0.38023993f,    0.04229541f,    -0.08049576f,    0.19262825f,    0.13533945f,
    0.12185134f,    0.03478990f,    -0.06694502f,    -0.17364651f,    -0.18512741f,    -0.10535305f,    0.08945276f,    -0.20404115f,    -0.09616021f,    -0.07571045f,
    -0.13697755f,    0.06407651f,    -0.02753455f,    -0.05936427f,    -0.04417915f,    -0.48576537f,    0.00239975f,    -0.22539650f,    0.29192454f,    0.68044645f,
    0.29680532f,    -0.48863748f,    -0.02434454f,    0.19470112f,    -0.01258725f,    -0.12461555f,    -0.16358429f,    0.12034412f,    0.16069271f,    0.13162060f,
    -0.09225781f,    0.03717624f,    -0.15191990f,    0.21431179f,    -0.17445943f,    0.03253983f,    0.09971661f,    -0.10595674f,    -0.00081924f,    -0.18653379f,
    -0.06970555f,    -0.21854468f,    0.04726011f,    -0.15586358f,    -0.22865203f,    0.21905091f,    -0.12510653f,    0.59894264f,    0.33492017f,    0.19391026f,
    -0.13423699f,    0.13657771f,    -0.14077947f,    0.15269129f,    -0.11916466f,    -0.06553252f,    -0.16404551f,    -0.10840902f,    -0.12142503f,    -0.13095102f,
    0.14924257f,    0.05076586f,    -0.07918869f,    0.16106747f,    -0.06454984f,    -0.05948940f,    -0.36447355f,    0.23570476f,    0.16128089f,    0.15561719f,
    0.09054550f,    -0.25420523f,    0.11479916f,    -0.27566218f,    0.49242377f,    0.04645462f,    -0.12389044f,    0.11532088f,    -0.08545338f,    0.11765040f,
    0.15669434f,    0.04248364f,    0.07985322f,    0.20203905f,    -0.10164008f,    0.20578147f,    -0.10511623f,    0.03404255f,    0.10281141f,    0.26614809f,
    0.25574178f,    0.16804524f,    -0.02575555f,    -0.26316354f,    0.07951296f,    0.13493457f,    0.01535059f,    0.35295945f,    -0.72368228f,    0.06996060f,
    -0.25143448f,    -0.00501838f,    0.19979219f,    0.16961269f,    -0.15402392f,    0.17216571f,    -0.03731178f,    -0.11492164f,    0.08940755f,    0.20959495f,
    -0.19625555f,    -0.14731470f,    0.19369285f,    -0.06170113f,    -0.18240465f,    -0.41352558f,    -0.09609225f,    0.29100361f,    0.37582141f,    -0.04002265f,
    0.26938662f,    0.56917608f,    0.22112828f,    0.10451064f,    -0.12556155f,    0.60129166f,    0.06288937f,    -0.11977926f,    -0.01411633f,    -0.00133039f,
    0.00969397f,    0.19722585f,    -0.14827472f,    -0.08032298f,    0.10492699f,    0.04437144f,    -0.01463796f,    -0.13564885f,    -0.20470956f,    -0.12495529f,
    0.15171851f,    0.11719150f,    0.03263973f,    0.31079164f,    0.10810751f,    -0.04191112f,    0.29894915f,    -0.31760415f,    -0.12351188f,    -0.07831270f,
    0.44102585f,    0.63584012f,    -0.07592095f,    0.04615666f,    0.09657533f,    -0.08432184f,    0.03956018f,    0.17113225f,    0.08091094f,    0.03958161f,
    0.05571733f,    0.05566894f,    -0.18640023f,    -0.14087166f,    0.03807236f,    -0.03278811f,    -0.14342844f,    0.02905520f,    -0.13075097f,    0.06759530f,
    -0.18928675f,    -0.33295143f,    -0.03480433f,    0.18873632f,    -0.00131832f,    -0.02584677f,    0.22707309f,    -0.05743219f,    -0.03728345f,    0.04780416f,
    0.00825693f,    -0.19265355f,    0.18075795f,    -0.14321637f,    0.15160154f,    -0.20340160f,    -0.00906938f,    0.01442985f,    0.15754209f,    -0.11287598f,
    -0.17205364f,    0.00392197f,    0.15337226f,    -0.31567842f,    0.13893808f,    0.22178040f,    -0.35531655f,    -0.23057000f,    -0.10922058f,    -0.20089392f,
    -0.08582681f,    0.01301783f,    -0.18244603f,    -0.10135919f,    0.37529805f,    0.14007147f,    -0.11596312f,    -0.05461508f,    0.16384785f,    -0.00930808f,
    0.06030308f,    -0.02628285f,    0.20295931f,    0.19328059f,    -0.09123506f,    0.12438439f,    -0.12588912f,    0.02206255f,    -0.03571299f,    -0.02976041f,
    -0.11416686f,    -0.25446022f,    0.27354485f,    0.23171383f,    -0.11343580f,    -0.12004805f,    -0.39947429f,    0.52488047f,    0.08363047f,    -0.24841076f,
    0.18153153f,    0.20125245f,    -0.03774963f,    0.00930788f,    0.01183535f,    0.03155002f,    -0.04271443f,    -0.06994246f,    -0.17454778f,    -0.03831616f,
    0.12634234f,    -0.08296846f,    0.05057190f,    0.19833727f,    -0.09956864f,    -0.21285419f,    -0.19844069f,    -0.05849992f,    0.24925534f,    -0.30373120f,
    0.42119300f,    0.11585720f,    0.34966949f,    0.35540926f,    0.11309277f,    0.44489738f,    0.13674964f,    0.04639374f,    -0.08829115f,    -0.13086879f,
    -0.15552236f,    -0.18654624f,    -0.19472402f,    -0.17742732f,    0.02675286f,    -0.05433330f,    0.14630438f,    -0.20342839f,    0.07917909f,    -0.08662540f,
    -0.02173627f,    -0.16373678f,    -0.13559797f,    -0.31599790f,    0.08440506f,    -0.02237052f,    0.30636254f,    0.42340872f,    0.19986631f,    0.02135918f,
    -0.12007129f,    -0.25037318f,    -0.21781698f,    0.12370096f,    -0.13026409f,    -0.02219839f,    -0.13068047f,    0.06154855f,    -0.02805120f,    0.08537294f,
    -0.19202313f,    0.20194338f,    -0.12742002f,    -0.13316768f,    0.19792600f,    0.09137361f,    -0.13207042f,    -0.31431577f,    -0.20565501f,    0.47119683f,
    -0.25696129f,    -0.42182055f,    0.01672299f,    0.10556126f,    -0.13249831f,    -0.24427827f,    -0.21435075f,    0.11930152f,    -0.19768594f,    0.15498559f,
    -0.07754570f,    -0.09737796f,    0.11770760f,    -0.16676836f,    -0.10556892f,    -0.20432663f,    -0.08209595f,    0.08180346f,    -0.16316730f,    0.12806146f,
    0.17708124f,    -0.15106764f,    0.01594716f,    -0.02298146f,    0.03007246f,    0.19670796f,    -0.10554192f,    -0.32426751f,    0.26309505f,    -0.26187223f,
    -0.25713494f,    -0.41816625f,    -0.54690123f,    0.13435167f,    0.04986482f,    -0.02590705f,    0.13540553f,    0.19381751f,    0.14202259f,    -0.17704535f,
    -0.15411040f,    0.08729707f,    0.10026671f,    -0.10313123f,    0.06387104f,    -0.20638826f,    0.11591037f,    0.07899727f,    0.12573746f,    -0.07970617f,
    0.37845016f,    -0.05318999f,    0.26728275f,    -0.14135908f,    0.00610846f,    -0.08953812f,    0.06829613f,    -0.27363884f,    -0.21341850f,    0.30684170f,
    -0.36041218f,    -0.11416428f,    0.19544257f,    0.01257925f,    -0.16106977f,    0.09058569f,    0.17440413f,    -0.15858161f,    0.10568942f,    0.07222764f,
    0.16247334f,    0.05467196f,    -0.21718255f,    0.13719524f,    0.01936051f,    0.35965431f,    -0.10714076f,    0.07205991f,    0.35985467f,    0.40519077f,
    -0.41554943f,    -0.33736864f,    -0.29640800f,    -0.02474180f,    0.08348418f,    -0.02401624f,    -0.02836202f,    0.17480473f,    0.09503911f,    -0.16724065f,
    0.18032254f,    0.03757583f,    -0.03858072f,    0.11546479f,    -0.21558808f,    0.01830576f,    0.10024144f,    -0.11257131f,    0.08343650f,    -0.09229968f,
    0.09064905f,    0.18349782f,    0.16055959f,    0.12781355f,    -0.03298686f,    0.24767090f,    0.39066061f,    0.21551707f,    -0.35585219f,    0.25469941f,
    -0.33148494f,    -0.13906656f,    -0.70059144f,    0.07446124f,    0.08756433f,    0.00213723f,    -0.06127504f,    -0.10462675f,    0.06771366f,    -0.17395195f,
    0.19118138f,    -0.06140104f,    0.01051813f,    0.12504055f,    0.01163854f,    0.16970362f,    0.03721597f,    -0.05431560f,    0.13204575f,    0.06243178f,
    -0.06849991f,    -0.51022375f,    0.11300914f,    -0.05422709f,    -0.13325594f,    0.14123994f,    -0.06803377f,    -0.37885782f,    -0.17445605f,    -0.20690802f,
    0.13879775f,    -0.00062817f,    0.20989041f,    -0.12805143f,    -0.17082803f,    -0.09012547f,    -0.01548907f,    -0.00651516f,    0.03585850f,    -0.08298863f,
    -0.15574515f,    -0.06352553f,    0.16389918f,    0.16663593f,    0.31808788f,    -0.11952401f,    0.14808154f,    -0.27859989f,    -0.13193013f,    0.61940742f,
    -0.17090420f,    -0.37967008f,    -0.46651053f,    0.07751111f,    0.38524976f,    -0.18885140f,    0.19406511f,    -0.14161606f,    0.17866026f,    0.06990875f,
    -0.17769042f,    -0.13564199f,    0.20032485f,    0.10388120f,    -0.08618711f,    0.21269600f,    0.20771219f,    -0.07367052f,    -0.15595396f,    0.12294330f,
    -0.19509812f,    0.28895822f,    -0.03224958f,    0.12490291f,    -0.46531576f,    -0.18623991f,    0.38906023f,    -0.37310740f,    -0.43753901f,    0.23359337f,
    -0.57443225f,    0.18597825f,    -0.03499396f,    -0.05505934f,    0.01070319f,    -0.21402393f,    -0.10192389f,    -0.12806131f,    0.10876472f,    0.14874448f,
    0.15512611f,    -0.13134678f,    -0.03802709f,    0.12765931f,    -0.08816205f,    -0.30367845f,    0.16405216f,    -0.29182971f,    -0.00790812f,    0.07899758f,
    -0.13887511f,    -0.22858249f,    0.38434973f,    0.06136626f,    0.22383405f,    -0.32527313f,    0.12185983f,    -0.18530726f,    0.18920414f,    -0.18083359f,
    -0.06956619f,    0.03358586f,    -0.14189805f,    -0.13581955f,    0.00758910f,    0.15471818f,    0.20349030f,    0.21396883f,    0.08329959f,    -0.17106944f,
    0.02155074f,    0.14948900f,    0.07694555f,    -0.16126989f,    -0.18316548f,    0.56669593f,    -0.33959770f,    0.05667855f,    0.03147218f,    0.17368600f,
    -0.31514806f,    -0.28258714f,    -0.04260843f,    -0.21614935f,    -0.01409812f,    0.16758554f,    -0.05187804f,    -0.09978734f,    0.17640869f,    0.13825767f,
    -0.14484851f,    -0.16889855f,    -0.09588291f,    0.01423740f,    0.16445391f,    -0.10992707f,    0.11669096f,    0.14175270f,    -0.10204721f,    -0.17722638f,
    -0.27133742f,    -0.16348986f,    0.04701536f,    0.43812096f,    0.15691826f,    -0.06134943f,    -0.07263234f,    0.46435836f,    0.24952959f,    0.11682488f,
    -0.06364445f,    0.00182527f,    0.06036554f,    -0.20067301f,    -0.16445303f,    -0.12237906f,    0.21136628f,    -0.01252264f,    0.17161433f,    -0.05394898f,
    -0.04043934f,    -0.16990939f,    -0.04482831f,    0.20878476f,    -0.03772008f,    0.17790562f,    -0.32129487f,    -0.04499602f,    0.47057107f,    -0.00849737f,
    -0.20468067f,    -0.31838521f,    -0.49466702f,    -0.35352135f,    0.06062273f,    0.13792162f,    0.11904739f,    -0.14855072f,    -0.20595904f,    0.08655031f,
    0.04653837f,    -0.21356983f,    -0.02334580f,    0.12882070f,    -0.11159039f,    -0.15392055f,    -0.12860136f,    -0.12375928f,    0.00911770f,    0.09572545f,
    -0.20394042f,    -0.00807716f,    0.61732054f,    -0.21943149f,    -0.22575183f,    0.12973531f,    -0.30789119f,    0.04389583f,    -0.27098489f,    0.22718926f,
    -0.50729179f,    0.15440555f,    -0.19345726f,    0.11385252f,    -0.04054703f,    -0.08221145f,    0.20365937f,    0.06954513f,    -0.01179613f,    -0.17191151f,
    0.02093564f,    0.05633028f,    -0.16164960f,    -0.06406057f,    -0.00974006f,    -0.13431635f,    0.11364716f,    -0.14184177f,    -0.16411147f,    -0.03189222f,
    -0.40734375f,    -0.19603002f,    0.10762274f,    0.33987829f,    -0.47878647f,    0.26197436f,    0.11991163f,    0.16226240f,    -0.13772380f,    0.02765100f,
    0.06837268f,    -0.12642495f,    0.18429361f,    0.13986067f,    0.01732531f,    0.16341914f,    0.17417072f,    0.13659601f,    0.16825618f,    -0.04745734f,
    0.11938701f,    -0.09273939f,    -0.26642910f,    -0.18966517f,    -0.31988576f,    0.70594221f,    0.31253573f,    0.09980702f,    0.04381238f,    0.29465452f,
    0.16403523f,    -0.54194158f,    -0.20005128f,    -0.05207188f,    -0.02070256f,    -0.10955430f,    0.20061885f,    0.20142384f,    -0.18434538f,    -0.04078715f,
    0.10565503f,    -0.16440111f,    0.13328271f,    0.12480624f,    0.10601796f,    -0.20710140f,    -0.10315032f,    -0.42691723f,    -0.15441038f,    -0.08928432f,
    -0.09985176f,    -0.09881852f,    0.25383437f,    0.04702653f,    -0.02750836f,    -0.25640941f,    0.23637851f,    -0.09435736f,    0.02500488f,    0.12393089f,
    0.18730839f,    0.12232928f,    -0.21656765f,    -0.02761105f,    0.18930466f,    -0.14792550f,    -0.01561986f,    -0.17597462f,    0.12326981f,    0.20782562f,
    -0.08073559f,    0.20382176f,    0.11163767f,    0.03249398f,    0.14250335f,    0.03787178f,    -0.19950756f,    -0.06933333f,    -0.04003925f,    0.26308793f,
    -0.40402988f,    -0.01776122f,    0.09137774f,    -0.21712002f,    0.12863885f,    -0.18630213f,    0.17497028f,    -0.01635902f,    0.01169686f,    -0.14078519f,
    0.17092209f,    -0.06332918f,    0.21050017f,    0.02209741f,    -0.21817596f,    0.03581236f,    -0.14520442f,    0.06495024f,    -0.00983400f,    -0.13916615f,
    -0.19302544f,    0.22566178f,    -0.51567060f,    -0.29659474f,    -0.08650357f,    0.81392562f,    0.04794474f,    0.40242037f,    0.13486700f,    -0.39633256f,
    -0.16597576f,    0.10830264f,    -0.12210852f,    0.12493734f,    0.11992453f,    -0.10097184f,    -0.08971295f,    0.16161226f,    0.08139078f,    0.20703547f,
    0.16452534f,    -0.01133095f,    0.20095034f,    -0.11212101f,    -0.11395112f,    -0.00603129f,    0.10983872f,    -0.34247965f,    0.39096752f,    -0.08770724f,
    0.60867083f,    -0.24677804f,    0.13623407f,    -0.41617420f,    -0.08241916f,    -0.21788640f,    -0.09173186f,    0.14132868f,    -0.12315562f,    -0.18296677f,
    -0.13534746f,    0.01606084f,    -0.11350748f,    0.02276528f,    0.15850665f,    0.02157766f,    -0.10930488f,    -0.16607603f,    0.02539369f,    -0.17766556f,
    -0.03845314f,    -0.41218823f,    0.15002893f,    0.07022706f,    1.09401679f,    -0.00246017f,    0.16090028f,    -0.45641044f,    -0.02443130f,    0.25304559f,
    -0.33424574f,    0.04261585f,    0.01493740f,    0.11992373f,    -0.00107156f,    -0.03284925f,    0.01764575f,    0.08637239f,    0.15732385f,    0.14219876f,
    -0.11284538f,    0.03628914f,    0.02972750f,    0.10712458f,    -0.16181473f,    0.14133315f,    0.16077822f,    0.10343481f,    -0.25279096f,    -0.13027549f,
    0.25253958f,    0.35737053f,    0.19061409f,    0.44988567f,    0.09152450f,    0.08154561f,    -0.05253256f,    0.41709933f,    0.34784991f,    -0.16368137f,
    0.13555847f,    0.21797796f,    0.21211948f,    -0.01493695f,    0.19075902f,    -0.07455498f,    -0.12461685f,    0.00431015f,    -0.17985028f,    0.08521436f,
    -0.04976803f,    -0.08485876f,    0.02054309f,    -0.13640918f,    -0.17136776f,    -0.23557931f,    0.44018394f,    0.13995516f,    -0.44488794f,    0.14053392f,
    -0.05352408f,    -0.04049006f,    -0.19848733f,    0.07981838f,    0.02954707f,    -0.19504727f,    0.12624376f,    -0.00340226f,    -0.12499811f,    0.12319545f,
    -0.17606363f,    -0.01670121f,    0.10522215f,    -0.08676389f,    -0.12869167f,    0.07105927f,    -0.08415207f,    -0.01141466f,    -0.06710238f,    -0.25154826f,
    0.10820708f,    -0.24952951f,    0.16022275f,    0.17053019f,    -0.39269277f,    -0.06194356f,    -0.10261558f,    0.05617687f,    0.35461214f,    -0.54507017f,
    -0.10549041f,    -0.00951958f,    0.09907307f,    -0.20387416f,    0.16439883f,    -0.13735551f,    -0.06515996f,    0.01091395f,    0.21206848f,    -0.07350247f,
    -0.12939560f,    0.13632022f,    0.09612446f,    0.19933785f,    0.15060335f,    0.19524141f,    -0.24162126f,    0.17243950f,    -0.39617392f,    0.12933983f,
    0.10812704f,    -0.09997573f,    0.29794404f,    0.06088977f,    0.06608076f,    0.18914646f,    0.18093503f,    -0.15004176f,    0.09100597f,    -0.08757323f,
    -0.05262104f,    -0.05835085f,    -0.05258988f,    0.02867334f,    0.20547296f,    0.14006798f,    -0.13582101f,    -0.10089406f,    -0.09674729f,    -0.16821153f,
    0.19472691f,    0.05830272f,    0.18268697f,    -0.38360155f,    0.27776179f,    -0.28606704f,    0.23505017f,    0.14821400f,    0.04395420f,    0.09240983f,
    0.12161314f,    0.16700064f,    0.00673540f,    0.05195628f,    0.14084314f,    -0.20624965f,    0.12555854f,    0.02193242f,    -0.16931415f,    -0.14672670f,
    -0.09161089f,    -0.19991119f,    0.18460624f,    0.02799250f,    0.12978809f,    -0.19951510f,    0.06705502f,    0.14845739f,    0.29989675f,    -0.18670639f,
    -0.30628419f,    -0.09604155f,    0.30613691f,    -0.22689100f,    -0.59872031f,    -0.40864646f,    0.00460824f,    0.10069922f,    0.53445113f,    0.10614632f,
    -0.07588474f,    0.21520941f,    -0.20726851f,    -0.05951673f,    0.18121438f,    -0.08173525f,    0.12441550f,    -0.14411411f,    0.16462131f,    -0.09346353f,
    0.01831326f,    -0.08455539f,    0.12286542f,    -0.14160903f,    0.10972845f,    -0.05851696f,    -0.32111818f,    -0.11042522f,    0.36490154f,    -0.32153746f,
    0.09870014f,    0.21427345f,    0.62300098f,    -0.16548829f,    -0.11605344f,    0.05256002f,    -0.12858793f,    0.19186033f,    0.11880235f,    -0.00312835f,
    -0.11129680f,    0.11836694f,    -0.17527501f,    0.16499807f,    -0.07770309f,    -0.13663757f,    0.11312233f,    0.09521993f,    -0.03533673f,    0.14059749f,
    -0.05192732f,    -0.07927854f,    0.53939271f,    -0.15335286f,    0.11729620f,    -0.45253918f,    0.35923359f,    -0.07057769f,    0.16827090f,    0.11864731f,
    0.17925116f,    0.04647090f,    -0.06244294f,    -0.16670753f,    0.02338529f,    -0.14025477f,    0.03755267f,    -0.09485636f,    0.10200287f,    0.03959660f,
    0.13754104f,    0.09850790f,    -0.00760169f,    0.15978684f,    0.09095334f,    0.08906689f,    0.17667694f,    0.08416633f,    -0.19486567f,    0.03912163f,
    -0.02509209f,    -0.11207907f,    -0.03876661f,    -0.38887933f,    -0.57795739f,    -0.21318068f,    0.23214380f,    0.07653965f,    0.11346145f,    0.11407639f,
    -0.00489867f,    0.04413347f,    0.21403505f,    -0.02311823f,    -0.07909909f,    0.20788862f,    -0.14136925f,    -0.17716053f,    -0.01865420f,    0.20333292f,

};

const float b1[] = {
    -0.07372773f,    -0.03135836f,    -0.15291333f,    0.15338680f,    -0.21938251f,    -0.27976814f,    -0.16558063f,    0.39383298f,    -0.06201116f,    -0.32797000f,
    -0.04977839f,    0.22733477f,    -0.22593428f,    -0.10731488f,    0.16065018f,    -0.14234442f,    -0.21969984f,    0.29038543f,    0.22881985f,    -0.20748766f,
    0.04700845f,    0.17227335f,    0.27920055f,    -0.19727986f,    0.08685822f,    -0.11970711f,    -0.07934020f,    -0.09544928f,    -0.20697655f,    -0.13930941f,
    0.10843115f,    0.00763221f,    -0.08777824f,    0.10279125f,    0.19720584f,    -0.12486172f,    -0.21399835f,    -0.31318235f,    -0.25582719f,    -0.17229031f,
    -0.40503657f,    -0.08469113f,    -0.10818223f,    0.11552724f,    -0.17550983f,    -0.31527624f,    0.04553165f,    -0.01992377f,    -0.29409197f,    0.13155438f,
    0.07275387f,    -0.05375859f,    0.15991691f,    -0.03934269f,    0.45968539f,    0.07496827f,    0.21133840f,    0.19466837f,    0.30762598f,    0.05929066f,
    -0.25961211f,    -0.02757425f,    0.09622255f,    0.07646434f,    0.10391881f,    0.17430644f,    -0.25928962f,    0.11496250f,    -0.02141412f,    0.06339045f,
    -0.05192928f,    -0.03633284f,    0.30551642f,    -0.02570939f,    0.04661506f,    0.15754899f,    0.19598891f,    -0.11501628f,    -0.00932204f,    0.00005591f,
    0.00311190f,    0.02774772f,    -0.38588458f,    0.07609621f,    0.22055787f,    0.01193703f,    0.21475722f,    -0.01180944f,    0.36697492f,    0.08025721f,
    0.27670425f,    -0.04171073f,    -0.06480049f,    -0.06712170f,    -0.08511570f,    -0.09824371f,    -0.13732558f,    -0.12376152f,    0.05892785f,    0.16384771f,

};

const float w2[] = {
    0.09139189f,    -0.04771385f,    -0.09858310f,    0.12719737f,    0.04855658f,    -0.09540123f,    0.06991077f,    0.08355749f,    -0.00993430f,    -0.18033598f,
    0.03541091f,    -0.21523723f,    -0.13487318f,    -0.07751755f,    0.23056310f,    -0.25445655f,    -0.07599782f,    0.00628285f,    0.16010301f,    0.06082109f,
    0.12037386f,    0.04462832f,    0.17172121f,    0.10866845f,    0.00583277f,    -0.25334966f,    -0.07166465f,    0.20406601f,    0.11374870f,    -0.08069763f,
    -0.25665054f,    0.04850971f,    -0.39330757f,    -0.02064730f,    -0.34631363f,    -0.28049850f,    0.04255148f,    -0.19969948f,    -0.14973773f,    -0.15446810f,
    -0.12793447f,    0.01232801f,    0.11472370f,    0.12563650f,    -0.03400164f,    0.06069990f,    -0.04183901f,    0.13951504f,    0.22814351f,    -0.04827892f,
    0.07296197f,    0.10078818f,    0.14541042f,    -0.00397452f,    0.03844657f,    0.22921190f,    0.17297173f,    0.29787457f,    0.18864366f,    -0.11945634f,
    -0.01653211f,    0.21604639f,    -0.11436054f,    0.45332149f,    -0.10826452f,    0.32742813f,    0.06803361f,    0.09582645f,    -0.04746798f,    -0.24145798f,
    -0.09426469f,    0.12078142f,    0.12387330f,    0.09709021f,    -0.25837624f,    -0.11365129f,    0.05388948f,    0.00792938f,    0.17579359f,    0.04403014f,
    -0.16283350f,    0.13929889f,    0.09895045f,    0.26303038f,    0.21846384f,    -0.32474864f,    0.00497342f,    -0.10310127f,    0.12869780f,    -0.10110503f,
    0.22388357f,    -0.08822737f,    -0.17488493f,    0.07148569f,    0.14740294f,    0.10446114f,    -0.12853900f,    0.06502592f,    -0.05083417f,    0.07116805f,
    0.20092113f,    0.03419232f,    -0.25508845f,    0.21401720f,    0.03445238f,    0.17687792f,    0.04897752f,    0.03346579f,    -0.32472605f,    0.08876043f,
    0.17533851f,    -0.16533753f,    -0.02878335f,    -0.10722386f,    -0.27845725f,    0.06497431f,    -0.04092444f,    -0.32761288f,    0.12435207f,    -0.04572328f,
    -0.08335406f,    0.03192679f,    0.06424344f,    -0.13465808f,    0.09741107f,    0.11537366f,    0.01992202f,    0.16550931f,    -0.41088429f,    -0.05753682f,
    0.11350222f,    -0.13473696f,    0.15053374f,    0.00615172f,    0.01498032f,    -0.30119056f,    -0.15335044f,    -0.09070725f,    -0.17616901f,    0.12802532f,
    0.02292067f,    -0.01647880f,    -0.13161057f,    0.05151419f,    0.08508317f,    0.12678958f,    0.18558210f,    0.02273307f,    -0.08471078f,    0.13911082f,
    -0.04331212f,    0.16910203f,    -0.22238396f,    0.10698211f,    0.02228553f,    0.09650856f,    0.45898008f,    0.44115281f,    0.68459487f,    0.17354046f,
    0.01972685f,    -0.04009549f,    0.05206328f,    0.28514326f,    0.16037340f,    -0.65549034f,    0.10862492f,    -0.32607955f,    -0.13571535f,    0.01475216f,
    0.15732749f,    -0.07225318f,    0.31289938f,    -0.06532353f,    -0.34024042f,    0.11348953f,    -0.26459530f,    0.05304538f,    -0.08887856f,    0.15479921f,
    -0.02914285f,    -0.00032504f,    0.07948026f,    -0.07710157f,    0.09503493f,    0.23426695f,    -0.12397411f,    0.06479883f,    0.64990765f,    -0.13768387f,
    -0.44623893f,    -0.32071412f,    -0.31917086f,    0.12826340f,    0.12512995f,    0.03643783f,    0.17698680f,    -0.09703937f,    -0.09298314f,    0.25434747f,
    0.01872119f,    0.24744658f,    -0.11254720f,    -0.03871490f,    0.03649770f,    0.02647530f,    0.41386959f,    -0.10335492f,    -0.01476090f,    0.16989590f,
    -0.31976062f,    0.26837721f,    -0.18931885f,    0.15470891f,    -0.11800038f,    0.11710282f,    0.03960995f,    -0.03084374f,    -0.13581425f,    0.08238877f,
    -0.17609499f,    -0.24941449f,    -0.08021295f,    -0.07150807f,    -0.01648630f,    0.24523152f,    -0.00659089f,    -0.10622440f,    0.27069691f,    -0.05136789f,
    0.11246388f,    -0.28844106f,    -0.04702338f,    0.25386643f,    0.09548822f,    -0.09799299f,    0.19508192f,    0.01698217f,    0.39031368f,    0.23398322f,
    0.06041885f,    -0.04353824f,    0.14396597f,    -0.00125628f,    0.16957600f,    0.02058034f,    -0.02184374f,    -0.13000944f,    0.11380827f,    0.02667976f,
    0.15156446f,    -0.16504315f,    0.13093875f,    0.16275030f,    0.28571653f,    -0.29186675f,    -0.41179991f,    -0.11361779f,    -0.33212912f,    -0.02855427f,
    -0.06933561f,    0.00194167f,    -0.14728175f,    -0.10583162f,    0.22314119f,    -0.19429298f,    -0.03065971f,    -0.07138784f,    0.16787387f,    -0.07963680f,
    0.07804906f,    0.08774730f,    -0.13616313f,    -0.13762102f,    0.15341726f,    0.16722971f,    0.05430384f,    0.00594119f,    0.03224674f,    -0.07212508f,
    -0.08400209f,    -0.03389819f,    -0.07263322f,    -0.15359174f,    -0.20625921f,    0.08598027f,    0.23286115f,    0.07910492f,    0.07204961f,    -0.00014573f,
    -0.38310614f,    0.07221752f,    0.17254771f,    -0.05386811f,    -0.03599129f,    0.09292902f,    0.20565812f,    0.03089160f,    -0.11538722f,    0.11580957f,
    0.04603259f,    -0.23867553f,    0.04461060f,    0.00370071f,    -0.25690758f,    -0.16402434f,    -0.04049893f,    0.20277604f,    0.26275524f,    -0.00782470f,
    0.17816640f,    -0.05913828f,    0.09124324f,    -0.06307239f,    -0.00348018f,    -0.07562803f,    0.13727005f,    0.18544038f,    0.02457883f,    0.14775425f,
    0.25703061f,    0.07731764f,    0.02267467f,    -0.06688740f,    -0.12488290f,    -0.46583322f,    -0.09458458f,    0.20858166f,    0.14742497f,    -0.24660541f,
    -0.11770309f,    -0.30659014f,    -0.06233752f,    -0.18804631f,    0.23306394f,    0.17614289f,    -0.05370690f,    -0.19478959f,    -0.14659584f,    -0.24719834f,
    0.16705941f,    -0.04664771f,    0.11823207f,    0.24636897f,    0.13268791f,    -0.02463246f,    -0.11394413f,    -0.51163971f,    0.07240792f,    0.14521794f,
    0.23120491f,    0.32038364f,    -0.14737836f,    0.22239485f,    0.22218512f,    -0.04158656f,    0.45521820f,    -0.03440268f,    -0.14642258f,    0.03661760f,
    -0.01423828f,    0.20129916f,    0.18968880f,    -0.43577608f,    -0.13672620f,    -0.57909286f,    0.09327346f,    0.47613654f,    -0.04234097f,    0.14176239f,
    -0.16511662f,    -0.29117167f,    0.34147981f,    -0.07239067f,    -0.31928062f,    -0.10984519f,    0.22007641f,    -0.14853710f,    0.05331852f,    -0.05076425f,
    -0.06834044f,    0.05941428f,    0.12783779f,    -0.64890182f,    0.27722269f,    -0.18513985f,    -0.14236122f,    0.17945749f,    -0.39715701f,    -0.01046131f,
    -0.19455513f,    -0.13083357f,    -0.13887955f,    -0.10290760f,    -0.24187505f,    -0.08245800f,    0.22552261f,    0.23104821f,    0.16076563f,    -0.03850511f,
    -0.04296310f,    0.09772398f,    0.06855310f,    -0.05707905f,    0.13154161f,    0.12438445f,    -0.06081653f,    -0.19367890f,    0.15803510f,    0.30201876f,
    -0.27089757f,    -0.14287348f,    0.15172261f,    -0.11799026f,    0.15765850f,    0.15728775f,    0.09517302f,    -0.33399791f,    0.13358994f,    0.10787467f,
    0.12686503f,    -0.00148628f,    0.11295153f,    0.06318886f,    -0.04447032f,    0.05826351f,    0.06100976f,    -0.28873256f,    0.04267597f,    0.06786539f,
    -0.09377685f,    -0.02911745f,    -0.14742178f,    -0.04025682f,    0.16027538f,    0.18039745f,    0.16551235f,    0.07962060f,    0.06709202f,    -0.02073732f,
    0.07796371f,    -0.13458571f,    -0.02579087f,    0.05735887f,    0.12883377f,    0.04787631f,    0.20897354f,    0.00281939f,    -0.16984345f,    0.08094355f,
    -0.19564018f,    0.05109027f,    -0.27024949f,    0.03702550f,    0.01162842f,    0.19227524f,    -0.22441718f,    0.02403917f,    0.39898631f,    -0.05060533f,
    0.05541513f,    0.11409669f,    0.21931325f,    -0.22404401f,    0.06116713f,    -0.16096310f,    -0.04238827f,    -0.25716272f,    -0.02952971f,    -0.01577049f,
    0.04721382f,    0.17618060f,    -0.04912103f,    0.24138083f,    -0.14336331f,    0.16978610f,    0.00416169f,    0.00152187f,    0.07534619f,    -0.04166911f,
    0.04338639f,    -0.04025989f,    0.29766634f,    -0.28756914f,    0.08241475f,    -0.13530478f,    -0.02434217f,    -0.09117216f,    0.06832934f,    -0.11666729f,
    -0.67372072f,    0.16381663f,    -0.06888580f,    -0.15713339f,    0.15068297f,    -0.05029937f,    0.34899586f,    0.23248547f,    -0.04480954f,    0.07932957f,
    0.09431580f,    0.18283403f,    -0.19720018f,    0.27533397f,    -0.01507469f,    0.16574524f,    0.23499520f,    -0.22677748f,    -0.11295044f,    0.04473419f,
    0.01798006f,    0.07024384f,    -0.07420028f,    0.06948684f,    -0.22989157f,    0.03242191f,    -0.07972854f,    0.35133979f,    -0.04414637f,    0.04445545f,
    -0.13985255f,    0.03808698f,    -0.22059405f,    0.04554662f,    -0.12911230f,    -0.41879576f,    -0.01876612f,    0.23822927f,    0.17637806f,    -0.17120393f,
    0.03829103f,    -0.11507332f,    0.13998935f,    -0.00573804f,    0.18503349f,    0.14767629f,    -0.22145714f,    -0.10046578f,    -0.32155600f,    -0.06527438f,
    -0.24352542f,    0.20406713f,    0.07879625f,    0.02409235f,    0.09386455f,    -0.13991460f,    -0.02046880f,    0.23011968f,    -0.14112392f,    0.03728908f,
    0.17308575f,    0.02182139f,    -0.01780323f,    0.06581966f,    -0.14243512f,    0.02320933f,    0.12248495f,    0.25744089f,    0.18146881f,    -0.00153985f,
    0.18508612f,    -0.03819763f,    0.08179966f,    -0.01053402f,    0.29036132f,    0.05379212f,    0.07329390f,    -0.25089175f,    0.00148968f,    -0.04703001f,
    -0.09251165f,    0.10681863f,    0.19870351f,    -0.21369132f,    0.02623188f,    0.11006600f,    0.00109249f,    -0.26642433f,    -0.01026428f,    -0.06003863f,
    -0.23265976f,    -0.03746797f,    -0.11056346f,    -0.03339007f,    -0.03568389f,    0.11238307f,    -0.10150390f,    -0.00503820f,    0.39938292f,    -0.09908760f,
    -0.32445678f,    0.06203565f,    -0.37693712f,    -0.23692124f,    0.42868564f,    -0.44899428f,    0.08876058f,    0.02756931f,    -0.01664714f,    0.20292912f,
    0.03959582f,    -0.40913928f,    0.18154295f,    -0.17086303f,    -0.05640606f,    0.22805971f,    -0.03593124f,    -0.18157932f,    -0.00429700f,    0.01484796f,
    -0.00334834f,    -0.41564268f,    -0.02622311f,    0.14774372f,    -0.10206071f,    -0.01939678f,    -0.39266095f,    -0.06999610f,    -0.07490595f,    0.10184305f,
    0.13273396f,    0.36096027f,    0.12314253f,    -0.09182446f,    -0.15387163f,    0.12428829f,    -0.28851384f,    0.10600860f,    0.10539664f,    -0.20399608f,
    0.16325714f,    0.28485388f,    0.26028365f,    0.30207336f,    -0.12069216f,    0.12278917f,    0.06285267f,    0.14400947f,    0.17814425f,    -0.16028042f,
    -0.12767838f,    0.08343792f,    0.18625897f,    -0.33309701f,    0.04781871f,    0.25275195f,    0.23416060f,    -0.25821722f,    0.01186336f,    0.07188580f,
    -0.01776529f,    -0.16929770f,    -0.49454576f,    -0.08995797f,    -0.43071580f,    -0.16688018f,    0.27831909f,    0.01250475f,    -0.07453842f,    -0.05648774f,
    -0.16002707f,    0.02564600f,    -0.32200620f,    0.13851610f,    -0.27131176f,    0.18351766f,    0.13376644f,    -0.02601399f,    0.19814894f,    -0.33619866f,
    0.17784569f,    0.15814088f,    0.03082225f,    -0.24018210f,    -0.11595213f,    0.19673313f,    -0.00123065f,    0.18125126f,    0.11394061f,    -0.02036491f,
    -0.02476941f,    -0.24609046f,    0.33354455f,    0.00918748f,    0.23843583f,    -0.00857155f,    0.13458975f,    0.08054130f,    -0.24246334f,    0.00275513f,
    -0.20182614f,    -0.11117408f,    0.01786768f,    0.09775391f,    0.07333440f,    -0.06689022f,    -0.00623456f,    0.07652839f,    -0.20233056f,    0.21779391f,
    -0.37742662f,    -0.58162850f,    -0.12796275f,    0.22771940f,    0.16524768f,    0.11877743f,    0.07877842f,    0.13924555f,    0.07596143f,    0.11269569f,
    0.39606589f,    0.20867950f,    0.14357911f,    0.02568538f,    -0.03504967f,    -0.13605274f,    0.06269866f,    -0.07448500f,    0.27943802f,    -0.18365456f,
    0.16134284f,    0.08051840f,    0.11986514f,    -0.09684397f,    -0.08019398f,    0.17190389f,    -0.02037442f,    -0.00582356f,    0.09777157f,    -0.17855534f,
    -0.08755769f,    0.20915799f,    0.13144076f,    0.43517840f,    0.14711195f,    -0.04973616f,    -0.11697323f,    0.02158644f,    0.14203350f,    -0.12523001f,
    0.01458388f,    0.04093911f,    0.03669199f,    -0.08760422f,    -0.01307179f,    -0.14214441f,    -0.05465276f,    -0.01197761f,    0.22593540f,    -0.16640800f,
    0.15303573f,    -0.05790961f,    0.06745348f,    0.22986388f,    0.06536745f,    -0.07505661f,    -0.29025951f,    -0.01139290f,    -0.03252549f,    0.07872315f,
    -0.07479616f,    -0.08393555f,    0.01066475f,    0.03020532f,    0.08664536f,    -0.18740676f,    0.01143930f,    0.10659865f,    -0.10946214f,    0.23193415f,
    -0.27608564f,    -0.01100603f,    0.03249849f,    0.18952696f,    -0.16582905f,    -0.12876080f,    0.27093908f,    0.15184200f,    0.16157159f,    0.04504388f,
    0.15468186f,    -0.00360495f,    -0.11989281f,    0.08810753f,    0.10726887f,    -0.04192866f,    0.13095461f,    -0.01337100f,    0.12421081f,    0.02038393f,
    0.17013201f,    0.10029905f,    -0.03128778f,    -0.27410439f,    0.11902045f,    0.04017104f,    -0.16262764f,    0.00480848f,    -0.15086071f,    -0.07199789f,
    0.14406230f,    0.13873513f,    -0.06645793f,    0.13943888f,    -0.20570606f,    -0.19465536f,    -0.05356897f,    0.16163507f,    -0.01260578f,    0.02899822f,
    0.74613458f,    -0.19936532f,    -0.01338186f,    -0.17266734f,    0.27314526f,    0.04289882f,    -0.09248305f,    -0.08179466f,    -0.68617338f,    -0.02760088f,
    0.12261348f,    0.04384810f,    0.34994158f,    0.02220030f,    0.10365193f,    0.38019395f,    0.10202061f,    -0.02925890f,    0.01550242f,    0.17852536f,
    0.17802234f,    -0.20337053f,    -0.16054960f,    0.19259799f,    -0.13421811f,    -0.30793926f,    -0.38894144f,    -0.11600293f,    -0.10897188f,    0.03325833f,
    -0.07809961f,    0.03087929f,    -0.42930275f,    0.09589135f,    0.13414097f,    0.03044111f,    0.10706505f,    -0.29891723f,    -0.12858541f,    0.38079438f,
    -0.14032829f,    -0.36033458f,    0.19703235f,    0.40014648f,    0.00972015f,    0.09721129f,    -0.13261980f,    -0.34538305f,    -0.15383485f,    0.03959133f,
    0.19656496f,    -0.00062542f,    0.09328233f,    0.15780745f,    -0.23400593f,    0.53252149f,    0.08314081f,    0.04499491f,    -0.18469329f,    0.11231789f,
    -0.18206321f,    0.22600961f,    0.06271057f,    0.34125385f,    -0.21080410f,    0.42098692f,    0.06604943f,    -0.19859235f,    0.00342092f,    0.11306996f,
    -0.16195533f,    0.18926385f,    0.02569604f,    -0.10133722f,    -0.04214764f,    -0.67857951f,    0.12258818f,    -0.23633009f,    -0.41536784f,    0.03305277f,
    0.00959110f,    -0.16274184f,    -0.03295081f,    -0.16442552f,    0.03495645f,    -0.09962443f,    -0.20584859f,    0.06855062f,    0.19212554f,    -0.05114111f,
    -0.03934766f,    -0.03299333f,    0.16939363f,    0.17922869f,    -0.15168458f,    0.28906640f,    0.15956874f,    -0.18942772f,    0.00224732f,    0.10457513f,
    -0.17875540f,    -0.15418528f,    0.16483219f,    0.13164634f,    -0.03217357f,    -0.03457149f,    0.14430876f,    0.00566045f,    -0.25029659f,    0.16563410f,
    -0.11442120f,    0.01404786f,    0.11249541f,    0.21621569f,    -0.07159875f,    0.22589350f,    0.16561157f,    0.21010754f,    0.13121137f,    -0.02044357f,
    -0.00957206f,    -0.26398581f,    0.02113731f,    0.08958851f,    0.13478731f,    0.21759453f,    0.28498808f,    0.10559041f,    -0.36227468f,    -0.07957833f,
    0.14520219f,    -0.09018761f,    -0.13690032f,    -0.00031074f,    -0.15678915f,    0.16787705f,    0.08094232f,    0.36810270f,    -0.18502511f,    -0.09905870f,
    -0.14803585f,    -0.06063406f,    -0.33368903f,    0.02343190f,    0.04404384f,    0.09086650f,    -0.05248342f,    0.08480939f,    -0.41834310f,    -0.07197895f,
    0.01589907f,    -0.06998524f,    -0.02048311f,    0.14125888f,    -0.06431953f,    0.55045688f,    -0.06889308f,    -0.15665987f,    0.12470254f,    -0.10527239f,
    0.04531176f,    -0.42570007f,    0.01733379f,    0.05340283f,    -0.06531784f,    -0.01210823f,    0.32186475f,    0.17552568f,    -0.04291398f,    0.00652065f,
    -0.15388973f,    -0.11183289f,    0.08322296f,    -0.05934680f,    -0.07986372f,    -0.24341148f,    -0.21619113f,    0.18385628f,    0.09502669f,    0.18272220f,
    -0.04082612f,    0.14710651f,    0.02921778f,    0.01076863f,    0.13010329f,    0.07176299f,    0.02663787f,    0.05104352f,    -0.09920018f,    0.02385814f,
    -0.00650417f,    -0.00186039f,    -0.17045808f,    0.11832805f,    -0.00991125f,    -0.03480022f,    -0.09515253f,    -0.10228178f,    0.07831766f,    -0.00058523f,
    -0.02057362f,    -0.00816158f,    -0.16909477f,    -0.13906015f,    -0.09380300f,    -0.05767504f,    -0.11554983f,    -0.12787805f,    0.16838852f,    0.06530569f,
    0.08630288f,    -0.08850212f,    0.10514344f,    -0.07218900f,    0.01953638f,    -0.05496099f,    0.13324000f,    -0.03179675f,    0.12810750f,    0.05781815f,
    -0.05218103f,    0.15349399f,    -0.12485812f,    -0.03797186f,    0.00841931f,    0.03498248f,    -0.06389028f,    -0.04908861f,    0.13202006f,    -0.12059694f,
    0.10518561f,    0.04126260f,    -0.13016045f,    0.01197986f,    0.00828623f,    -0.03928798f,    -0.14439721f,    -0.08024316f,    -0.13023263f,    -0.12640238f,
    -0.12601176f,    0.13716200f,    -0.03189871f,    -0.17798880f,    -0.15718845f,    -0.00105566f,    0.12259890f,    -0.01771196f,    -0.09807457f,    0.00501090f,
    -0.05732485f,    0.00056096f,    0.14451496f,    -0.02470347f,    -0.02826527f,    -0.15100674f,    0.12424579f,    -0.09721801f,    0.15559955f,    -0.00356764f,
    -0.03148214f,    -0.02491826f,    0.06948266f,    0.01079014f,    -0.11284345f,    0.01801978f,    -0.08873259f,    -0.13181198f,    0.10624441f,    -0.14075355f,
    -0.08809727f,    -0.17204158f,    -0.13035104f,    0.09350020f,    0.08377772f,    0.10507689f,    -0.05442345f,    -0.00079733f,    0.11186698f,    -0.09352211f,
    -0.07922191f,    0.11251903f,    -0.16065611f,    -0.01848458f,    0.06190034f,    -0.07053357f,    -0.02389352f,    -0.12215886f,    -0.16546208f,    0.11528832f,
    0.04430877f,    -0.24441683f,    -0.24681316f,    0.21202239f,    0.01311310f,    -0.15254481f,    0.29249355f,    0.13717084f,    0.00619570f,    0.14576839f,
    -0.08430188f,    0.06564075f,    0.10168506f,    0.06764027f,    0.14401880f,    -0.04903873f,    0.00647411f,    0.09017397f,    0.22638811f,    -0.04061311f,
    -0.00986551f,    0.16443899f,    -0.05249333f,    -0.18802749f,    0.21870928f,    0.10708304f,    0.01585254f,    -0.02752981f,    0.15286317f,    -0.03269132f,
    0.04032806f,    0.24928914f,    0.16269919f,    -0.17882192f,    -0.09609912f,    -0.21842611f,    0.18063706f,    -0.10599838f,    -0.06945147f,    0.02251670f,
    0.13760623f,    -0.10293639f,    0.03554370f,    0.24117890f,    0.18740183f,    -0.10082775f,    -0.31272972f,    0.02263035f,    0.05933806f,    0.04126538f,
    -0.00055293f,    0.00983055f,    -0.10291024f,    -0.12106862f,    -0.21154641f,    0.10397626f,    -0.27380082f,    -0.02329067f,    0.54414296f,    0.09080920f,
    -0.01179661f,    -0.03840698f,    0.03543507f,    0.17931852f,    -0.05995399f,    -0.01090737f,    0.17124991f,    -0.10141458f,    -0.07613140f,    -0.07375795f,
    -0.12480463f,    0.06609669f,    0.05729716f,    -0.12374393f,    0.19781895f,    -0.10194660f,    -0.11167417f,    0.22846767f,    -0.18565279f,    0.05848179f,
    -0.27795225f,    0.14873900f,    -0.13042004f,    0.36873135f,    0.09109361f,    -0.03828631f,    0.00069537f,    -0.10629722f,    0.17117004f,    -0.05801602f,
    -0.12502545f,    0.04436723f,    0.04976011f,    -0.00030783f,    -0.17622489f,    -0.01695916f,    0.01478609f,    -0.14741467f,    0.07729337f,    -0.10491619f,
    -0.02591666f,    0.24242519f,    -0.39634457f,    0.00132604f,    -0.13280126f,    -0.09363663f,    0.37816104f,    0.28314185f,    -0.40520900f,    0.10935190f,
    -0.05252953f,    0.37103075f,    0.18424840f,    0.00934984f,    -0.27666578f,    0.05117195f,    0.24429403f,    0.13624518f,    -0.31089687f,    -0.00780038f,
    0.01495326f,    -0.28722519f,    -0.47966745f,    -0.30014965f,    -0.04126601f,    -0.15893744f,    -0.59249115f,    0.32471013f,    0.04652157f,    0.44807154f,
    0.04600874f,    -0.39221096f,    -0.02717414f,    0.20101635f,    -0.02931288f,    0.25551683f,    -0.19384611f,    0.20089415f,    -0.06084387f,    0.14115186f,
    -0.07001170f,    0.01262151f,    0.35119426f,    -0.42876017f,    0.15390235f,    0.31418365f,    -0.05744882f,    -0.00311092f,    0.30519193f,    -0.18234898f,
    -0.01097641f,    -0.01854238f,    0.11937822f,    0.17680334f,    -0.70787674f,    -0.27151790f,    0.14223313f,    0.18006730f,    -0.64166725f,    -0.21031371f,
    0.01233959f,    -0.07327285f,    0.07410064f,    0.10003443f,    -0.39662188f,    0.05035076f,    -0.02922088f,    -0.01554595f,    0.14308825f,    -0.14043722f,
    -0.02357493f,    -0.39104721f,    -0.05076671f,    0.05218313f,    0.23195344f,    -0.10648982f,    0.05311410f,    -0.59049159f,    -0.15965626f,    0.04886941f,
    -0.08049624f,    -0.23146865f,    -0.34732807f,    -0.12381706f,    -0.12901260f,    -0.03700530f,    0.11324465f,    0.05664156f,    0.08750966f,    -0.13652436f,
    0.13071509f,    0.47499767f,    0.23482597f,    0.16653039f,    0.02211240f,    -0.52124399f,    -0.18455490f,    -0.22502705f,    0.19724268f,    -0.06804266f,
    0.08329123f,    0.24396421f,    0.24042630f,    0.04776504f,    -0.04261725f,    0.14703168f,    -0.07306065f,    -0.02425035f,    0.04982938f,    -0.21212777f,
    -0.18354259f,    0.17498878f,    0.11605833f,    0.13256207f,    0.39756402f,    -0.06332076f,    0.02373249f,    0.03109979f,    -0.04798061f,    -0.17106357f,
    -0.08591086f,    -0.14043091f,    0.01491367f,    -0.04834491f,    0.06504957f,    -0.04070503f,    0.17127705f,    0.07232492f,    -0.19842768f,    0.21956272f,
    0.03728694f,    0.15033770f,    -0.11933964f,    0.05742856f,    -0.08645180f,    -0.50091976f,    0.03265350f,    0.16847171f,    -0.06687181f,    0.00092106f,
    0.20336163f,    0.01577107f,    0.04202563f,    0.05396171f,    -0.05911645f,    0.17446119f,    0.40762231f,    0.07314081f,    0.19929692f,    0.16596323f,
    0.14992818f,    0.32122684f,    -0.06848163f,    -0.24306291f,    0.27099729f,    0.07278761f,    -0.46813858f,    -0.02875608f,    0.24708100f,    -0.26056373f,
    -0.12521969f,    -0.19099659f,    0.20357664f,    -0.10784365f,    0.21559374f,    0.40560672f,    -0.12757961f,    0.17817965f,    -0.23853052f,    -0.10828537f,
    0.22256131f,    0.00023639f,    -0.17291711f,    -0.15711866f,    0.14313228f,    -0.04170353f,    0.21095875f,    -0.13600269f,    0.19448797f,    0.06791846f,
    0.23005126f,    -0.08843626f,    0.01060416f,    0.22242486f,    -0.11099268f,    0.15435016f,    -0.07458825f,    0.18092094f,    0.73604566f,    -0.02121123f,
    -0.47783196f,    0.07171408f,    0.11023836f,    0.04344983f,    0.21354476f,    -0.24159282f,    -0.87677640f,    -0.08871917f,    -0.35828069f,    0.03750085f,
    -0.13418779f,    -0.09621249f,    -0.37418348f,    -0.11560066f,    0.08200389f,    -0.31036127f,    -0.02183562f,    -0.06305414f,    -0.22783263f,    0.08908934f,
    0.30328456f,    -0.20751059f,    -0.01500704f,    -0.11337516f,    -0.15001702f,    -0.00752894f,    -0.11437678f,    -0.12454540f,    0.15831502f,    -0.06943711f,
    0.07946621f,    0.26480594f,    -0.24373648f,    0.14013410f,    -0.05114811f,    0.16913314f,    0.02584253f,    0.14899395f,    0.02404564f,    -0.20280722f,
    0.05434098f,    0.13086015f,    0.10890659f,    -0.18183991f,    0.14004397f,    -0.30093363f,    -0.06486481f,    0.07522298f,    0.02475996f,    -0.20320392f,
    0.14828382f,    -0.03934633f,    -0.02242438f,    -0.20543611f,    0.15756463f,    -0.12684025f,    -0.31895739f,    0.15558295f,    0.17971256f,    0.10520751f,
    0.00322581f,    0.05142953f,    -0.07447156f,    0.14675321f,    0.10365677f,    -0.10281830f,    0.56307769f,    0.30679893f,    0.59014183f,    -0.08369067f,
    0.04781040f,    0.16413890f,    0.19950259f,    0.03103886f,    -0.11653670f,    0.01666220f,    -0.07355227f,    0.02415522f,    0.08585763f,    -0.08560725f,
    -0.06736108f,    0.04548173f,    -0.23916137f,    0.05029440f,    0.00141490f,    -0.01100408f,    0.07175393f,    -0.17281656f,    -0.17760459f,    -0.09262556f,
    -0.18014269f,    -0.12896602f,    0.20182648f,    0.29767272f,    0.01192183f,    0.05251299f,    0.00250977f,    0.00431694f,    -0.05400458f,    0.17982702f,
    -0.19142266f,    0.09560378f,    0.12419884f,    -0.01644579f,    -0.01340287f,    -0.00857425f,    0.17277394f,    -0.23483084f,    0.09536518f,    0.04384067f,
    0.30183208f,    0.06999570f,    0.20767447f,    0.07514802f,    -0.34263045f,    0.10885168f,    -0.08145533f,    -0.45455986f,    -0.17115438f,    0.01936074f,
    0.55641019f,    0.87027150f,    0.07633369f,    -0.05284707f,    0.03217581f,    -0.47253060f,    0.78810018f,    0.22234985f,    0.01829318f,    -0.09827226f,
    -0.07867759f,    -0.09723172f,    -0.18742757f,    -0.14240202f,    0.06011629f,    -0.06705012f,    -0.13793297f,    -0.44835964f,    -0.05125539f,    -0.17885497f,
    -0.44836605f,    -0.47397050f,    0.10327744f,    0.45909643f,    -0.02795691f,    -0.02474084f,    0.04705835f,    0.18332177f,    -0.27430022f,    0.12548354f,
    -0.83851349f,    0.07030293f,    0.14002113f,    0.02342786f,    -0.16455223f,    0.02724071f,    0.18642925f,    0.13665871f,    -0.02829171f,    0.09350575f,
    0.12621868f,    -0.04508669f,    -0.28505230f,    0.14652640f,    -0.11326340f,    -0.24720873f,    0.50248682f,    -0.31634834f,    -0.07527136f,    -0.29941469f,
    -0.31816155f,    0.00370915f,    -0.19960754f,    0.06191277f,    -0.31191710f,    -0.29323286f,    -0.38678437f,    -0.08800368f,    0.06287021f,    -0.00674889f,
    0.18152367f,    -0.12715375f,    -0.02181639f,    -0.07728446f,    0.20025046f,    -0.21317734f,    0.17607714f,    -0.03907886f,    -0.40144563f,    0.10176881f,
    0.07385865f,    0.09682412f,    -0.30291918f,    0.01281260f,    0.00558144f,    0.17131071f,    0.08776186f,    -0.03707355f,    0.21314527f,    0.30029297f,
    0.14683104f,    0.12984969f,    -0.02112984f,    0.26018667f,    -0.02688366f,    0.04736860f,    -0.00507267f,    0.09022672f,    0.05369486f,    0.03759982f,
    0.02369931f,    -0.13419361f,    -0.08864252f,    -0.25558013f,    -0.18554603f,    -0.10417028f,    0.08354401f,    -0.02500361f,    -0.11774808f,    -0.03938414f,
    0.07815682f,    -0.26056516f,    -0.02466936f,    -0.02156097f,    -0.01522726f,    -0.06632742f,    -0.23337786f,    -0.15090995f,    -0.03851565f,    0.09534439f,
    0.22564188f,    0.20252545f,    0.04283043f,    -0.11679970f,    0.10738330f,    0.05439847f,    -0.12234025f,    0.17585386f,    0.17899205f,    -0.19149284f,
    -0.15630999f,    -0.12145320f,    0.11632417f,    0.17225954f,    0.11057825f,    0.28290468f,    -0.15480529f,    -0.13987426f,    0.14037763f,    0.09421781f,
    -0.05786416f,    0.19072126f,    0.15936962f,    0.03249107f,    0.01080753f,    -0.09068464f,    -0.05640650f,    0.12649913f,    0.02030174f,    0.09375895f,
    -0.08180392f,    -0.05094671f,    -0.14019109f,    0.08585060f,    0.03332756f,    0.01323591f,    0.38416904f,    -0.13845991f,    -0.10317333f,    0.01541014f,
    -0.20644917f,    0.08666890f,    -0.24483691f,    -0.13940489f,    -0.13122392f,    0.17434978f,    -0.09173642f,    0.12923834f,    0.05906431f,    0.05634959f,
    -0.07986601f,    -0.09402791f,    -0.12462611f,    -0.15857936f,    -0.02646132f,    0.00075924f,    0.24502754f,    -0.04824232f,    0.08794235f,    0.10873266f,
    0.03092982f,    0.04266962f,    -0.07647884f,    -0.10735784f,    0.21216007f,    0.24750602f,    -0.12199436f,    0.06722327f,    -0.28783590f,    0.05731081f,
    -0.08015901f,    0.15583190f,    -0.09891019f,    0.21335274f,    0.23639834f,    0.10919163f,    -0.01583312f,    0.17718509f,    -0.15914175f,    -0.00143169f,
    0.22130439f,    0.02541303f,    0.35894048f,    0.18380632f,    -0.33016378f,    -0.13803768f,    -0.20227930f,    -0.06811178f,    -0.44710413f,    0.10483669f,
    -0.32917199f,    -0.08265948f,    -0.01089218f,    0.04974393f,    0.61349571f,    -0.21113946f,    -0.25063264f,    0.15831956f,    0.23577264f,    0.01548468f,
    -0.67785525f,    -0.10213467f,    0.40269488f,    -0.15426470f,    -0.09630617f,    -0.11128117f,    0.10171805f,    0.14586446f,    0.07797605f,    0.13672085f,
    -0.18328702f,    -0.46247625f,    0.05157234f,    -0.04658313f,    0.05220680f,    -0.04286692f,    -0.30210781f,    -0.06473348f,    -0.30400974f,    0.08549064f,
    -0.02089628f,    -0.22262795f,    -0.32341489f,    0.24944420f,    -0.15914144f,    0.02144741f,    -0.49686190f,    -0.15464669f,    -0.16368698f,    -0.24931946f,
    -0.20155817f,    -0.16977687f,    -0.06063677f,    -0.05120335f,    0.06265694f,    0.04771582f,    0.54752409f,    -0.41548926f,    -0.51318634f,    0.23606379f,
    0.15264635f,    0.12412680f,    0.01638540f,    -0.02778403f,    -0.11669315f,    -0.40113369f,    -0.15072326f,    -0.15203968f,    0.14977606f,    0.05321680f,
    0.18251309f,    -0.25953314f,    -0.01316963f,    0.30175111f,    -0.29846224f,    0.49959224f,    0.15457834f,    -0.39654955f,    0.08108626f,    0.28179801f,
    -0.20223320f,    -0.13431261f,    -0.08119769f,    -0.12257542f,    -0.06858454f,    -0.48395345f,    0.11733076f,    -0.13543092f,    -0.20821418f,    0.17178883f,
    -0.37107623f,    -0.37116379f,    0.21643946f,    0.01893402f,    -0.42235026f,    0.04086778f,    -0.02133726f,    0.03879506f,    0.53213316f,    -0.70957476f,
    -0.15185413f,    -0.29526445f,    0.30221954f,    0.05824789f,    -0.53304690f,    0.02915724f,    0.15138170f,    0.17163037f,    0.21334890f,    0.01053341f,
    0.35264331f,    0.01897117f,    -0.00032874f,    -0.08950258f,    0.21756457f,    0.14417976f,    -0.00729375f,    0.15151931f,    0.13487713f,    -0.01433913f,
    0.06582418f,    -0.03473066f,    0.06521018f,    -0.04397904f,    0.33314988f,    0.06372886f,    -0.36067310f,    -0.07614025f,    -0.00745235f,    0.13101795f,
    -0.06847350f,    0.08314152f,    0.07219497f,    -0.19253886f,    -0.18652551f,    0.07779209f,    0.00601559f,    0.09754272f,    -0.38953415f,    -0.21423413f,
    -0.13016032f,    0.00672175f,    -0.15682486f,    -0.10523640f,    0.02995728f,    -0.09108678f,    0.09943921f,    0.19952476f,    0.03857160f,    0.08058657f,
    0.24299237f,    0.36199534f,    0.03955092f,    0.00851353f,    -0.16272287f,    -0.06088771f,    0.17161497f,    0.01542033f,    0.22295308f,    0.05109288f,
    -0.05182318f,    -0.18199341f,    -0.30971923f,    0.26118934f,    0.05005766f,    0.05774589f,    0.11369462f,    0.03422892f,    -0.00076577f,    -0.22289097f,
    -0.08412518f,    0.19329214f,    0.31564656f,    0.21110433f,    0.20603158f,    0.13846457f,    0.03148308f,    -0.04229462f,    0.19610074f,    -0.05512270f,
    -0.11437560f,    -0.09823772f,    -0.10454376f,    0.07180714f,    -0.09628522f,    -0.15980068f,    0.04680000f,    0.09835659f,    0.24085003f,    0.14708503f,
    0.21173069f,    -0.06425881f,    0.14797570f,    0.20024402f,    -0.07912725f,    -0.09897172f,    -0.22986075f,    -0.23908000f,    0.18105233f,    0.04171847f,
    0.11884826f,    0.10055040f,    -0.00349121f,    -0.05120604f,    0.09808014f,    -0.23357260f,    0.08228580f,    0.11897697f,    0.04191272f,    0.08188263f,
    0.15558794f,    0.29018992f,    -0.13527887f,    0.05974898f,    0.09936839f,    0.35939223f,    0.17762308f,    -0.06999992f,    -0.16352987f,    -0.26563939f,
    -0.04033489f,    -0.26208004f,    -0.17919107f,    0.06521014f,    0.20310993f,    0.06781023f,    0.06305694f,    -0.40832153f,    0.14778183f,    0.19001679f,
    0.08601161f,    0.18205340f,    -0.06375637f,    -0.29134870f,    -0.04572826f,    0.07731009f,    0.10497983f,    0.26840121f,    0.18979701f,    0.07601873f,
    0.11513428f,    -0.09706172f,    -0.04567700f,    0.25004405f,    0.04225692f,    0.29133862f,    0.08522465f,    -0.03246693f,    0.08388983f,    -0.19951786f,
    -0.05385926f,    -0.02031512f,    -0.09526448f,    -0.11817309f,    0.05863378f,    -0.16538371f,    -0.27573755f,    0.18680792f,    -0.13289361f,    -0.23592648f,
    -0.05641797f,    0.02442545f,    0.05436460f,    0.01201223f,    0.02406442f,    -0.48349699f,    0.05824586f,    0.01758697f,    -0.02375392f,    -0.20065743f,
    0.03183484f,    0.32072842f,    -0.20835587f,    -0.16478397f,    0.17420717f,    -0.19626208f,    -0.18725851f,    -0.15838985f,    0.01511649f,    -0.11049010f,
    -0.04449535f,    0.05982434f,    -0.11528970f,    0.18813163f,    -0.00613366f,    0.03463601f,    -0.07379905f,    -0.12822434f,    0.15555102f,    -0.37127247f,
    -0.49330071f,    0.29133785f,    0.29767102f,    0.00646560f,    0.18119401f,    -0.07126007f,    -0.30254754f,    -0.00171787f,    0.09348553f,    -0.11663460f,
    0.06576102f,    0.23982844f,    0.23039125f,    -0.76571888f,    0.08447067f,    0.24542817f,    -0.18277080f,    -0.07165825f,    0.04726305f,    -0.05249749f,
    -0.26021472f,    0.16832905f,    -0.14929120f,    0.11735065f,    0.08693337f,    0.26293710f,    0.14136688f,    -0.16477752f,    -0.14248554f,    0.04609671f,
    0.10851650f,    0.01017827f,    -0.29047462f,    0.25691509f,    0.06500573f,    0.20539287f,    -0.14838114f,    -0.33132234f,    0.19578244f,    -0.10570111f,
    -0.10919187f,    -0.31045011f,    -0.77612948f,    -0.45425916f,    -0.07578024f,    -0.08919096f,    0.30127385f,    0.15045936f,    -0.01663579f,    -0.18896265f,
    0.18000610f,    -0.22838007f,    -0.00786128f,    0.61584312f,    0.67957002f,    -0.10793108f,    -0.00495164f,    -0.01147178f,    0.16240720f,    -0.11255307f,
    0.15698247f,    0.21259618f,    0.78432935f,    0.05281333f,    -0.80884457f,    0.08895241f,    0.18249451f,    -0.04963551f,    -0.10825109f,    0.02914157f,
    -0.05928127f,    0.17262173f,    -0.09650099f,    0.07701452f,    0.19329660f,    0.36993769f,    0.05994700f,    -0.06746447f,    -0.11262715f,    0.19558373f,
    -0.05722781f,    -0.36793888f,    0.00098627f,    0.07334100f,    0.15912142f,    0.16391361f,    0.10871912f,    -0.10357544f,    0.23863383f,    -0.22656856f,
    -0.05154365f,    0.07363771f,    0.20793286f,    -0.11139093f,    -0.32658207f,    -0.01621121f,    -0.83687460f,    0.20603964f,    0.14043894f,    -0.30193791f,
    -0.16214481f,    0.06944310f,    -0.18390746f,    0.05656989f,    0.18659291f,    -0.00058402f,    0.18759400f,    0.01121548f,    -0.19134623f,    0.08674042f,
    0.05422014f,    -0.16089597f,    0.03964456f,    -0.26462981f,    0.21090128f,    -0.29827628f,    0.29816335f,    -1.12640595f,    -0.22835605f,    0.07125413f,
    0.28408101f,    -0.00286761f,    -0.47386903f,    0.03601544f,    0.15773614f,    -0.54182506f,    0.35028249f,    -0.08643214f,    -0.01866632f,    -0.08325713f,
    0.08086248f,    0.23607579f,    0.47898293f,    0.06107010f,    -0.00770618f,    0.24935447f,    -0.35650513f,    0.29469720f,    -0.08514200f,    -0.35292339f,
    -0.61232036f,    -0.02576730f,    0.39428821f,    0.07756045f,    -0.47783604f,    -0.05866021f,    0.17355688f,    0.17835882f,    -0.11907990f,    -0.08810655f,
    0.17835809f,    0.06238624f,    -0.16060029f,    -0.30108264f,    -0.35019571f,    -0.08262224f,    -0.15965146f,    0.09146040f,    -0.09910793f,    0.22526567f,
    0.11547320f,    -0.08180318f,    -0.38600123f,    0.13009752f,    -0.76057613f,    0.27944499f,    0.70840150f,    -0.01517702f,    0.25479260f,    -0.30624044f,
    0.03728662f,    0.05449780f,    -0.03314689f,    0.15670712f,    -0.50262433f,    0.11323669f,    -0.67687464f,    -0.02666859f,    0.09041431f,    -0.14064460f,
    0.14461444f,    -0.30046013f,    -0.23469196f,    -0.11602599f,    -0.23619115f,    0.15084346f,    0.36313367f,    0.20535535f,    -0.27240461f,    0.02290673f,
    0.00763623f,    0.06707966f,    0.24590839f,    0.00383130f,    0.04563523f,    -0.19584976f,    -0.12058964f,    0.11338308f,    0.12234754f,    0.13841976f,
    -0.16107284f,    0.05419678f,    -0.01449415f,    0.35769838f,    0.07092750f,    0.13847971f,    -0.06879380f,    -0.06781737f,    0.05246992f,    -0.10802976f,
    -0.14773032f,    -0.25284258f,    -0.18218336f,    -0.23104110f,    -0.21723370f,    0.20701164f,    0.14100955f,    -0.48551184f,    -0.19646010f,    -0.74761719f,
    -0.79299760f,    -0.43384600f,    0.05681382f,    0.12481575f,    -0.65343785f,    -0.00547890f,    -0.74169803f,    -0.06203158f,    -0.19866873f,    0.11652042f,
    0.13910879f,    0.15798996f,    0.19362572f,    -0.31732976f,    0.03233125f,    -0.05818088f,    -0.04257482f,    0.25912958f,    0.03472674f,    -0.14279428f,
    -0.05496360f,    0.40595829f,    0.16843584f,    0.26050419f,    0.16913712f,    0.06634108f,    -0.06173182f,    -0.31618354f,    0.10562900f,    -0.33352366f,
    0.03513991f,    0.23503205f,    0.45458883f,    -0.37885851f,    0.19900817f,    0.17591478f,    -0.09641954f,    -0.04959274f,    0.33900753f,    -0.34699109f,
    0.02658603f,    -0.26684558f,    -0.81009132f,    0.03970222f,    -0.29827651f,    0.08023970f,    -0.70729113f,    0.24512471f,    -0.67124385f,    0.04532266f,
    0.07844869f,    0.16703631f,    -0.00773315f,    -0.18868655f,    -0.48205888f,    0.07501783f,    -0.07700929f,    0.37565798f,    0.10348450f,    0.15746270f,
    -0.03216951f,    -0.01091511f,    0.14931981f,    -0.24974000f,    0.14359638f,    -0.74767321f,    0.42883343f,    0.51506376f,    -0.14918037f,    -0.11043367f,
    0.16360688f,    -0.17899418f,    0.21016209f,    -0.10118299f,    0.23541445f,    -0.40612346f,    -0.22700222f,    0.15264037f,    -0.11942848f,    -0.17317533f,
    -0.36260369f,    -0.08857648f,    -0.10315216f,    0.12788014f,    0.22812153f,    -0.15468428f,    0.13570718f,    -0.60927403f,    -0.07727412f,    0.20225039f,
    -0.06894179f,    -0.16673642f,    0.23393688f,    -0.01015556f,    0.00553180f,    -0.11933962f,    0.10726096f,    -0.03679335f,    0.17067631f,    -0.20584433f,
    -0.21957843f,    0.09750377f,    -0.00009075f,    0.19882351f,    -0.03648920f,    -0.08958676f,    0.02777405f,    0.08763698f,    0.01285140f,    -0.10366102f,
    -0.01848507f,    -0.04360824f,    0.00393517f,    -0.21506597f,    -0.11195444f,    0.00779178f,    -0.09531537f,    -0.25185394f,    0.07472625f,    -0.18092275f,
    0.19443226f,    0.16766945f,    -0.05666618f,    0.10791210f,    0.07523071f,    0.21161938f,    0.03025035f,    -0.03702865f,    -0.16479681f,    -0.08855665f,
    0.15117872f,    0.13802886f,    0.15302078f,    -0.04500449f,    -0.14439815f,    0.13100281f,    0.07671954f,    -0.12147896f,    -0.17467839f,    0.03387402f,
    0.08760750f,    -0.02080569f,    -0.23931512f,    -0.11723493f,    0.17346007f,    -0.36081076f,    0.22819385f,    0.13655703f,    -0.01430325f,    -0.13525240f,
    -0.28926620f,    -0.08155888f,    0.24102926f,    -0.02810282f,    -0.23300061f,    0.21606643f,    -0.18198101f,    0.13799976f,    0.12825969f,    -0.39830899f,
    0.05298194f,    -0.31837791f,    -0.05428504f,    0.16694480f,    -0.00223090f,    -0.13003229f,    0.07647256f,    0.17046784f,    -0.11404264f,    0.00906659f,
    0.11227815f,    0.13565157f,    -0.10250309f,    -0.00905586f,    -0.01934392f,    0.18606080f,    -0.16402616f,    -0.16536455f,    0.19191171f,    0.03014182f,
    0.21968068f,    0.08945813f,    0.03766564f,    0.14403997f,    -0.19310489f,    -0.13545603f,    0.00423805f,    -0.16918837f,    0.04308631f,    0.02198329f,
    -0.08752221f,    0.07728433f,    0.15275246f,    -0.07860848f,    0.10780866f,    -0.08265304f,    -0.09234162f,    0.08125190f,    0.25920197f,    -0.04971461f,
    -0.03306270f,    -0.34436220f,    0.01263108f,    -0.03164787f,    0.07552146f,    -0.00858583f,    -0.30941483f,    -0.12683336f,    -0.10801304f,    0.20499864f,
    0.10826563f,    0.21645157f,    -0.01472741f,    -0.01344222f,    0.08142178f,    0.11784505f,    -0.39117202f,    -0.27028847f,    0.13964552f,    0.05577502f,
    0.15913647f,    0.14486632f,    0.17617312f,    0.03175954f,    0.12631021f,    -0.14505221f,    0.18900469f,    0.20494136f,    0.12898147f,    0.02687850f,
    -0.07223847f,    0.18647949f,    0.25224560f,    -0.17165819f,    -0.09476744f,    -0.02358720f,    0.07591903f,    -0.06396711f,    0.10944568f,    -0.00825800f,
    -0.00225510f,    -0.02242509f,    0.08918118f,    0.00487942f,    -0.05375930f,    0.01759072f,    0.19705063f,    -0.22272857f,    -0.20338003f,    -0.05412141f,
    0.10681162f,    -0.03123512f,    -0.02856761f,    -0.22559708f,    -0.03897509f,    0.02285580f,    0.19340746f,    -0.32596186f,    0.23822321f,    -0.04296558f,
    0.04316448f,    -0.10358246f,    -0.02088098f,    -0.05501295f,    0.12389486f,    -0.17315464f,    -0.48506263f,    0.25262249f,    -0.15860307f,    0.27512503f,
    0.21984914f,    0.05900689f,    0.06324084f,    -0.07584159f,    0.05070705f,    0.17135149f,    -0.20086490f,    0.16020820f,    -0.75691360f,    0.01122466f,
    -0.05252463f,    0.13250756f,    0.03938999f,    0.16630353f,    -0.03319794f,    0.13162775f,    0.21670845f,    0.01228624f,    0.05432087f,    -0.07716372f,
    -0.06172199f,    0.17123574f,    0.12776011f,    0.04934129f,    0.18275967f,    -0.33697540f,    -0.15658724f,    -0.11730760f,    0.09067209f,    -0.09440660f,
    0.30275953f,    0.04714041f,    -0.00848576f,    -0.10477487f,    0.25334209f,    0.20592010f,    -0.14446597f,    0.06662590f,    0.11174834f,    -0.07283112f,
    -0.11521381f,    0.15569633f,    -0.01255195f,    -0.11998247f,    -0.26644710f,    0.30153394f,    -0.29867417f,    -0.01209532f,    -0.09943278f,    0.01431251f,
    -0.03998326f,    -0.23074354f,    0.09578875f,    -0.23940960f,    0.30156085f,    0.03266720f,    0.11872850f,    0.13130033f,    0.07082403f,    0.09583393f,
    -0.18984844f,    -0.07415442f,    0.17172675f,    0.13109756f,    0.20331271f,    -0.19625957f,    -0.26531538f,    -0.15269157f,    -0.09678359f,    -0.12611589f,
    0.16342209f,    0.27545872f,    0.07836352f,    0.18356408f,    0.17611888f,    -0.04222223f,    -0.19637796f,    -0.04306105f,    -0.05327724f,    0.15052147f,
    0.03878726f,    -0.09648951f,    0.08969245f,    0.12478191f,    -0.10623272f,    -0.33481646f,    0.09788984f,    -0.15290733f,    0.17482184f,    0.00176196f,
    -0.04725714f,    -0.12303844f,    0.03987345f,    0.21272822f,    0.00477679f,    -0.07527153f,    -0.09825808f,    0.07948814f,    0.04609570f,    0.20478609f,
    -0.02432402f,    0.08903339f,    -0.13474245f,    0.00754153f,    -0.04416976f,    -0.07412107f,    0.14111768f,    0.19791475f,    0.01095750f,    0.20324937f,
    -0.24879102f,    0.13507411f,    0.09366611f,    0.09635692f,    -0.05048216f,    -0.02654933f,    0.10038184f,    0.06602718f,    0.26057369f,    -0.05245672f,
    -0.06150267f,    -0.20689416f,    -0.09473190f,    -0.23242237f,    0.14195886f,    -0.46253681f,    -0.39158908f,    0.19416846f,    0.07968353f,    0.35249504f,
    0.07151449f,    -0.20325731f,    -0.00511714f,    0.05981776f,    -0.15597327f,    -0.43021303f,    -0.09514994f,    -0.06915852f,    -0.13329549f,    -0.14784466f,
    0.05509800f,    -0.06029072f,    -0.37176412f,    -0.07449513f,    -0.25327301f,    -0.05169949f,    0.34441397f,    -0.47400925f,    -0.13095693f,    0.02292447f,
    -0.19708902f,    0.49032584f,    0.02488181f,    -0.01739557f,    -0.64481467f,    0.25543931f,    0.03999760f,    0.18700013f,    0.01458891f,    0.09519706f,
    0.48738489f,    -0.39439696f,    -0.03389083f,    0.36857173f,    -0.53706634f,    -0.19974889f,    0.00974763f,    0.01288577f,    0.13718663f,    0.05652579f,
    -0.03824874f,    0.07033368f,    0.05356402f,    0.16024928f,    0.18562330f,    0.07869453f,    -0.07917953f,    0.14468306f,    0.34988788f,    -0.35658559f,
    -0.02466110f,    0.02050120f,    -0.04009022f,    0.11061830f,    0.24565111f,    -0.39296040f,    -0.28949237f,    -0.26499930f,    0.12978250f,    0.07550339f,
    0.07425126f,    -0.11939928f,    -0.09909313f,    0.04096235f,    0.22740516f,    -0.08848157f,    -0.17528038f,    0.11355773f,    0.14640835f,    -0.09549872f,
    -0.13778377f,    0.20542531f,    0.27776775f,    0.13897692f,    0.13092853f,    0.05296927f,    -0.05923484f,    0.07818962f,    -0.31093189f,    -0.23922454f,
    -0.04916662f,    0.25013864f,    -0.03415878f,    -0.15222648f,    -0.08801881f,    0.12004142f,    0.14306173f,    0.05040335f,    0.30839133f,    0.07145454f,
    -0.12053879f,    -0.15736158f,    -1.05558455f,    -0.11320993f,    0.13859284f,    0.09727137f,    0.07789464f,    -0.08380827f,    -0.21682309f,    -0.20682304f,
    -0.04500677f,    -0.09838663f,    -0.00287630f,    0.07486790f,    -0.59120053f,    0.21550700f,    0.04800843f,    -0.17900522f,    -1.11629176f,    -0.14009789f,
    0.11209069f,    -0.24746189f,    -0.03903116f,    -0.24698155f,    -0.10960051f,    0.32776278f,    -0.11658882f,    -0.07536315f,    0.19930637f,    0.11877777f,
    -0.19420137f,    -0.06644263f,    0.03362504f,    0.37636760f,    0.01154162f,    0.27067441f,    0.15116754f,    0.31989008f,    -0.03917371f,    0.18217988f,
    -0.01229065f,    -0.14469661f,    0.03670742f,    0.24614818f,    -0.01356655f,    0.10148194f,    -0.36780918f,    -0.28654283f,    -0.04256428f,    0.05050906f,
    -0.42136967f,    -0.36976540f,    0.12177113f,    0.20012730f,    0.12101147f,    -0.00055529f,    -0.38772923f,    -0.68851602f,    -0.15176238f,    -0.06398210f,
    0.17408013f,    0.25218955f,    0.08523752f,    0.17977045f,    0.11294811f,    0.47366232f,    -0.07022036f,    0.17320232f,    0.09644646f,    -0.05475823f,
    -0.11922429f,    0.16843833f,    0.05015017f,    0.13862321f,    0.11579555f,    -0.64567810f,    -0.31010658f,    0.08723228f,    0.13310921f,    0.11647660f,
    -0.05980688f,    0.18846476f,    -0.02235966f,    -0.48372993f,    0.03411086f,    -0.17113443f,    -0.07363605f,    -0.06288191f,    -0.57041734f,    0.00292889f,
    0.17463472f,    -0.18661700f,    0.09838595f,    0.04811934f,    -0.39015830f,    0.02616450f,    0.23397699f,    0.01323508f,    0.15125827f,    -0.03956838f,
    -0.10178576f,    0.11719855f,    -0.16840056f,    -0.49580494f,    0.20660622f,    -0.45006663f,    0.18535495f,    0.47527406f,    0.13681497f,    -0.17523457f,
    0.17414521f,    -0.30617449f,    -0.38432771f,    0.10521255f,    -0.10860112f,    0.18449071f,    -0.27145097f,    0.24753128f,    -0.01249922f,    0.07562140f,
    0.22952203f,    0.03297196f,    0.05569253f,    -0.00466188f,    0.26504207f,    -0.10413368f,    0.13097087f,    0.18394290f,    -0.04711914f,    0.13056204f,
    -0.52800590f,    0.19578733f,    -0.08354028f,    -0.33727565f,    -0.13401176f,    0.09561319f,    0.00889224f,    -0.17738414f,    0.18436244f,    0.05994977f,
    0.17179982f,    0.17155983f,    0.22859269f,    0.06613781f,    0.34603295f,    0.13918808f,    0.25605237f,    -0.04564552f,    0.13384227f,    -0.07972483f,
    0.17802684f,    -0.13854407f,    0.27594602f,    0.02307743f,    0.19291550f,    -0.45608240f,    0.10097636f,    -0.00639897f,    -0.24532974f,    0.21752697f,
    -0.75011015f,    -0.18671100f,    0.00464014f,    -0.01836729f,    0.20882396f,    -0.48479998f,    -0.56704223f,    0.17858565f,    0.09512406f,    -0.06965964f,
    -0.15407366f,    -0.16086046f,    0.04665831f,    0.02649591f,    0.08324268f,    0.07323236f,    0.03151065f,    -0.18442288f,    -0.08677796f,    0.32831955f,
    0.00017420f,    -0.05725498f,    0.00659395f,    0.14122024f,    -0.09235650f,    0.24199511f,    -0.11831752f,    -0.19970675f,    -0.57050306f,    -0.28453791f,
    0.00250567f,    -0.12305013f,    0.12961546f,    -0.02375578f,    -0.00905438f,    -0.07716522f,    -0.33222586f,    0.04590688f,    0.09301378f,    -0.12704481f,
    -0.15433839f,    -0.28987446f,    0.09197029f,    -0.01126753f,    -0.08037198f,    0.17778362f,    0.22890335f,    0.14913149f,    0.25709060f,    -0.12873569f,
    -0.12069751f,    -0.12999515f,    -0.01969470f,    0.05869621f,    0.18594801f,    0.16673502f,    -0.01839069f,    -0.14487344f,    0.28797877f,    -0.04869026f,
    0.11873087f,    -0.17824103f,    -0.15508582f,    -0.32857618f,    -0.15232408f,    -0.17745587f,    -0.04490480f,    -0.15303236f,    -0.03432110f,    0.06387226f,
    -0.00867749f,    0.14083454f,    -0.17171229f,    0.23869678f,    0.19740757f,    0.19252951f,    -0.14805266f,    -0.11176387f,    0.34020802f,    0.01991020f,
    -0.20684007f,    0.22511677f,    0.25968900f,    -0.06150922f,    0.09708130f,    0.14645073f,    0.00416594f,    0.03438384f,    -0.08843414f,    0.03120059f,
    0.03002069f,    -0.22558334f,    0.20344147f,    0.09011989f,    -0.12545852f,    0.01136623f,    -0.49526131f,    0.10425729f,    0.00976956f,    -0.24800493f,
    0.04480744f,    0.17961983f,    0.00560376f,    0.06420226f,    -0.17523995f,    -0.40063724f,    0.09573804f,    -0.00879703f,    0.12192969f,    0.07362522f,
    0.02200734f,    0.38211298f,    -0.20586021f,    -0.05430455f,    0.19811884f,    -0.07392184f,    -0.06134875f,    0.06427699f,    0.11374862f,    -0.35529199f,
    0.27782467f,    0.11636402f,    0.11929635f,    0.23623805f,    0.26080301f,    0.05795266f,    -0.11966920f,    0.05899946f,    -0.02570670f,    -0.22480667f,
    -0.44848636f,    0.19527981f,    0.12252015f,    -0.38220087f,    0.02998340f,    -0.15252680f,    -0.12745206f,    -0.13540816f,    -0.14851111f,    0.17775869f,
    0.06850535f,    0.11960528f,    -0.20104851f,    0.09139352f,    0.02120247f,    0.08944042f,    0.14209610f,    0.01528804f,    -0.18364432f,    0.03487909f,
    0.27217194f,    0.09526552f,    -0.09768189f,    0.05315393f,    -0.21321675f,    0.09691429f,    -0.02842713f,    0.01560878f,    0.06141268f,    0.07582270f,
    0.16530199f,    -0.07434162f,    0.11117435f,    0.09625019f,    -0.02843280f,    0.09734808f,    0.10508440f,    -0.42640093f,    0.05308855f,    -0.23066828f,
    -0.01920596f,    -0.27153367f,    -0.28606990f,    0.18398257f,    0.25276804f,    0.12469392f,    -0.08546494f,    0.06974513f,    -0.05419293f,    0.12566410f,
    -0.07233530f,    0.21817601f,    -0.14641502f,    0.18444687f,    -0.18530363f,    -0.01491950f,    -0.06560232f,    0.16322799f,    -0.18183528f,    0.09594121f,
    0.11478779f,    -0.06315070f,    0.24612950f,    -0.00587001f,    0.57112849f,    -0.22061399f,    0.58029568f,    0.02258353f,    -0.13929804f,    -0.11428153f,
    -0.32478732f,    0.00525040f,    0.04226192f,    -0.08486008f,    0.03669566f,    0.23160744f,    -0.23311923f,    -0.04584911f,    0.23392895f,    0.55833244f,
    -0.15279528f,    -0.04627549f,    -0.10802086f,    -0.06617626f,    0.09608117f,    -0.03632713f,    0.18219948f,    -0.33879218f,    -0.32016510f,    -0.11318776f,
    0.24716699f,    -0.16933335f,    -0.29939693f,    0.04234100f,    0.15454093f,    0.12095273f,    -0.13260138f,    -0.02444023f,    -0.02584324f,    0.23212130f,
    0.34094885f,    -0.04715541f,    0.02620996f,    0.00891631f,    -0.13569948f,    0.17196587f,    -0.03358394f,    0.24507341f,    0.07938528f,    0.12380342f,
    -0.12370651f,    0.10047583f,    -0.36113197f,    -0.13854380f,    -0.04723263f,    0.14326230f,    -0.10461649f,    -0.21995649f,    -0.04103823f,    0.12797058f,
    0.29019740f,    -0.41008884f,    0.21800992f,    0.22718728f,    0.04066187f,    -0.08706050f,    -0.08672462f,    0.25541431f,    -0.03492637f,    0.12097267f,
    -0.42771241f,    -0.10652204f,    0.12183626f,    -0.19751593f,    -0.01179570f,    -0.39150837f,    -0.23284866f,    0.33586693f,    -0.07545423f,    -0.24550539f,
    -0.08792082f,    0.08753871f,    0.00652637f,    -0.42005464f,    -0.12267133f,    0.09193098f,    -0.27198777f,    -0.24369968f,    0.14838435f,    0.07171215f,
    -0.05340566f,    0.19323392f,    -0.30006090f,    -0.10866862f,    0.06837555f,    0.09266602f,    -0.37947941f,    0.37350446f,    -0.20973141f,    0.22723411f,
    0.35001999f,    0.00530637f,    0.05022259f,    -0.25406161f,    -0.35274404f,    -0.05349022f,    0.02366449f,    -0.22370927f,    -0.23843051f,    0.00513691f,
    0.11768397f,    0.09671993f,    0.13689077f,    0.13083561f,    -0.39672121f,    -0.22081278f,    0.10648151f,    0.10017786f,    0.05118443f,    0.12114290f,
    0.11722053f,    -0.12471145f,    -0.25402042f,    -0.03376228f,    -0.22812015f,    0.17141023f,    0.37408859f,    -0.10328676f,    -0.07121649f,    0.20621914f,
    -0.40112907f,    -0.27018142f,    -0.22134697f,    0.40306914f,    0.03835100f,    -0.10541684f,    0.04538559f,    -0.24369971f,    0.22372508f,    0.19051945f,
    -0.16684288f,    -0.36564228f,    0.14256707f,    -0.05352769f,    -0.63117421f,    -0.12430149f,    -0.29859331f,    0.04596355f,    0.41176745f,    -0.12392495f,
    0.16775896f,    -0.22975935f,    -0.00951679f,    0.04494615f,    -0.28487515f,    -0.25596321f,    -0.27956483f,    0.09609287f,    -0.46318135f,    -0.04594514f,
    0.32973635f,    0.11980495f,    0.08707917f,    0.16628246f,    0.10582156f,    -0.15867022f,    -0.18913898f,    0.08811046f,    0.04546214f,    -0.00977312f,
    -0.34243959f,    -0.05685956f,    0.24423096f,    0.00939585f,    -0.05934187f,    -0.29233149f,    -0.34649485f,    -0.00291317f,    0.11569059f,    -0.27546790f,
    -0.05618456f,    -0.18055168f,    0.25564215f,    0.06598042f,    -0.09634317f,    -0.02172634f,    -0.23228167f,    -0.24803798f,    0.13750319f,    0.00223279f,
    -0.16876192f,    -0.08083250f,    -0.07325401f,    -0.31101203f,    0.13201623f,    0.01562714f,    -0.09897464f,    0.30926132f,    -0.36076176f,    0.27998680f,
    0.06194042f,    0.09251846f,    0.18794753f,    -0.15958972f,    -0.14988455f,    0.25722930f,    0.24231003f,    -0.15487960f,    -0.20792946f,    -0.07395025f,
    0.09185543f,    -0.07391409f,    0.04795000f,    -0.45873582f,    0.04372834f,    0.46561721f,    -0.13313293f,    0.02917012f,    0.01868187f,    0.28903946f,
    0.19358911f,    0.04919229f,    -0.22938050f,    -0.09889926f,    -0.35765395f,    0.06733841f,    0.18759100f,    -0.55024421f,    0.15156345f,    -0.09679539f,
    -0.14077677f,    0.13933451f,    0.17904298f,    0.13548560f,    0.15535039f,    0.19859102f,    0.12121646f,    0.00571944f,    0.10052751f,    0.24507280f,
    0.22204435f,    -0.06971042f,    0.08765768f,    0.09148753f,    0.01802224f,    0.18661767f,    -0.18078490f,    0.24133730f,    0.10816406f,    -0.21829334f,
    0.12030299f,    0.27548361f,    -0.30424821f,    -0.01277656f,    0.23989430f,    0.12284409f,    0.24565187f,    0.16721274f,    -0.15537122f,    0.04472135f,
    -0.02963163f,    0.14335787f,    0.09980301f,    -0.13525052f,    0.02583195f,    0.01309879f,    0.14741658f,    0.21825752f,    0.23116675f,    -0.29749075f,
